{"version": "0.5.4", "metadata": {"date": {"year": 2026, "month": 5, "day": 24, "hour": 17, "minute": 54, "second": 58}, "loudness": -13.995031356811523, "gain": 0.8599879530564373, "training": {"settings": {"ignore_checks": false}, "data": {"latency": {"manual": null, "calibration": {"algorithm_version": 1, "delays": [0], "safety_factor": 1, "recommended": -1, "warnings": {"matches_lookahead": false, "disagreement_too_high": false, "not_detected": false}}}, "checks": {"version": 3, "passed": true}}, "validation_esr": 0.020887131569163803}}, "architecture": "WaveNet", "config": {"layers": [{"input_size": 1, "condition_size": 1, "head_size": 8, "channels": 16, "kernel_size": 3, "dilations": [1, 2, 4, 8, 16, 32, 64, 128, 256, 512], "activation": "Tanh", "gated": false, "head_bias": false}, {"input_size": 16, "condition_size": 1, "head_size": 1, "channels": 8, "kernel_size": 3, "dilations": [1, 2, 4, 8, 16, 32, 64, 128, 256, 512], "activation": "Tanh", "gated": false, "head_bias": true}], "head": null, "head_scale": 0.02}, "weights": [0.02512366697192192, 0.5068833231925964, -0.9433709383010864, -0.7099109292030334, -0.46559375524520874, 0.1727088987827301, 0.015169329941272736, 0.821662962436676, -0.05595985800027847, 0.25304144620895386, -0.10322338342666626, -0.3398396968841553, -0.984706461429596, -0.605667769908905, -0.4202611744403839, -0.01873498409986496, 0.034203965216875076, 0.04995780810713768, -0.1992865800857544, 0.01797921396791935, 0.1183793693780899, 0.07724674791097641, -0.11579179018735886, 0.037042636424303055, 0.018345752730965614, -0.06895843893289566, 0.06153348460793495, -0.09078909456729889, -0.16808868944644928, -0.09966529160737991, -0.006004541181027889, 0.19512604176998138, -0.03608282282948494, -0.11757444590330124, -0.10097396373748779, -0.10751169919967651, -0.02999170869588852, 0.20702657103538513, 0.1332961916923523, 0.023464946076273918, -0.034349482506513596, -0.0823044702410698, 0.11015085130929947, -0.06176767870783806, -0.04992656037211418, -0.13024292886257172, 0.030385615304112434, 0.04735952615737915, 0.003908539656549692, -0.08070456236600876, 0.027422798797488213, 0.19258038699626923, -0.0273094791918993, -0.05121307820081711, 0.14082078635692596, -0.16617339849472046, -0.039319250732660294, -0.06540970504283905, -0.17587034404277802, -0.13326509296894073, 0.12135358154773712, 0.08003684133291245, -0.1132536306977272, -0.08329961448907852, -0.1497313678264618, -0.13867318630218506, -0.10608735680580139, -0.05304376408457756, 0.1450967639684677, 0.25149571895599365, -0.01858394220471382, -0.10392504185438156, -0.05685035511851311, 0.21075238287448883, 0.0741075798869133, 0.012855500914156437, 0.11517495661973953, -0.181784987449646, -0.10822999477386475, -0.1744069904088974, -0.0835469514131546, 0.24563071131706238, 0.23923775553703308, -0.16409674286842346, -0.08589254319667816, -0.1127251461148262, 0.028039881959557533, 0.049358297139406204, 0.1296575665473938, -0.16944916546344757, -0.0835297480225563, -0.014214467257261276, 0.16135628521442413, 0.1750098317861557, -0.06864830106496811, -0.16066280007362366, -0.061657752841711044, 0.11893876641988754, -0.16337579488754272, -0.20104219019412994, 0.22577303647994995, 0.04643049091100693, -0.17765477299690247, 0.053875237703323364, -0.18888825178146362, -0.11838719248771667, -0.02419385313987732, -0.16786128282546997, -0.12641292810440063, -0.12147712707519531, -0.1268494427204132, 0.03960723429918289, -0.008719545789062977, 0.05355377122759819, 0.07483430951833725, -0.054925575852394104, 0.06392103433609009, -0.12692131102085114, -0.05165143311023712, -0.0721970871090889, 0.1917077600955963, -0.061888813972473145, -0.17408053576946259, 0.20457440614700317, -0.2035714089870453, -0.18509674072265625, 0.10839048773050308, -0.011874292977154255, 0.04093002900481224, -0.2598820924758911, -0.09762871265411377, 0.017242921516299248, -0.00825802143663168, 0.06193521246314049, 0.20794962346553802, -0.15373055636882782, -0.03489610180258751, -0.05711250379681587, 0.20343175530433655, 0.1541767567396164, 0.22607021033763885, -0.05819584056735039, 0.08110850304365158, -0.07751414179801941, 0.0207280945032835, -0.13102120161056519, -0.005134555045515299, 0.14740431308746338, -0.14219966530799866, -0.2165495604276657, 0.0020012285094708204, -0.19013918936252594, -0.13038109242916107, 0.21641890704631805, 0.01331327110528946, -0.23486246168613434, 0.23717573285102844, -0.060375429689884186, -0.059155046939849854, -0.11525652557611465, -0.02389466017484665, -0.021759547293186188, -0.11544494330883026, -0.18629777431488037, -0.19207368791103363, -0.03333181142807007, 0.0018720990046858788, 0.2295399159193039, -0.09345393627882004, 0.05623852089047432, 0.3001985549926758, -0.024288594722747803, 0.18963278830051422, 0.22137805819511414, -0.10376177728176117, 0.036877553910017014, -0.1773800104856491, -0.08586951345205307, 0.10506986826658249, -0.08126920461654663, -0.08927568793296814, -0.09577566385269165, -0.07058315724134445, 0.007585082668811083, 0.10235251486301422, 0.16944065690040588, -0.04443122819066048, -0.08620516210794449, -0.27769890427589417, 0.05900052189826965, 0.1670602411031723, 0.23923178017139435, -0.09038054943084717, 0.06197669357061386, 0.06960137188434601, -0.059105321764945984, -0.017539862543344498, 0.22449468076229095, -0.051523756235837936, 0.06072977930307388, 0.17661984264850616, 0.12547822296619415, -0.04808517172932625, 0.0659613311290741, -0.05922664329409599, 0.12370061874389648, -0.10376153886318207, 0.1645435243844986, 0.022712450474500656, 0.0012555913999676704, -0.07592589408159256, -0.06412867456674576, -0.15660987794399261, -0.013180320151150227, 0.04091489315032959, 0.19902069866657257, -0.13004103302955627, -0.036220110952854156, 0.29423975944519043, -0.13688497245311737, 0.023220965638756752, 0.31612810492515564, 0.026211388409137726, -0.022088024765253067, -0.287873238325119, 0.10195156931877136, -0.07138053327798843, 0.0289363581687212, -0.07346481829881668, -0.06024209037423134, -0.1767514944076538, 0.14161893725395203, 0.019835351034998894, 0.2428359091281891, 0.030384961515665054, -0.12078500539064407, -0.09722990542650223, -0.06986244022846222, -0.03662985935807228, 0.18269386887550354, 0.00798341166228056, 0.1367616057395935, 0.12751010060310364, -0.028947703540325165, 0.11458750069141388, 0.04056640341877937, 0.08406271040439606, -0.08184883743524551, 0.17719906568527222, -0.04649915173649788, -0.04223623499274254, 0.18776121735572815, 0.08908456563949585, -0.06752848625183105, -0.12718342244625092, -0.00910902488976717, -0.17831028997898102, 0.1104397103190422, -0.018810005858540535, -0.2268044650554657, 0.09380672872066498, 0.14652180671691895, 0.20229706168174744, -0.07127770781517029, -0.011555617675185204, 0.07761577516794205, -0.2208629995584488, -0.019140372052788734, 0.2505033016204834, -0.13944700360298157, -0.12356138229370117, -0.19955866038799286, 0.031406134366989136, 0.0773795023560524, -0.170665442943573, -0.2120697945356369, 0.22098904848098755, -0.2206212431192398, 0.16457431018352509, 0.10228130221366882, 0.1496797800064087, -0.22784052789211273, -0.14242184162139893, -0.016994671896100044, 0.19246543943881989, 0.17042291164398193, 0.07588768005371094, -0.10360975563526154, -0.0669984444975853, 0.13007661700248718, -0.2708605229854584, 0.002154190093278885, 0.17149560153484344, -0.1854519098997116, -0.09450599551200867, 0.03705413267016411, -0.07870020717382431, -0.16907720267772675, 0.18866142630577087, -0.22223961353302002, -0.12513302266597748, -0.054957639425992966, -0.0415915846824646, -0.1134430542588234, 0.10800357162952423, -0.201308935880661, 0.026244593784213066, 0.08910026401281357, 0.13326683640480042, -0.11298222839832306, -0.15318860113620758, -0.10409694910049438, 0.14458085596561432, -0.08528672903776169, -0.025301214307546616, 0.1924513429403305, -0.10369925945997238, -0.07545546442270279, 0.16098392009735107, 0.03363543376326561, 0.08131307363510132, -0.08598579466342926, -0.11733593791723251, -0.02246883697807789, 0.1998477727174759, 0.1622929871082306, 0.1656150072813034, -0.07923732697963715, 0.06001923978328705, -0.0983617827296257, 0.004051541909575462, -0.09776964783668518, 0.21094995737075806, -0.014433125033974648, -0.12297463417053223, 0.005905475467443466, 0.21994483470916748, 0.11944133788347244, 0.045310866087675095, 0.21600180864334106, -0.06638428568840027, -0.13307170569896698, 0.21526311337947845, 0.04867683723568916, -0.16556821763515472, 0.22604158520698547, 0.04002578929066658, 0.00471518374979496, 0.012934494763612747, 0.015999803319573402, -0.1298319548368454, 0.03295719996094704, -0.11156289279460907, 0.22282938659191132, 0.150713250041008, 0.012300385162234306, -0.004042244050651789, 0.17024700343608856, -0.04958155006170273, -0.009651555679738522, -0.196920707821846, -0.09136327356100082, -0.15997278690338135, 0.0149026894941926, 0.1296747475862503, 0.09358352422714233, 0.016273977234959602, -0.17998118698596954, -0.05915156751871109, 0.06931339204311371, -0.01190855447202921, 0.0420188270509243, -0.19391055405139923, -0.11860965937376022, -0.09606839716434479, 0.018139930441975594, 0.1793694645166397, 0.08988942205905914, 0.02027825266122818, 0.06068655103445053, 0.16703851521015167, 0.05994836613535881, 0.11578301340341568, 0.08413945138454437, -0.047968700528144836, 0.20347894728183746, 0.03979427367448807, -0.001078259781934321, -0.001509487279690802, 0.02437478117644787, -0.08429813385009766, 0.01410745270550251, -0.1261601448059082, -0.18161430954933167, -0.06522578001022339, 0.055141620337963104, 0.003093850566074252, -0.17542079091072083, -0.09846726059913635, 0.0475577637553215, 0.2114894837141037, -0.05037635564804077, -0.09111225605010986, 0.20691435039043427, 0.14194056391716003, -0.1688980609178543, 0.05740612372756004, 0.02123899571597576, 0.007525920867919922, 0.0025931617710739374, -0.16906756162643433, 0.0394216887652874, 0.0491657629609108, -0.0762142464518547, -0.03189084306359291, 0.01656191051006317, 0.03662911430001259, -0.10058768093585968, -0.06597791612148285, 0.13617703318595886, 0.09965723752975464, -0.011816121637821198, 0.09453237056732178, 0.005418519023805857, 0.02466641366481781, -0.16499139368534088, 0.07543796300888062, -0.036642979830503464, 0.011271710507571697, -0.022862670943140984, -0.1691736876964569, -0.0026750776451081038, 0.20329131186008453, -0.0605781152844429, -0.18398833274841309, 0.0242314375936985, -0.04730232432484627, -0.19879285991191864, 0.13392503559589386, -0.20758576691150665, -0.22341737151145935, -0.07748003304004669, -0.10151704400777817, 0.018944310024380684, -0.06524019688367844, 0.22292661666870117, -0.036668721586465836, 0.08406198769807816, 0.1349898725748062, -0.21533142030239105, 0.11535058915615082, 0.05892668664455414, 0.15571001172065735, -0.0759512186050415, -0.08220352232456207, 0.10359091311693192, 0.15734221041202545, 0.08155565708875656, -0.1316564977169037, 0.10683827102184296, -0.12415461242198944, -0.07036160677671432, 0.18612606823444366, -0.13084007799625397, 0.05817967280745506, -0.07120663672685623, -0.060131173580884933, -0.09607161581516266, -0.06232663616538048, -0.05957631394267082, 0.08021653443574905, -0.00919970404356718, 0.09621042758226395, 0.002102780854329467, 0.20267914235591888, -0.15718835592269897, -0.11619609594345093, -0.08812063187360764, -0.07550011575222015, 0.06505277752876282, 0.0407923124730587, -0.05318109691143036, -0.13572947680950165, 0.2286394238471985, -0.000960986246354878, 0.09305703639984131, 0.23919998109340668, 0.09347454458475113, -0.011188884265720844, 0.10496026277542114, -0.017311163246631622, 0.006427881307899952, 0.22460949420928955, -0.04947225749492645, 0.11001383513212204, 0.12718449532985687, -0.1222170889377594, -0.17838352918624878, 0.07106801122426987, 0.2656819224357605, -0.019082041457295418, 0.020389234647154808, -0.06873063743114471, -0.036176878958940506, 0.2027399092912674, -0.21550148725509644, -0.07206796854734421, 0.1400652676820755, -0.1734374761581421, -0.06518518924713135, 0.04667625203728676, 0.21382379531860352, 0.06694500148296356, -0.13137759268283844, -0.027038857340812683, 0.06702673435211182, -0.06070246174931526, 0.1478298455476761, 0.20103390514850616, -0.09967559576034546, -0.057266395539045334, -0.0974380224943161, 0.15484018623828888, 0.021510692313313484, 0.01881360448896885, -0.16600467264652252, 0.021280409768223763, -0.11827275156974792, 0.0960930734872818, -0.20182164013385773, 0.026001233607530594, 0.22065205872058868, -0.24603217840194702, -0.23621498048305511, -0.02636006288230419, -0.13404956459999084, -0.1509472280740738, -0.009984508156776428, -0.17981712520122528, -0.08100727945566177, 0.017114439979195595, 0.1472962349653244, 0.019796766340732574, -0.06179619953036308, 0.016074087470769882, 0.21917669475078583, 0.046829111874103546, -0.1423516869544983, -0.16795282065868378, 0.28065362572669983, 0.018547527492046356, -0.017676951363682747, -0.0006102206534706056, 0.06188337132334709, 0.14559870958328247, -0.15445925295352936, 0.11547502875328064, 0.08132367581129074, -0.058959707617759705, -0.13142149150371552, -0.24707970023155212, 0.05761205032467842, -0.019742213189601898, 0.06451375037431717, -0.20139917731285095, -0.014835604466497898, -0.14953608810901642, 0.1200152114033699, 0.22948934137821198, 0.13662730157375336, -0.05070894956588745, -0.059111811220645905, -0.1480059176683426, 0.059613361954689026, 0.11879479885101318, 0.20851480960845947, -0.20004898309707642, 0.01468863058835268, 0.17999009788036346, -0.008196619339287281, 0.11170879751443863, -3.251640373491682e-05, -0.2746594250202179, 0.18526116013526917, 0.10308118164539337, -0.21651485562324524, 0.17421944439411163, 0.16425667703151703, -0.03841080144047737, 0.13760657608509064, 0.0841456726193428, 0.028253547847270966, -0.19461126625537872, 0.0470958910882473, -0.03599429503083229, 0.13969457149505615, -0.3997405469417572, 0.19132739305496216, 0.060471706092357635, 0.4076756536960602, -0.18508784472942352, -0.12875717878341675, 0.17744623124599457, 0.07515706866979599, -0.1428869366645813, 0.20821334421634674, 0.007779376581311226, 0.014100126922130585, -0.33446449041366577, 0.05156723037362099, 0.08959966152906418, -0.18012064695358276, -0.004480630625039339, 0.01321021094918251, -0.22698795795440674, 0.18895171582698822, -0.013239582069218159, 0.24871540069580078, 0.03801964223384857, 0.09812773764133453, -0.33457058668136597, 0.2049226611852646, -0.03500121459364891, 0.10366463661193848, -0.10414572805166245, -0.1813698410987854, 0.40395355224609375, -0.09229077398777008, -0.20697787404060364, 0.26998811960220337, 0.02851255051791668, -0.037344057112932205, 0.3218749165534973, -0.04757120832800865, -0.025568943470716476, 0.23717057704925537, -0.12502126395702362, -0.10357214510440826, 0.037550218403339386, -0.03026188164949417, 0.037176210433244705, 0.03337785229086876, 0.03488040342926979, 0.12451458722352982, -0.2416335791349411, 0.08602691441774368, -0.19349899888038635, 0.27111807465553284, -0.0603705532848835, -0.1449556052684784, 0.2299269139766693, -0.007539586164057255, 0.00452260859310627, 0.04832024872303009, -0.07586700469255447, 0.05449536815285683, -0.11512631177902222, 0.09876563400030136, -0.04585910215973854, 0.11451610177755356, -0.061441570520401, 0.07893544435501099, -0.04557814076542854, -0.16276858747005463, -0.1254788190126419, 0.23442411422729492, -0.009208164177834988, 0.23045077919960022, -0.18296700716018677, 0.07506471127271652, -0.2539294958114624, 0.10090423375368118, 0.003133439226076007, -0.07679707556962967, 0.20613618195056915, 0.1455283910036087, -0.1308697909116745, 0.14752915501594543, 0.1510336846113205, -0.1499156504869461, 0.2755841910839081, -0.045300766825675964, -0.13007043302059174, 0.13539469242095947, 0.10863785445690155, 0.06752869486808777, -0.19616813957691193, -0.1720672845840454, -0.02252216823399067, -0.1672373265028, -0.1484966278076172, -0.09023856371641159, 0.23151734471321106, 0.06284177303314209, 0.007665959186851978, -0.27909550070762634, 0.17519167065620422, -0.11015569418668747, -0.1088581308722496, 0.09568585455417633, -0.06423267722129822, -0.08742179721593857, -0.04575427994132042, 0.02422505058348179, 0.03614516928792, -0.09952116757631302, 0.023714156821370125, 0.08153939247131348, -0.050084780901670456, 0.09540356695652008, 0.12508141994476318, -0.14650747179985046, -0.09905897080898285, -0.21552139520645142, 0.2433808445930481, -0.04136093333363533, 0.13418033719062805, -0.04808717593550682, 0.10147727280855179, 0.01739499345421791, 0.20304107666015625, -0.09818191826343536, -0.16292431950569153, 0.0014764700317755342, -0.0860927626490593, -0.11014880985021591, 0.21181072294712067, -0.11674100905656815, -0.0518043115735054, 0.0025091487914323807, -0.026274191215634346, -0.018529588356614113, 0.0536217987537384, -0.009321068413555622, -0.10322518646717072, -0.02119513228535652, -0.20937299728393555, 0.022298937663435936, 0.23299378156661987, -0.35987138748168945, -0.1304599642753601, 0.08151490986347198, 0.37561357021331787, -0.0207370612770319, -0.005484772380441427, 0.3823678493499756, 0.11394887417554855, -0.1512666791677475, 0.23753778636455536, -0.0326685756444931, -0.1930762380361557, -0.2441047728061676, 0.09300466626882553, 0.19518011808395386, 0.19800454378128052, -0.07180608063936234, -0.07756783813238144, -0.1448778212070465, -0.0791216641664505, -0.023367511108517647, 0.24785679578781128, 0.07118447870016098, -0.22516389191150665, -0.11732786893844604, 0.04271194338798523, -0.019819503650069237, 0.19896088540554047, 0.12039462476968765, -0.2060318887233734, 0.21608644723892212, 0.06341105699539185, -0.19696997106075287, 0.33535054326057434, 0.09413769096136093, 0.013405581936240196, 0.16027991473674774, 0.1604890376329422, -0.16323654353618622, 0.3893282413482666, -0.12477622926235199, -0.21055865287780762, -0.08536853641271591, 0.09747151285409927, -0.022274136543273926, -0.0987938791513443, -0.19286033511161804, -0.14777380228042603, -0.16451676189899445, 0.11468580365180969, -0.01934138685464859, -0.01899874024093151, 0.0006194585002958775, 0.05703150853514671, 0.12238344550132751, -0.08609834313392639, 0.04355936869978905, -0.017475280910730362, 0.04782916232943535, -0.045192379504442215, 0.0017186002805829048, 0.40704333782196045, -0.3159920573234558, 0.6669812798500061, -0.7442284822463989, 0.01636023074388504, 0.968402087688446, 0.9027202129364014, -0.4758172035217285, 0.12314704060554504, -0.02956492081284523, -0.5491793751716614, -0.2061356157064438, 0.32965415716171265, -0.7562835812568665, 0.09542164206504822, 0.5068686008453369, 0.02776457369327545, 0.08865877240896225, -0.03523433580994606, 0.19235911965370178, 0.33196455240249634, -0.2708635628223419, 0.14228470623493195, -0.014081978239119053, -0.010009500198066235, -0.025681745260953903, 0.2866637110710144, -0.2394789606332779, 0.14696453511714935, 0.23954693973064423, 0.15998637676239014, -0.3399159610271454, -0.07297452539205551, -0.09253940731287003, -0.3819887340068817, 0.17277967929840088, 0.26699626445770264, -0.231617733836174, -0.21212099492549896, 0.008019734174013138, -0.08814830332994461, 0.1362081617116928, -0.08131548017263412, 0.07911153137683868, 0.20185817778110504, 0.10149893909692764, -0.09948877990245819, 0.17800047993659973, -0.032710980623960495, 0.21024689078330994, -0.04916573315858841, 0.2195352017879486, -0.04099789261817932, -0.24314764142036438, 0.03735410049557686, 0.012298830784857273, -0.049024228006601334, -0.15674802660942078, 0.19121889770030975, -0.17434677481651306, 0.0018168690148741007, 0.34782129526138306, -0.0010444425279274583, 0.0072971428744494915, 0.22435173392295837, -0.22365979850292206, -0.030675452202558517, -0.22893695533275604, 0.026276029646396637, 0.15489433705806732, 0.06147832050919533, -0.004167880862951279, -0.1343238353729248, 0.1331726312637329, -0.039781179279088974, 0.06433309614658356, 0.10667018592357635, 0.15352533757686615, -0.15207716822624207, -0.16037189960479736, -0.3506533205509186, -0.2655126750469208, -0.45071941614151, 0.31758564710617065, 0.44306910037994385, -0.040601447224617004, -0.1440097987651825, 0.0019712289795279503, -0.07731875777244568, 0.1893651783466339, -0.39586201310157776, 0.4116513729095459, 0.1310577392578125, 0.34927865862846375, -0.37770384550094604, 0.13593848049640656, -0.2549675405025482, -0.022822750732302666, 0.07585076242685318, 0.01609785482287407, 0.17051297426223755, 0.3556537628173828, 0.18476960062980652, 0.002663352759554982, 0.14369340240955353, -0.034480124711990356, -0.4237644374370575, 0.11049449443817139, 0.014377398416399956, -0.26651787757873535, 0.08197425305843353, 0.2868901193141937, 0.14540711045265198, 0.19182485342025757, 0.15262027084827423, 0.2896598279476166, -0.02552182786166668, -0.25541332364082336, -0.026463178917765617, 0.004689497873187065, -0.038811758160591125, -0.41099926829338074, -0.21089310944080353, 0.211323544383049, 0.5618478059768677, -0.08599106222391129, -0.14526671171188354, 0.036463599652051926, 0.2600027322769165, 0.09132346510887146, 0.30605146288871765, -0.2383425384759903, -0.3238990902900696, 0.24429628252983093, 0.27561748027801514, 0.0022149975411593914, 0.15467432141304016, -0.26811960339546204, 0.1664593368768692, -0.18174609541893005, 0.156311497092247, -0.24904274940490723, -0.056606948375701904, 0.06270676106214523, -0.10117790848016739, 0.13779880106449127, -0.30003494024276733, -0.27445080876350403, 0.219903364777565, -0.09325139224529266, -0.15709426999092102, 0.0038227823097258806, -0.18260851502418518, -0.3246425986289978, 0.0831206664443016, -0.004321566317230463, 0.16622212529182434, -0.10258957743644714, -0.030526015907526016, 0.20279720425605774, -0.03513338789343834, -0.1742052286863327, 0.34681960940361023, -0.4402565062046051, -0.36147719621658325, 0.18968962132930756, 0.3283959627151489, -0.003919399343430996, 0.23237556219100952, 0.3652059733867645, 0.19003960490226746, -0.06779852509498596, 0.07070846110582352, 0.00840765330940485, 0.056749943643808365, -0.2605644762516022, 0.13822650909423828, 0.23805241286754608, -0.24130219221115112, 0.12268200516700745, 0.012612207792699337, -0.15874174237251282, 0.07638420164585114, 0.006588902324438095, 0.07577530294656754, -0.13428173959255219, -0.16630560159683228, -0.11384931951761246, -0.05039981007575989, 0.1378980427980423, 0.013166696764528751, 0.2761290967464447, 0.008949127048254013, -0.1994544118642807, 0.11744115501642227, 0.0711592435836792, 0.11195386201143265, -0.31580835580825806, -0.045483000576496124, 0.010226552374660969, -0.02768208086490631, -0.10271263122558594, 0.1748225837945938, -0.13997454941272736, -0.21277019381523132, 0.31352242827415466, -0.16710299253463745, -0.5179303884506226, -0.03900760039687157, 0.0572848878800869, 0.05710984393954277, 0.09900925308465958, 0.075370654463768, -0.19799937307834625, -0.027851803228259087, 0.012208977714180946, 0.1581002175807953, -0.045317646116018295, -0.05256929621100426, 0.12873515486717224, 0.0275016650557518, -0.12372513860464096, -0.10631825029850006, 0.12998054921627045, -0.0700358971953392, -0.0848492980003357, -0.2553737163543701, 0.26745447516441345, 0.08751349151134491, -0.01176449004560709, 0.003155790502205491, -0.007276333402842283, -0.18436935544013977, -0.28157317638397217, -0.05390256270766258, 0.03835785388946533, 0.12842288613319397, 0.14256413280963898, -0.3777354955673218, 0.3306347131729126, -0.2575777769088745, 0.3003578186035156, -0.1511085331439972, -0.06623277068138123, 0.19145715236663818, -0.06549973040819168, 0.06099775806069374, 0.0019395631970837712, -0.2914583384990692, 0.08338086307048798, -0.11451881378889084, -0.13266943395137787, 0.12580248713493347, 0.28042423725128174, -0.2880036532878876, 0.15784505009651184, 0.0387842133641243, 0.21730831265449524, 0.12196265161037445, 0.05342426151037216, -0.0600375272333622, 0.17958517372608185, -0.0452440120279789, 0.01393003948032856, -0.1886095255613327, -0.20278619229793549, -0.12981155514717102, -0.16983653604984283, -0.0282722357660532, 0.177784726023674, -0.06653422862291336, 0.2776440680027008, 0.016252996399998665, -0.16751503944396973, 0.055392809212207794, -0.08113912492990494, -0.06262083351612091, 0.04463169351220131, 0.10216334462165833, 0.1002398282289505, -0.07711919397115707, -0.09609536826610565, 0.044629812240600586, 0.0012093298137187958, 0.02562461607158184, 0.07680856436491013, 0.0020028853323310614, 0.022665420547127724, 0.001353819272480905, -0.31778979301452637, 0.07726963609457016, 0.15579752624034882, -0.20577751100063324, 0.19500784575939178, 0.17702433466911316, -0.0876755341887474, 0.04298064112663269, -0.008609609678387642, -0.02020946517586708, 0.07558104395866394, 0.08114197105169296, -0.1878487765789032, 0.14923754334449768, -0.07045386731624603, 0.08432523161172867, 0.05589757487177849, -0.017645234242081642, -0.3476908802986145, 0.03214959800243378, -0.2060033679008484, 0.021122245118021965, -0.1314561367034912, 0.06969692558050156, -0.09831107407808304, -0.18147873878479004, -0.26257023215293884, 0.17845724523067474, -0.10487395524978638, 0.06266225129365921, -0.12112747877836227, -0.02473469078540802, -0.026155950501561165, -0.24579426646232605, 0.0245218388736248, 0.12556107342243195, -0.01683441549539566, -0.05211637169122696, 0.01989634335041046, -0.05694335699081421, -0.1479073315858841, 0.05030492693185806, -0.02654184401035309, 0.02170894481241703, 0.19515739381313324, -0.1433033049106598, -0.12636521458625793, 0.17948368191719055, -0.08249089866876602, 0.14365127682685852, -0.03756025806069374, -0.06045841425657272, 0.1204465925693512, 0.027902968227863312, -0.156601682305336, 0.18897418677806854, -0.030756955966353416, -0.06223074346780777, -0.007961221039295197, 0.19046206772327423, -0.18891023099422455, 0.12278611212968826, -0.32244348526000977, -0.022549854591488838, -0.13407284021377563, 0.16823340952396393, -0.19162695109844208, 0.03750832751393318, 0.030459808185696602, 0.08443208783864975, -0.056761834770441055, -0.033171962946653366, -0.08681103587150574, 0.013546464033424854, 0.02247125841677189, 0.11425425112247467, -0.16766023635864258, 0.14613059163093567, -0.049534812569618225, 0.07507909089326859, 0.08037564903497696, -0.19286319613456726, 0.20478668808937073, -0.03630237653851509, -0.17261120676994324, 0.08978705108165741, 0.05510994791984558, 0.010422478429973125, 0.03189195320010185, 0.017522117123007774, -0.23972760140895844, -0.004560965113341808, -0.04342186823487282, 0.13747790455818176, -0.03298882395029068, -0.05806756392121315, -0.097201868891716, -0.10423380136489868, 0.03689083456993103, 0.101395383477211, -0.006846883334219456, -0.16078031063079834, 0.016651254147291183, 0.01369471475481987, 0.11197914928197861, 0.014466824010014534, -0.16152870655059814, 0.01667541265487671, -0.041139595210552216, 0.08257251977920532, 0.03928582742810249, 0.06970915198326111, 0.16915850341320038, 0.006852856371551752, -0.14785213768482208, 0.0799332931637764, 0.07074075937271118, -0.02643716335296631, 0.13426297903060913, -0.12453930079936981, -0.1206231489777565, 0.09378833323717117, 0.044942110776901245, 0.08653278648853302, -0.15957961976528168, -0.250082790851593, -0.17206624150276184, 0.15207231044769287, 0.09034667909145355, -0.011322714388370514, 0.0145805012434721, -0.05644502118229866, -0.04569392651319504, -0.05429110303521156, -0.13209693133831024, -0.05265216901898384, 0.13094210624694824, -0.23338910937309265, -0.009471060708165169, 0.10486815124750137, -0.2473730742931366, 0.08783575147390366, 0.30412688851356506, -0.13706371188163757, -0.00899143423885107, 0.18433238565921783, -0.14179092645645142, -0.0021057308185845613, -0.013093722052872181, 0.12888476252555847, -0.15419819951057434, -0.1556677222251892, -0.06486563384532928, -0.05421726778149605, -0.21931037306785583, -0.029688015580177307, -0.18223942816257477, -0.07328855991363525, -0.03050786443054676, 0.11954709142446518, 0.006584914401173592, -0.004946417640894651, -0.06712720543146133, -0.14011429250240326, -0.26208195090293884, 0.03896684944629669, 0.05861211195588112, 0.12188942730426788, -0.23911486566066742, -0.06157919764518738, 0.05979856103658676, -0.08761312067508698, 0.033471595495939255, 0.1891191005706787, -0.15396590530872345, -0.04640880599617958, 0.04439665004611015, 0.037157297134399414, 0.1892818808555603, 0.163427472114563, 0.03482750430703163, -0.12350305914878845, 0.15048544108867645, -0.24487018585205078, -0.17521288990974426, 0.03668488562107086, -0.03874886780977249, 0.09585587680339813, 0.0472407191991806, -0.058712538331747055, -0.14028729498386383, -0.005198222119361162, -0.0014812190784141421, -0.01478131115436554, 0.123979352414608, 0.0697774738073349, 0.14689284563064575, -0.12076342850923538, 0.04929050803184509, 0.011831315234303474, -0.2345804125070572, 0.058593690395355225, -0.010956753976643085, -0.03992253169417381, -0.10395114868879318, -0.05985967814922333, -0.13812516629695892, -0.017276115715503693, -0.1633392721414566, 0.15101362764835358, -0.14305643737316132, 0.18884266912937164, 0.06483174860477448, 0.17525210976600647, 0.01842499151825905, 0.06926688551902771, -0.01888996548950672, 0.10065056383609772, -0.0890856385231018, -0.04957394301891327, -0.09628479182720184, 0.1300969421863556, -0.08286336809396744, 0.1951560229063034, -0.10449010133743286, 0.029779888689517975, 0.1252102106809616, -0.22226423025131226, -0.1459575742483139, 0.1665954291820526, -0.0012671870645135641, -0.08923286199569702, 0.10095135122537613, -0.035893574357032776, -0.1929873526096344, -0.009185871109366417, 0.1115599051117897, -0.00953176710754633, 0.18191947042942047, -0.21721558272838593, -0.05354561284184456, -0.015891434624791145, -0.32706132531166077, 0.12196432799100876, 0.06951645761728287, -0.12992818653583527, 0.13515594601631165, 0.004005535040050745, 0.12541520595550537, 0.25377756357192993, 0.08016463369131088, -0.16802267730236053, 0.19268463551998138, 0.0342123843729496, 0.18428651988506317, -0.21534983813762665, 0.0795564129948616, -0.16154053807258606, -0.1517409086227417, -0.052211713045835495, 0.18944498896598816, -0.3076325058937073, 0.18849827349185944, -0.05196366831660271, 0.19396205246448517, -0.01370384730398655, 0.2815267741680145, -0.1577642560005188, -0.05267244949936867, -0.08908894658088684, 0.19344650208950043, 0.10775834321975708, 0.1663195639848709, 0.2139364331960678, -0.015048944391310215, -0.012000705115497112, 0.26440057158470154, 0.058464016765356064, -0.15512587130069733, -0.020765384659171104, 0.15772731602191925, -0.20958511531352997, 0.2603999972343445, -0.07492970675230026, -0.23564720153808594, -0.004221171140670776, 0.0591716468334198, 0.1888609528541565, 0.03966714069247246, -0.004414730705320835, 0.10394113510847092, 0.13304458558559418, -0.0312192402780056, -0.06361976265907288, -0.14406821131706238, 0.15196393430233002, 0.2443942129611969, 0.07131832838058472, 0.10126402974128723, -0.04936289042234421, 0.0584050752222538, 0.006851764861494303, 0.03503315895795822, 0.06845961511135101, 0.08295313268899918, 0.09316229820251465, -0.10671497881412506, 0.12730666995048523, -0.03444875031709671, 0.1463492214679718, -0.0604872927069664, -0.0051004113629460335, -0.06254404038190842, -0.02230929769575596, 0.06408131122589111, 0.060499392449855804, -0.03684796765446663, 0.05570908263325691, -0.0384235605597496, 0.10759899765253067, 0.1305575966835022, 0.02048119530081749, 0.0004179930256213993, -0.01537375245243311, 0.056442540138959885, 0.16876426339149475, -0.08415120095014572, 0.03067360445857048, -0.09734898805618286, -0.18477216362953186, -0.10525529086589813, -0.04346690699458122, -0.1658298373222351, 0.009365800768136978, 0.08655556291341782, 0.019923513755202293, -0.1647496074438095, 0.12416396290063858, 0.24037082493305206, -0.2204032838344574, -0.1591678410768509, -0.023291828110814095, -0.13101570308208466, 0.3434067666530609, 0.11587361246347427, 0.004657578654587269, 0.24076837301254272, 0.10642769932746887, -0.325288325548172, -0.03977208584547043, -0.035112202167510986, 0.08131168782711029, -0.3546362519264221, 0.1544748991727829, -0.2931315302848816, 0.0007211202755570412, -0.05473842844367027, 0.12207810580730438, -0.2793720066547394, 0.03878052532672882, -0.3270067572593689, 0.13781031966209412, 0.051907651126384735, 0.2966124713420868, -0.09628723561763763, 0.19643446803092957, -0.3158201575279236, 0.12455946207046509, 0.11193089932203293, -0.2722184360027313, 0.39311158657073975, 0.013057461939752102, -0.13641127943992615, 0.19516152143478394, -0.08435694128274918, -0.14165674149990082, -0.042253799736499786, 0.1207292303442955, -0.14427077770233154, 0.23274564743041992, 0.0333058200776577, -0.056605108082294464, -0.05885900929570198, 0.025407113134860992, 0.23071791231632233, 0.04121970012784004, -0.1952938288450241, -0.1763458549976349, -0.17163985967636108, 0.08580885082483292, 0.24244427680969238, 0.07928083091974258, 0.005731005221605301, 0.12281817197799683, -0.04075714945793152, 0.04192308336496353, 0.19390401244163513, 0.023815356194972992, 0.12989893555641174, -0.03043476678431034, 0.15024931728839874, 0.0604560486972332, 0.007222961168736219, -0.12554171681404114, -0.05779828503727913, -0.25440242886543274, 0.2250511646270752, 0.01863461546599865, -0.0989765003323555, 0.010589108802378178, -0.02999100089073181, 0.008947636932134628, -0.08525869250297546, 0.005736890248954296, -0.046765174716711044, -0.264491468667984, -0.31669995188713074, 0.23079723119735718, 0.041764069348573685, -0.008727814070880413, 0.2768862843513489, -0.04444895312190056, 0.03982154279947281, -0.03863072395324707, -0.17678552865982056, 0.018552090972661972, 0.02569412812590599, -0.07405850291252136, 0.007704262621700764, -0.1904926300048828, -0.3203028440475464, 0.09125770628452301, 0.22301536798477173, 0.1055576503276825, -0.08383052051067352, 0.15750481188297272, 0.15943534672260284, -0.07560122013092041, 0.1056634783744812, -0.08207238465547562, -0.17050233483314514, 0.08330211043357849, -0.14164963364601135, 0.08513356000185013, 0.06655793637037277, -0.017871350049972534, -0.05791537091135979, -0.09356138855218887, 0.1456126570701599, 0.1206630989909172, 0.10403165966272354, 0.14567139744758606, -0.1482161581516266, -0.08472786843776703, 0.1982254683971405, 0.02138384059071541, 0.1799803376197815, -0.0017646995838731527, -0.121104896068573, -0.15028108656406403, 0.07427419722080231, -0.04441250115633011, 0.05398836359381676, 0.046266574412584305, -0.0905689224600792, 0.017724158242344856, -0.10250833630561829, -0.023573115468025208, -0.04804825410246849, -0.19151140749454498, -0.09819797426462173, 0.05635271593928337, -0.031033949926495552, -0.038509123027324677, -0.06144678220152855, 0.016958914697170258, 0.013722146861255169, 0.040585462003946304, -0.10297244787216187, 0.0792795792222023, -0.09023593366146088, -0.04267759248614311, -0.0449024997651577, -0.10781700164079666, -0.1225857213139534, 0.01638518087565899, -0.30292201042175293, 0.11895444244146347, -0.14004568755626678, -0.27129560708999634, 0.09980528801679611, 0.05536749213933945, -0.24937301874160767, -0.20443403720855713, 0.019534435123205185, 0.40468496084213257, -0.12214450538158417, -0.013772640377283096, -0.08313074707984924, 0.10716148465871811, -0.07615979760885239, 0.39445576071739197, 0.046944789588451385, 0.0042517525143921375, -0.17711053788661957, 0.11895366758108139, -0.13606254756450653, 0.03178982809185982, -0.05281272158026695, 0.1798982471227646, -0.2538548707962036, -0.0465712770819664, 0.17042699456214905, -0.41201770305633545, 0.02971954643726349, 0.06761383265256882, -0.2460501343011856, 0.03825373947620392, 0.13721205294132233, -0.15296046435832977, 0.03819669783115387, 0.12056437134742737, -0.1788436770439148, 0.00432176748290658, 0.013200245797634125, -0.3277416527271271, -0.13877008855342865, 0.21696820855140686, -0.19356709718704224, -0.09969203919172287, 0.1928437203168869, -0.22800755500793457, -0.12488070875406265, 0.06131267175078392, -0.05670221894979477, 0.25633448362350464, 0.04863004758954048, -0.011289725080132484, 0.06747633963823318, 0.1989155262708664, -0.22287380695343018, -0.07760314643383026, -0.13106860220432281, 0.372294157743454, -0.13729962706565857, 0.2500520348548889, -0.2601127326488495, 0.21840403974056244, -0.01258690282702446, 0.4109090268611908, -0.08158928900957108, 0.3295634984970093, -0.3340965509414673, -0.057101771235466, -0.37382972240448, 0.2989141345024109, -0.08334508538246155, 0.18009315431118011, -0.18884697556495667, 0.03319571912288666, -0.07488813996315002, -0.28662294149398804, 0.17449431121349335, 0.07820405811071396, -0.26230865716934204, 0.18501701951026917, 0.3436416685581207, -0.11044197529554367, -0.0569244921207428, 0.26965755224227905, -0.2447788417339325, -0.09609845280647278, 0.14999671280384064, -0.05503326654434204, 0.13156287372112274, -0.12993770837783813, 0.1433117538690567, 0.04471416026353836, 0.1267533302307129, 0.00883397925645113, 0.033402711153030396, 0.10401879996061325, 0.11442243307828903, -0.0674094557762146, -0.16333147883415222, 0.05724261701107025, -0.09504878520965576, 0.19524770975112915, -0.018097974359989166, -0.03395302966237068, 0.09600453823804855, -0.1230492889881134, 0.20851556956768036, -0.09903960675001144, -0.32481884956359863, -0.11144085228443146, -0.1862914115190506, -0.1449120044708252, 0.07255043834447861, -0.035783298313617706, -0.05264292284846306, 0.08504034578800201, -0.09789631515741348, 0.06275863200426102, -0.14866159856319427, 0.19414934515953064, 0.03816642239689827, 0.01520864199846983, -0.05775074288249016, -0.05031997337937355, -0.03971312567591667, 0.0855262279510498, -0.12315212935209274, 0.050515346229076385, 0.0502389557659626, -0.07018814235925674, -0.10447607934474945, 0.22313062846660614, -0.03569479659199715, 0.05495200306177139, 0.12568549811840057, -0.10430080443620682, -0.05868694186210632, -0.09176149219274521, -0.03447677567601204, 0.0018213302828371525, -0.1720605045557022, 0.1792493760585785, 0.03260185942053795, 0.2803291082382202, 0.09019611775875092, 0.01488633081316948, 0.1622818261384964, 0.017694037407636642, -0.003545428393408656, -0.03816179186105728, 0.1753397136926651, 0.10202798247337341, -0.2845936417579651, -0.13675041496753693, 0.09144717454910278, -0.18932536244392395, 0.16755124926567078, -0.02280167117714882, -0.017511412501335144, -0.2103118747472763, 0.0795341208577156, -0.1574126034975052, 0.025067323818802834, 0.03827371448278427, 0.09850026667118073, -0.3117673993110657, 0.1233058050274849, -0.06701512634754181, 0.2842898964881897, -0.0637141689658165, 0.3919273614883423, 0.22439540922641754, -0.2503313720226288, 0.013534746132791042, 0.19080914556980133, -0.04767754301428795, 0.03151635453104973, 0.1930827796459198, -0.12300218641757965, -0.06546925008296967, 0.2486124336719513, -0.06817087531089783, -0.33174869418144226, -0.02670915052294731, 0.02998771332204342, -0.26042795181274414, 0.029384592548012733, -0.03417392820119858, -0.10426291823387146, 0.2761012017726898, -0.0650484636425972, -0.13224509358406067, 0.19345371425151825, -0.03350093588232994, -0.14122842252254486, -0.0725233182311058, 0.1272430419921875, -0.07809892296791077, 0.266094446182251, 0.01637871004641056, 0.27366191148757935, -0.12405308336019516, -0.05587772652506828, -0.06354415416717529, 0.24876074492931366, 0.057173360139131546, 0.05726933851838112, -0.19620245695114136, -0.062422268092632294, -0.016589496284723282, 0.0081594567745924, -0.10379108786582947, -0.018878815695643425, -0.255449116230011, 0.12225315719842911, -0.08639707416296005, 0.240353062748909, 0.04882818087935448, 0.00497262692078948, 0.25132766366004944, 0.043030258268117905, -0.018225789070129395, 0.13990043103694916, 0.006743839476257563, -0.10967379808425903, 0.04502308368682861, -0.05501092970371246, -0.22562721371650696, 0.1319262832403183, -0.16642062366008759, 0.13185253739356995, 0.10425206273794174, -0.005542011000216007, -0.24628742039203644, 0.40237492322921753, -0.14110171794891357, -0.14484688639640808, 0.019393842667341232, 0.1617349535226822, -0.15229588747024536, 0.3882492780685425, -0.009280786849558353, -0.05728977173566818, 0.6031131148338318, -0.2908630967140198, -0.2187163531780243, 0.18422318994998932, 0.05072395130991936, 0.14440162479877472, -0.655262291431427, 0.22931785881519318, -0.16626586019992828, 0.0812588706612587, -0.09215806424617767, 0.25488412380218506, -0.45918869972229004, -0.06367593258619308, -0.2824518084526062, -0.05998830869793892, 0.0974760577082634, 0.08397454768419266, 0.00886382907629013, 0.06888333708047867, -0.23733104765415192, 0.21528787910938263, -0.02235596999526024, -0.17309236526489258, 0.7226365804672241, -0.21266672015190125, -0.31301912665367126, 0.11311834305524826, 0.00870128907263279, -0.10964740067720413, 0.21080414950847626, 0.03787678852677345, -0.1547166258096695, 0.08150213211774826, 0.14833416044712067, -0.19295452535152435, -0.08198182284832001, 0.33333656191825867, -0.03085571713745594, 0.0288489181548357, 0.07853333652019501, 0.1392454206943512, -0.09136339277029037, 0.23922660946846008, 0.12165272980928421, 0.13076360523700714, -0.05185139551758766, -0.14648833870887756, 0.22936728596687317, 0.04665890336036682, 0.10344836115837097, 0.038833215832710266, 0.0995427817106247, 0.09977827221155167, -0.35187390446662903, 0.17662647366523743, 0.3667939007282257, -0.448190301656723, 0.12232145667076111, -0.7003322243690491, -0.3761105537414551, -0.9387701153755188, 1.0129181146621704, -0.7314963936805725, -0.547940194606781, -1.1193245649337769, 0.33561980724334717, -0.6588700413703918, 0.35017460584640503, -0.48269209265708923, 0.002107351552695036, 0.2976231575012207, 0.24450109899044037, 0.15515382587909698, 0.3973965048789978, -0.0055845994502305984, 0.07645884901285172, 0.1095098927617073, -0.5474579930305481, -0.3143688440322876, 0.2533026337623596, 0.13296644389629364, 0.13030272722244263, 0.21527083218097687, -0.271732360124588, -0.04101855680346489, 0.0397411473095417, -0.1253444254398346, -0.114882692694664, -0.014126517809927464, -0.2881088852882385, 0.16564257442951202, -0.10947459936141968, -0.1717868596315384, 0.1811009645462036, -0.08487015962600708, 0.04596483334898949, 0.1635035127401352, -0.07230594009160995, 0.01380794495344162, 0.21257264912128448, 0.13293103873729706, -0.0633784756064415, -0.18065641820430756, -0.0717964619398117, 0.1986512541770935, -0.09439913183450699, 0.38637176156044006, -0.08329510688781738, -0.045916639268398285, 0.03371982276439667, 0.1604836881160736, -0.2800649106502533, -0.4307346045970917, -0.008949696086347103, 0.17398272454738617, 0.2940739691257477, 0.20450307428836823, 0.17903746664524078, 0.14185452461242676, -0.004175657872110605, -0.1709209680557251, -0.1911783367395401, -0.11898261308670044, 0.012363163754343987, 0.036192696541547775, 0.06426958739757538, 0.08057133853435516, 0.10082369297742844, 0.4532760977745056, 0.23370228707790375, -0.027771705761551857, 0.008820166811347008, -0.14919720590114594, 0.1860179454088211, 0.13801085948944092, 0.06294184178113937, -0.12684962153434753, 0.3429544270038605, -0.15309493243694305, 0.12889334559440613, 0.8899703621864319, -0.2734234035015106, -0.1739244908094406, 0.28041696548461914, 0.7337251305580139, -0.3914632499217987, -0.4219130575656891, -0.33108407258987427, -0.4278651475906372, -0.27634692192077637, -0.12894566357135773, -0.18866302073001862, -0.08747158199548721, 0.12267927080392838, -0.03094826452434063, -0.0436488576233387, -0.16045036911964417, 0.10074932873249054, 0.13743086159229279, -0.13084767758846283, -0.1396143138408661, -0.2659980058670044, -0.18599602580070496, 0.19850540161132812, 0.1333349645137787, 0.06918630003929138, -0.09392359107732773, 0.16807378828525543, -0.1731666475534439, 0.08447909355163574, 0.30462560057640076, -0.11274202167987823, -0.13903912901878357, 0.14220841228961945, 0.07708708941936493, -0.31779399514198303, -0.047641951590776443, 0.01986672915518284, -0.14351677894592285, -0.00903368555009365, 0.32092973589897156, 0.09627673774957657, 0.042805541306734085, 0.04419786483049393, 0.11690685898065567, 0.16574186086654663, -0.010216409340500832, -0.13405422866344452, -0.06400728970766068, 0.025807548314332962, 0.22820720076560974, -0.4439264237880707, -0.1599961519241333, -0.056543074548244476, 0.17756496369838715, 0.11393284052610397, 0.16373659670352936, 0.17644958198070526, -0.0182187557220459, -0.36859333515167236, -0.032647114247083664, -0.46048393845558167, -0.05219047889113426, -0.2060914784669876, -0.20850956439971924, 0.2945866882801056, 0.2656475305557251, 0.1879568099975586, -0.25728797912597656, 0.15253296494483948, 0.22922809422016144, 0.23489461839199066, 0.3671585023403168, 0.030881473794579506, 0.021527715027332306, -0.08837386220693588, 0.15264934301376343, 0.10342647135257721, -0.15302670001983643, 0.005698596127331257, -0.1122315302491188, 0.04068651422858238, -0.05509599298238754, 0.15036357939243317, 0.24975615739822388, 0.28910592198371887, 0.1892435997724533, 0.08344821631908417, -0.10570389032363892, -0.12347893416881561, -0.2257423996925354, -0.11480781435966492, 0.20588672161102295, 0.00870310328900814, -0.12967832386493683, -0.16250655055046082, -0.15006253123283386, 0.3585089147090912, 0.20603173971176147, -0.22394435107707977, -0.11330585181713104, 0.21427477896213531, -0.03952343389391899, 0.09494044631719589, 0.017877178266644478, 0.18994519114494324, 0.26016321778297424, -0.18366888165473938, 0.03457435593008995, -0.19118566811084747, -0.3723236918449402, 0.14707539975643158, 0.5167304277420044, -0.3280857801437378, 0.14305545389652252, 0.3672124743461609, 0.48215198516845703, 0.0269235298037529, -0.08155153691768646, -0.13836756348609924, -0.5344199538230896, -0.06316102296113968, -0.13625402748584747, -0.12632381916046143, 0.2293817698955536, -0.05975237861275673, -0.07493474334478378, -0.05803161859512329, 0.2772648334503174, -0.16466721892356873, 0.03538401797413826, -0.1369653046131134, 0.08115658909082413, 0.18987347185611725, -0.0760357603430748, -0.18044030666351318, -0.042756203562021255, 0.18477335572242737, 0.1394283026456833, -0.2980808615684509, 0.29630887508392334, -0.2838574945926666, 0.021283559501171112, -0.07733365893363953, 0.01759105920791626, 0.15528693795204163, 0.26243627071380615, -0.01953960955142975, -0.05487857386469841, 0.24933432042598724, 0.11400945484638214, 0.21513980627059937, -0.06291035562753677, -0.021570459008216858, 0.21490532159805298, 0.0009500104351900518, -0.138509601354599, -0.1824740469455719, -0.1195421814918518, 0.169019415974617, 0.08145379275083542, -0.11894440650939941, 0.1096445620059967, -0.053870197385549545, 0.011249713599681854, -0.12653620541095734, 0.005481285508722067, 0.20791280269622803, 0.19688357412815094, 0.428274929523468, -0.16185244917869568, -0.2671317160129547, 0.2079329639673233, -0.41930118203163147, 0.10978849977254868, -0.1406026929616928, 0.13377267122268677, 0.21626996994018555, -0.008775408379733562, 0.04457448795437813, 0.21247805655002594, 0.03606604412198067, 0.3211592435836792, -0.07992876321077347, -0.1776162087917328, -0.08013435453176498, -0.09421955049037933, -0.12071391940116882, -0.05340532585978508, -0.0037791503127664328, 0.09928692132234573, 0.05482770875096321, 0.19420568645000458, -0.04269334301352501, 0.047422949224710464, 0.018189072608947754, -0.21858645975589752, -0.013331400230526924, -0.21873648464679718, -0.1781318336725235, -0.12993618845939636, -0.23256337642669678, 0.06836507469415665, 0.017777197062969208, 0.07634960860013962, -0.2004317343235016, -0.046154726296663284, 0.20940183103084564, -0.12892651557922363, 0.006836086045950651, -0.18747293949127197, -0.19227494299411774, -0.1670052707195282, -0.34916719794273376, 0.002604683395475149, -0.18781760334968567, 0.09637721627950668, 0.15204595029354095, -0.05812501907348633, 0.08615900576114655, -0.05662957951426506, 0.0728183314204216, -0.04618503898382187, 0.0607844702899456, -0.16102218627929688, 0.02941024675965309, -0.013729010708630085, -0.029180316254496574, -0.1904829740524292, 0.05620119348168373, -0.0681302398443222, 0.012826086953282356, -0.04304596409201622, -0.012725596316158772, -0.3736734092235565, 0.16536079347133636, 0.012245908379554749, 0.053071700036525726, -0.16194835305213928, -0.00845254771411419, -0.006668264511972666, 0.041957221925258636, -0.04536435753107071, 0.2639651596546173, -0.031854476779699326, -0.208944633603096, 0.13989652693271637, -0.1678486466407776, 0.11558282375335693, 0.13065268099308014, -0.090726338326931, 0.2616850435733795, -0.011643907986581326, 0.05389363318681717, -0.21931296586990356, 0.16451306641101837, 0.12234462052583694, 0.08314387500286102, 0.03329358249902725, 0.016108229756355286, -0.16077646613121033, 0.26994484663009644, 0.041195791214704514, 0.244506374001503, -0.0236625075340271, 0.00931054912507534, -0.03233135864138603, 0.09790416806936264, -0.15215730667114258, 0.041606463491916656, -0.2624785006046295, -0.2096724659204483, -0.1437685638666153, 0.07820125669240952, 0.013152239844202995, -0.24230459332466125, 0.09651021659374237, 0.12025818973779678, 0.06933650374412537, 0.23176001012325287, 0.037388816475868225, -0.15055496990680695, -0.0751873180270195, -0.029573235660791397, 0.04012276604771614, 0.04273992031812668, 0.10473460704088211, -0.1017034724354744, 0.0752810537815094, -0.027988357469439507, -0.2433338463306427, -0.0729149803519249, 0.1309254765510559, 0.058111101388931274, 0.1427518129348755, -0.044783804565668106, -0.26035836338996887, 0.03631842881441116, 0.049113679677248, -0.08913511037826538, 0.001142403925769031, -0.05524946376681328, -0.059701550751924515, 0.005994217470288277, -0.08046988397836685, 0.13222885131835938, -0.25316351652145386, 0.0592125803232193, 0.14370480179786682, 0.03004416450858116, -0.012689431197941303, 0.09881088137626648, 0.11651172488927841, 0.0746694952249527, -0.1854611486196518, -0.05587373301386833, 0.07636066526174545, 0.04778343811631203, -0.06663811206817627, 0.024889444932341576, -0.053963445127010345, -0.017868926748633385, -0.08825264126062393, 0.08752629160881042, 0.07061352580785751, 0.137675940990448, -0.11502757668495178, -0.23184196650981903, 0.09167792648077011, 0.039773374795913696, 0.07089146971702576, 0.18122117221355438, 0.15942814946174622, 0.028010830283164978, 0.09359922260046005, 0.14968723058700562, -0.16778510808944702, 0.001571432570926845, 0.14729571342468262, 0.06533513963222504, -0.24421654641628265, -0.03040858916938305, -0.24463647603988647, -0.13892917335033417, 0.2822127938270569, -0.022008348256349564, -0.006334947422146797, 0.1851789653301239, -0.2646743357181549, 0.04226695001125336, -0.0034517243038862944, -0.011413381434977055, -0.0056665632873773575, -0.13595043122768402, -0.2863433063030243, -0.1236206591129303, 0.0362093485891819, 0.3269345164299011, 0.1321948617696762, -0.07636091858148575, -0.03036082163453102, 0.015497091226279736, 0.05650749057531357, 0.16044527292251587, 0.07957915216684341, -0.08469037711620331, -0.1209663599729538, -0.046534743160009384, 0.12591670453548431, -0.08039773255586624, 0.010843653231859207, 0.07577993720769882, -0.23266878724098206, -0.15469573438167572, -0.06908256560564041, -0.20306454598903656, 0.05003771185874939, 0.029925134032964706, 0.13138353824615479, -0.1572168916463852, 0.09291382133960724, 0.00731588015332818, -0.03618483990430832, 0.05687374994158745, -0.05708937719464302, -0.07470837235450745, 0.1321258693933487, 0.0475291945040226, -0.08384238183498383, 0.03725641965866089, -0.20494034886360168, 0.02019968442618847, 0.2353287935256958, 0.20820733904838562, 0.12401288002729416, -0.18209166824817657, -0.16462266445159912, -0.088078573346138, 0.28758704662323, -0.13482700288295746, -0.08517715334892273, 0.15556329488754272, -0.13557790219783783, 0.26222407817840576, -0.027300067245960236, -0.4648674428462982, 0.6676706671714783, -0.1812780499458313, 0.1607748419046402, 0.0494147427380085, -0.215931236743927, -0.2630062401294708, -0.2301919013261795, 0.3148665428161621, 0.17558446526527405, -0.19962666928768158, -0.09088718146085739, -0.13677236437797546, -0.2947724163532257, 0.272551029920578, 0.1544608622789383, 0.12098691612482071, -0.256814181804657, -0.1731974333524704, -0.19966016709804535, 0.29626476764678955, -0.34782761335372925, 1.3321396112442017, -0.2571015954017639, -0.24025408923625946, 0.005698600318282843, 0.17962037026882172, -0.14925874769687653, -0.22185605764389038, 0.3939906060695648, -0.12824946641921997, -0.16146352887153625, 0.4389388859272003, -0.054800596088171005, -0.17442815005779266, 0.13268524408340454, -0.18754234910011292, -0.24694249033927917, 0.1011352688074112, 0.3473975658416748, 0.08215626329183578, -0.22407299280166626, 0.24655255675315857, -0.023492926731705666, -0.2777327597141266, 0.257377564907074, -0.056554846465587616, -0.001688886433839798, 0.023279273882508278, -0.0859660804271698, 0.23441074788570404, -0.3780066668987274, -0.02628043293952942, 0.26132312417030334, 0.15101520717144012, 0.1744609773159027, -0.17042015492916107, -0.2826429009437561, -0.09428539872169495, 0.3101612329483032, 0.33782947063446045, 0.049084071069955826, -0.32546544075012207, -0.2837013900279999, 0.02872042916715145, 0.29020246863365173, 0.3500324487686157, 0.10902780294418335, -0.21777783334255219, 0.25350522994995117, -0.02974911592900753, 0.1029856875538826, 0.3733527958393097, -0.0699150562286377, -0.2959826588630676, 0.27781593799591064, 0.12233644723892212, -0.1983184516429901, 0.22640322148799896, -0.09019795805215836, -0.39430540800094604, 0.5042130947113037, 0.013887535780668259, -0.20045743882656097, -0.036011192947626114, -0.30200931429862976, 0.19448469579219818, 0.08143604546785355, 0.08183736354112625, -0.17675012350082397, 0.21954451501369476, 0.12853741645812988, -0.18117351830005646, 0.012995822355151176, -0.07910361886024475, 0.05250995233654976, 0.4257686734199524, -0.9353575706481934, 0.6601178050041199, -0.18131038546562195, 0.1499325931072235, 0.04567597806453705, -0.02882084995508194, 0.09268974512815475, -0.2491188794374466, -0.028324199840426445, 0.28979623317718506, -0.20454801619052887, -0.10528755933046341, 0.15006689727306366, 0.021136200055480003, -0.02169623225927353, 0.17968367040157318, 0.10355215519666672, -0.079658143222332, 0.21775555610656738, -0.2128780484199524, 0.2835032045841217, -1.4635252952575684, 0.4326777756214142, -0.05564887449145317, -0.08494273573160172, 0.01035908330231905, 0.013165191747248173, 0.019010882824659348, -0.16117095947265625, -0.10894825309515, 0.052120983600616455, -0.041708286851644516, 0.10408543795347214, -0.08464983105659485, -0.18227237462997437, -0.05223261937499046, 0.08426416665315628, -0.1919984668493271, 0.03512626513838768, 0.19037190079689026, 0.16225208342075348, -0.15512070059776306, 0.06510886549949646, -0.04478156939148903, -0.1337604820728302, -0.0101881492882967, 0.255764365196228, -0.10796951502561569, -0.14127755165100098, -0.07621128857135773, -0.09997959434986115, -0.03070439212024212, -0.17391429841518402, -0.1547481119632721, -0.06771647185087204, 0.06402759253978729, 0.04477989301085472, 0.17179417610168457, -0.03392169252038002, -0.047073353081941605, 0.1280718296766281, -0.03368237242102623, 0.16663292050361633, 0.3325425386428833, 0.051060013473033905, 0.015582593157887459, -0.020438680425286293, 0.10369617491960526, -0.015609309077262878, -0.10468471050262451, -0.11926046758890152, -0.10913058370351791, -0.010814248584210873, 0.14224545657634735, -0.19636844098567963, 0.020554574206471443, 0.19191224873065948, 0.01670210249722004, -0.12088193744421005, -0.14423289895057678, -0.1489580124616623, 0.05172675848007202, 0.22006238996982574, -0.01047292910516262, -0.22754737734794617, 0.12218061089515686, 0.13684037327766418, 0.006131782196462154, -0.03888634592294693, 0.11752691119909286, 0.1464683711528778, -0.1471697837114334, 0.02585759572684765, 0.06825646758079529, -0.20984159409999847, -0.09308050572872162, -0.09750591218471527, -0.0012941412860527635, -0.02455940842628479, -0.05385734513401985, 0.07781493663787842, 0.06249624490737915, -0.0904383584856987, -0.05888805910944939, -0.25051525235176086, -0.1933840960264206, 0.05815964192152023, 0.11452281475067139, 0.011921440251171589, -0.008357539772987366, -0.03844332695007324, 0.032536283135414124, 0.09302912652492523, 0.019615845754742622, -0.026629524305462837, -0.2830376923084259, 0.13661080598831177, 0.1125507578253746, -0.17721551656723022, -0.05983228236436844, 0.02783771976828575, -0.1839722841978073, 0.03697296231985092, -0.04494667053222656, -0.09191358834505081, 0.14865733683109283, 0.11518806219100952, -0.08676443994045258, 0.036552995443344116, 0.07813078910112381, -0.2650051712989807, -0.07572041451931, -0.22707338631153107, -0.1028023362159729, 0.14643654227256775, 0.0856219083070755, -0.06050410866737366, 0.15055011212825775, 0.08526269346475601, 0.022348402068018913, -0.018790163099765778, -0.15176019072532654, -0.32849419116973877, -0.006565645802766085, -0.01320491824299097, 0.09707148373126984, -0.09047121554613113, 0.09595418721437454, 0.08840518444776535, -0.09291192144155502, 0.03394850343465805, -0.2441129982471466, -0.20259930193424225, -0.17329739034175873, -0.033404480665922165, 0.03865538164973259, -0.1052827388048172, -0.005801413673907518, -0.09354762732982635, -0.2521677017211914, -0.014222884550690651, 0.18267756700515747, 0.009711355902254581, -0.1879999041557312, -0.01475474052131176, 0.08032946288585663, -0.08307880908250809, 0.12119882553815842, -0.03900768980383873, -0.19909082353115082, 0.09101798385381699, -0.13163474202156067, -0.16705457866191864, 0.02059820108115673, 0.17699433863162994, -0.11681163311004639, 0.1568262279033661, -0.09097138047218323, -0.363039493560791, -0.09789440035820007, -0.15239648520946503, 0.16376931965351105, 0.13022373616695404, 0.12997597455978394, -0.024477556347846985, 0.16958235204219818, 0.10092753171920776, -0.05023912340402603, 0.01194379199296236, 0.08691845089197159, 0.09571724385023117, 0.19164392352104187, 0.0059427982196211815, 0.034216564148664474, -0.001383756403811276, 0.1157238632440567, 0.12174836546182632, 0.1719030886888504, 0.18927858769893646, -0.29322728514671326, -0.07129781693220139, 0.08176404982805252, 0.08919375389814377, 0.0736025720834732, 0.11741894483566284, -0.15157705545425415, -0.15666943788528442, -0.01866907998919487, 0.24198536574840546, 0.1508314609527588, 0.03555680811405182, -0.102950319647789, 0.1990717500448227, 0.10987256467342377, 0.37613722681999207, 0.1689343899488449, 0.00778531190007925, -0.1524382382631302, 0.18439778685569763, -0.13345952332019806, -0.27020367980003357, 0.039126936346292496, 0.11757244914770126, -0.32677000761032104, 0.109573133289814, -0.17559821903705597, -0.13225354254245758, 0.27550727128982544, 0.07011821120977402, -0.17736423015594482, -0.2933138906955719, -0.14947980642318726, 0.29271888732910156, -0.21527595818042755, -0.0047501204535365105, 0.35199472308158875, -0.4194604456424713, -0.08576682209968567, 0.08942419290542603, 0.13500019907951355, 0.062377918511629105, -0.09136001020669937, 0.15432646870613098, -0.19365108013153076, -0.20613284409046173, -0.2741633951663971, 0.0665656104683876, 0.3233817219734192, 0.2147812396287918, -0.23217657208442688, -0.39576011896133423, -0.4015059173107147, 0.0324096642434597, 0.11096145212650299, 0.08396276831626892, -0.13977745175361633, -0.4463672935962677, -0.314960777759552, -0.09713970869779587, 0.2245779186487198, -0.00885089673101902, -0.09588909894227982, -0.16241101920604706, -0.21374279260635376, 0.04712022468447685, 0.21783265471458435, -0.3705718517303467, -0.10997065901756287, 0.43318891525268555, -0.2526337504386902, -0.07015104591846466, 0.46014776825904846, -0.3770461678504944, -0.1836497187614441, 0.061528198421001434, -0.15860134363174438, 0.10118116438388824, 0.1481662392616272, 0.07731557637453079, -0.1201741173863411, -0.06092730909585953, -0.10575895756483078, -0.36498239636421204, 0.09959503263235092, 0.08441900461912155, 0.12690597772598267, 0.03554203361272812, -0.0310145765542984, 0.32800498604774475, 0.025212401524186134, -0.06242453306913376, -0.04258202016353607, -0.09757663309574127, -0.09389997273683548, 0.02123391442000866, 0.09399456530809402, 0.14287325739860535, 0.03250536322593689, 0.042433857917785645, 0.036490101367235184, -0.28367263078689575, 0.07177083939313889, -0.10603835433721542, 0.13216018676757812, -0.09420173615217209, 0.03891783580183983, 0.02641122043132782, 0.09453628957271576, 0.00016141461674124002, 0.3179457485675812, 0.15765587985515594, -0.11404579877853394, 0.002702040132135153, -0.0010872475104406476, 0.0769081860780716, 0.03977116569876671, 0.17849582433700562, 0.008027496747672558, -0.03123144991695881, -0.07722719013690948, 0.21011459827423096, 0.0594378300011158, 0.24835799634456635, 0.21281255781650543, 0.10090801864862442, 0.21104031801223755, 0.045873187482357025, -0.08633288741111755, -0.11086374521255493, 0.05663609132170677, 0.056225284934043884, -0.13473987579345703, -0.1619488149881363, -0.035465408116579056, -0.012655515223741531, -0.11007237434387207, 0.02195570059120655, 0.08854776620864868, -0.007317413110285997, -0.010951267555356026, 0.03776199743151665, -0.07993397116661072, 0.02445358596742153, -0.04532033950090408, 0.1537053883075714, 0.1027226597070694, 0.22948957979679108, -0.04205428063869476, 0.02186662331223488, -0.06803537160158157, 0.118633933365345, 0.019080402329564095, 0.2401045560836792, -0.0013137571513652802, 0.024446234107017517, -0.19256258010864258, 0.10805726796388626, -0.049503426998853683, 0.14491154253482819, -0.08664628863334656, 0.0963306650519371, -0.1518893986940384, 0.028070975095033646, 0.12494266778230667, -0.22732245922088623, -0.13914214074611664, -0.09581325203180313, -0.06443405896425247, -0.009018611162900925, 0.025913799181580544, -0.07675176858901978, 0.0036150182131677866, 0.2370813935995102, 0.09596163779497147, -0.011066339910030365, -0.01819291152060032, 0.12383373081684113, -0.0882391482591629, -0.11348041892051697, 0.10380440205335617, -0.05899511277675629, -0.1180519089102745, 0.15815706551074982, -0.22176866233348846, -0.4006527066230774, -0.1457599550485611, 0.17599479854106903, 0.01546286977827549, -0.1525774449110031, -0.0947345644235611, -0.01045017410069704, -0.06868926435709, 0.128617525100708, 0.049457646906375885, -0.014020916074514389, -0.022266261279582977, -0.18060366809368134, 0.07977499812841415, 0.2113584727048874, 0.11893940716981888, 0.060741323977708817, -0.12805168330669403, -0.055061932653188705, 0.07194045931100845, -0.18021099269390106, -0.1241404265165329, 0.05237799137830734, -0.08335473388433456, -0.113081194460392, 0.014606003649532795, -0.14272242784500122, -0.17643938958644867, 0.0953308567404747, -0.11791085451841354, -0.21132761240005493, 0.05047276243567467, 0.02909144014120102, 0.11760683357715607, 0.0873461440205574, 0.12056370824575424, 0.14280907809734344, -0.0848226398229599, -0.21131184697151184, -0.11556035280227661, 0.34513089060783386, -0.3284517526626587, -0.04068242385983467, 0.2715873122215271, -0.25105881690979004, 0.08247455954551697, 0.17521503567695618, 0.04169352352619171, 0.0024797660298645496, 0.5476422309875488, 0.3012283742427826, -0.006767655722796917, -0.2585028111934662, -0.12320762127637863, -0.1351880580186844, 0.2866615355014801, 0.16846977174282074, 0.07373791933059692, -0.2884787321090698, -0.1693962812423706, -0.12335924804210663, 0.14725683629512787, 0.08457892388105392, 0.09721201658248901, -0.3505637049674988, -0.23999512195587158, -0.23639316856861115, 0.221903994679451, -0.34272852540016174, 0.29038292169570923, 0.3523273468017578, -0.31276416778564453, 0.1011412963271141, 0.10093506425619125, -0.2384057641029358, -0.024431511759757996, 0.16896621882915497, -0.0832405760884285, -0.13659626245498657, 0.2627985179424286, -0.337435781955719, -0.11521720886230469, 0.23555710911750793, 0.06391251087188721, 0.014079374261200428, 0.053279273211956024, 0.013712025247514248, 0.06330567598342896, -0.040074218064546585, -0.017148025333881378, -0.08305270969867706, -0.034518785774707794, 0.10291653871536255, -0.06187476962804794, 0.0680818185210228, -0.08498948067426682, -0.019725987687706947, -0.10367240756750107, 0.11916466057300568, -0.1551959067583084, -0.5140318274497986, 0.5859235525131226, 0.11914714425802231, -0.578855574131012, 0.41662368178367615, -0.3659568130970001, -0.11519621312618256, 0.6977367997169495, -0.642082154750824, 1.031038761138916, 0.36327064037323, -0.022959867492318153, -0.4502604901790619, 0.12211945652961731, -0.9205710291862488, 0.15696869790554047, -0.01375188585370779, -0.08701404929161072, -0.2999367415904999, -0.07144390791654587, 0.38526061177253723, 0.2117602676153183, -0.07720828056335449, 0.1555655598640442, 0.33877670764923096, 0.2417982518672943, -0.10854606330394745, 0.015424043871462345, 0.014936961233615875, -0.200237438082695, -0.17252640426158905, 0.20064550638198853, 0.30146050453186035, 0.01857117749750614, -0.025162387639284134, 0.05493709817528725, -0.06947360932826996, 0.03534037992358208, -0.37118974328041077, 0.02216346375644207, 0.34289711713790894, 0.13496987521648407, 0.017645223066210747, -0.3318256139755249, 0.33251896500587463, 0.243229940533638, 0.07670565694570541, -0.18801668286323547, -0.18500307202339172, 0.1516580879688263, -0.15104372799396515, 0.35341498255729675, -0.732817530632019, 0.11198561638593674, 0.0613686665892601, -0.2813141644001007, -0.222830668091774, -0.27135995030403137, 0.624066948890686, -0.06478588283061981, -0.16363593935966492, -0.010135645046830177, 0.6201081275939941, 0.3974159061908722, 0.12677441537380219, 0.12639200687408447, 0.003396464278921485, -0.007041346747428179, 0.11939013749361038, -0.07487504929304123, 0.10073314607143402, 0.6879616975784302, -0.1787976771593094, -0.0030758108478039503, 0.1944846659898758, 0.19754332304000854, -0.006687665358185768, 0.19788312911987305, 0.030907688662409782, 0.09193041920661926, -0.5904371738433838, 0.43823525309562683, 0.17353259027004242, -0.03673622012138367, 0.055423855781555176, 0.16625921428203583, 0.24745865166187286, -0.3688015341758728, -0.3130389153957367, -0.3015294373035431, -0.14252273738384247, 0.09808409959077835, -0.28359681367874146, 0.30654728412628174, -0.26923924684524536, -0.19504033029079437, -0.12106122821569443, 0.3273785710334778, -0.08267225325107574, -0.03459608554840088, -0.1172894835472107, 0.18701578676700592, 0.23029030859470367, -0.342944473028183, -0.3961455225944519, -0.15862740576267242, 0.12695978581905365, 0.2213534116744995, 0.13435566425323486, 0.34438908100128174, 0.11155331134796143, -0.00588585389778018, 0.16955536603927612, -0.1999688446521759, 0.0040641408413648605, 0.16610179841518402, -0.20477347075939178, 0.1312032788991928, -0.09948578476905823, -0.18488603830337524, 0.12158486992120743, 0.2249869704246521, -0.03182781860232353, 0.17193834483623505, 0.10995666682720184, 0.06307460367679596, 0.2129945307970047, 0.1689944565296173, 0.3258855938911438, -0.3613165318965912, -0.35071566700935364, 0.2925380766391754, -0.10453346371650696, -0.10586705058813095, -0.17643706500530243, 0.22089092433452606, 0.2450994998216629, 0.13234832882881165, 0.24639160931110382, -0.08650751411914825, 0.005117477383464575, -0.07210224121809006, -0.10337933897972107, -0.05818864703178406, 0.2995348870754242, -0.12020044773817062, 0.05362299829721451, 0.31307387351989746, -0.3187951445579529, -0.01957414299249649, 0.18557193875312805, -0.00540147116407752, 0.10352350771427155, -0.11800442636013031, 0.4205390214920044, -0.3311035633087158, 0.1340063363313675, 0.1219806894659996, 0.26544976234436035, 0.15576286613941193, -0.3672237992286682, -0.06020978465676308, 0.06689903885126114, 0.17688682675361633, 0.19823861122131348, -0.26243168115615845, -0.10804843157529831, -0.18137086927890778, -0.07573654502630234, -0.050828732550144196, -0.07111255824565887, -0.12146344035863876, -0.3613947927951813, 0.0713978260755539, -0.023501846939325333, 0.2869970202445984, -0.3125264644622803, -0.0553826242685318, -0.11898814141750336, 0.14390112459659576, -0.22873272001743317, 0.17403697967529297, 0.04929303377866745, 0.2133834809064865, -0.07924894243478775, -0.27974966168403625, 0.10116033256053925, 0.0803631991147995, -0.03568370267748833, 0.22426266968250275, 0.2751098871231079, -0.0770103856921196, -0.0848039835691452, -0.08315055072307587, -0.01535280141979456, -0.3503626585006714, 0.024166826158761978, 0.4451509118080139, 0.13723336160182953, -0.1419527232646942, -0.15444844961166382, -0.17790843546390533, 0.3161369860172272, -0.1642189472913742, -0.1352752298116684, 0.03343365341424942, 0.1479564607143402, -0.3403457999229431, 0.14659778773784637, -0.06740409135818481, 0.1478375345468521, 0.1967737376689911, 0.12769877910614014, 0.026151642203330994, -0.0951654464006424, -0.06859339773654938, -0.008813714608550072, -0.200108602643013, 0.12903280556201935, -0.1937246173620224, 0.198466494679451, 0.17316538095474243, 0.22406885027885437, -0.23155848681926727, 0.18336455523967743, -0.17044851183891296, 0.19631578028202057, -0.18009525537490845, -0.08058319240808487, 0.015428433194756508, -0.3241735100746155, -0.03166377171874046, 0.03666901960968971, 0.2766933739185333, -0.303322434425354, 0.08262747526168823, 0.2927498519420624, -0.11393691599369049, -0.060511186718940735, 0.036770954728126526, 0.3692921996116638, -0.14146475493907928, 0.05394337326288223, -0.29920703172683716, -0.007548948749899864, 0.18069539964199066, -0.3344908654689789, 0.19509944319725037, 0.27452942728996277, 0.2677493393421173, 0.11159399896860123, -0.0661178007721901, 0.21065951883792877, 0.07921118289232254, -0.17135702073574066, -0.016462119296193123, -0.11380865424871445, -0.2799849510192871, -0.3189027011394501, -0.15709367394447327, -0.18117788434028625, 0.04016893357038498, -0.3640218675136566, 0.07069054991006851, 0.424442857503891, 0.23753677308559418, 0.21309277415275574, 0.007410379592329264, 0.15014976263046265, -0.04913506284356117, 0.11967609077692032, 0.05280870571732521, -0.0887002944946289, -0.1547534316778183, 0.02860787883400917, -0.05317723751068115, 0.03249620273709297, 0.03422701358795166, -0.006778539624065161, -0.18415194749832153, -0.002788164420053363, -0.0669860988855362, 0.019599368795752525, -0.0037854332476854324, 0.1087617427110672, 0.042833082377910614, -0.04883476346731186, 0.12993037700653076, 0.002501965267583728, -0.03738259896636009, -0.17294985055923462, -0.27969327569007874, 0.300000935792923, 0.13353683054447174, -0.05274270102381706, 0.15482839941978455, -0.02601509913802147, -0.11559730023145676, 0.028847558423876762, -0.004135708790272474, -0.06494172662496567, -0.3022511601448059, 0.07416719198226929, -0.0022935508750379086, 0.07811849564313889, 0.060450345277786255, -0.14975865185260773, -0.056816622614860535, -0.1461789458990097, -0.744372546672821, -0.10447666049003601, 0.030620593577623367, -0.19481387734413147, 0.0750480517745018, 0.09934549778699875, 0.0018153320997953415, -0.24421963095664978, -0.08437974005937576, -0.13899418711662292, 0.29544326663017273, 0.3627680242061615, 0.5269006490707397, 0.2738935649394989, -0.2051875740289688, -0.14116409420967102, -0.009826228953897953, -0.0373527891933918, 0.020786769688129425, -0.10209530591964722, -0.11932063102722168, -0.027354950085282326, 0.009099814109504223, 0.07600229978561401, -0.059632059186697006, 0.08353306353092194, -0.3234880268573761, 0.46552783250808716, -0.17033442854881287, 0.3007929027080536, -0.2823680341243744, 0.026249870657920837, 0.3389757573604584, -0.47775954008102417, 0.13248999416828156, -0.04235176369547844, -0.04843994975090027, 0.21278680860996246, -0.0030109635554254055, 0.028379276394844055, 0.050892602652311325, -0.01271760929375887, -0.10712309926748276, -0.04452507942914963, 0.027047771960496902, -0.04176325350999832, 0.010971611365675926, 0.10762328654527664, -0.08585745841264725, 0.0008634410914964974, 0.32453644275665283, -0.21585150063037872, -0.01797787845134735, -0.24529002606868744, 0.21995298564434052, 0.06224251165986061, 0.18146675825119019, -0.22527959942817688, 0.07686508446931839, 0.14642658829689026, -0.2694999575614929, -0.05928509682416916, 0.18917657434940338, -0.26947054266929626, 0.056939929723739624, -0.10006226599216461, 0.059953510761260986, -0.14568477869033813, 0.09250223636627197, 0.07065054029226303, 0.0006270878366194665, 0.12515698373317719, -0.029882874339818954, -0.012986138463020325, 0.13799931108951569, -0.1417870670557022, 0.1381872445344925, 0.039726532995700836, 0.07010746002197266, -0.050160106271505356, -0.2942897379398346, 0.07426925748586655, 0.1317538470029831, -0.05989464744925499, 0.19972294569015503, 0.15735052525997162, 0.017835702747106552, -0.11998110264539719, -0.008269306272268295, -0.2555459141731262, -0.12158186733722687, -0.021493664011359215, 0.03298753499984741, 0.16114403307437897, 0.0003564516664482653, -0.0728425458073616, -0.08335426449775696, 0.11460332572460175, -0.1861700713634491, 0.14330269396305084, 0.08681540191173553, 0.1671869307756424, -0.20923887193202972, -0.07251283526420593, -0.11736790835857391, 0.20198330283164978, -1.6698437320883386e-05, -0.2695719003677368, -0.0367744080722332, -0.13465094566345215, -0.12991516292095184, 0.09052029252052307, 0.024850105866789818, 0.05140990763902664, 0.023171458393335342, -0.03318951651453972, 0.20312492549419403, -0.07431813329458237, 0.002266316208988428, 0.01960519142448902, 0.08668304234743118, 0.050411615520715714, 0.25334393978118896, 0.15903231501579285, 0.006749149411916733, 0.006566138472408056, -0.08127705007791519, 0.20524799823760986, 0.13614405691623688, 0.009348616935312748, -0.10412060469388962, -0.04905422776937485, 0.02543966844677925, 0.05701214447617531, 0.13630478084087372, 0.12455233931541443, -0.20475926995277405, -0.2964749038219452, 0.019675573334097862, 0.17741161584854126, 0.25288134813308716, 0.05835367366671562, 0.09221573173999786, 0.137269526720047, 0.2750626504421234, 0.4563189744949341, 0.09428109228610992, -0.11215315014123917, -0.08308379352092743, -0.15869534015655518, 0.018643846735358238, 0.08720628917217255, -0.017615867778658867, 0.05286387354135513, -0.10479290783405304, 0.035097066313028336, 0.21421751379966736, 0.19154463708400726, 0.04983041435480118, 0.3084431290626526, -0.05469966307282448, 0.2269803285598755, -0.1397755742073059, -0.26030293107032776, 0.17241650819778442, -0.056612733751535416, -0.10913310945034027, 0.11751724034547806, -0.03368380665779114, -0.21376283466815948, 0.2792147397994995, -0.28634199500083923, -0.1112021878361702, -0.03482377156615257, 0.21524165570735931, 0.10415326803922653, -0.2500832676887512, 0.3762582540512085, 0.019011259078979492, -0.08967016637325287, 0.03819003328680992, 0.14013822376728058, 0.03979618102312088, -0.10981721431016922, -0.04399339482188225, -0.1329583078622818, 0.07520909607410431, 0.09059762954711914, -0.17465336620807648, 0.00916407722979784, 0.047992996871471405, 0.12212829291820526, 0.033006079494953156, -0.211512953042984, -0.2423582226037979, 0.34795644879341125, -0.03699713572859764, 0.07966674119234085, -0.09557051956653595, 0.03498687967658043, -0.07611990720033646, 0.28467875719070435, -0.007907167077064514, -0.3646928071975708, -0.07042303681373596, -0.1027737706899643, -0.22935813665390015, 0.25749287009239197, 0.10460785776376724, -0.11638529598712921, -0.048835985362529755, -0.017538275569677353, -0.05001132935285568, -0.04247041419148445, 0.03709955886006355, 0.04286663234233856, -0.012836052104830742, 0.06022340804338455, 0.23408672213554382, -0.08463430404663086, -0.1251422017812729, -0.13209927082061768, 0.19473589956760406, -0.042769040912389755, -0.09799245744943619, 0.2396077811717987, 0.016111258417367935, -0.07527196407318115, -0.05096769332885742, 0.0021029948256909847, 0.16510334610939026, -0.1965555101633072, -0.035329729318618774, -0.2613378167152405, -0.10373478382825851, 0.21387669444084167, -0.050037555396556854, 0.14163921773433685, -0.02369389496743679, -0.002566870301961899, 0.125013530254364, -0.08158355206251144, -0.1517767310142517, 0.19771529734134674, -0.1394781917333603, 0.12383197993040085, -0.10365264862775803, -0.06424594670534134, 0.06429348886013031, -0.03732021152973175, -0.20135043561458588, -0.42039522528648376, -0.04754253476858139, 0.09656171500682831, -0.15714605152606964, 0.07441668212413788, -0.11930958181619644, 0.1964089423418045, -0.07552588731050491, -0.20514947175979614, 0.22903771698474884, 0.11812444776296616, -0.1409054547548294, 0.14244702458381653, 0.22508695721626282, -0.05043270066380501, 0.038159359246492386, -0.09966348111629486, -0.09954187273979187, -0.08700253814458847, 0.11228206008672714, -0.06262706965208054, -0.028723198920488358, 0.30419328808784485, 0.01992792636156082, -0.19738659262657166, -0.03619932010769844, -0.21875041723251343, 0.15432539582252502, -0.033210210502147675, 0.14884161949157715, 0.06282643973827362, -0.18776363134384155, 0.039262961596250534, -0.14302760362625122, -0.025452421978116035, -0.05901716649532318, -0.01652815006673336, -0.034749533981084824, -0.14753508567810059, -0.195050910115242, 0.28388193249702454, -0.0345480777323246, 0.07776741683483124, -0.1280287802219391, 0.014942415058612823, 0.049279484897851944, 0.224417582154274, 0.06679978221654892, 0.07754906266927719, 0.02118065021932125, -0.17381036281585693, 0.15288032591342926, 0.0339587926864624, -0.059911105781793594, -0.24571841955184937, 0.17384056746959686, -0.06209718436002731, -0.1853002905845642, 0.29506295919418335, 0.1298268884420395, -0.07733411341905594, 0.12551578879356384, -0.1258668452501297, 0.006287307012826204, -0.14252226054668427, 0.077313631772995, -0.14341704547405243, -0.16404688358306885, -0.05461478605866432, -0.1158442273736, -0.16206201910972595, 0.12611208856105804, -0.1267240196466446, 0.40276867151260376, -0.09782907366752625, -0.0450737439095974, 0.1845046579837799, -0.10812728852033615, -0.06674285978078842, -0.016647599637508392, -0.2525400221347809, 0.1102183535695076, -0.1700470894575119, 0.08194006234407425, 0.32587334513664246, 0.011544856242835522, -0.17123988270759583, -0.07032410800457001, 0.02742900513112545, 0.05133199691772461, -0.30202099680900574, -0.1548449695110321, -0.045825500041246414, -0.28034886717796326, -0.05925387516617775, -0.17286735773086548, 0.028935043141245842, -0.2217704802751541, 0.25230616331100464, -0.006448530126363039, 0.03572746738791466, 0.024219343438744545, -0.07430887222290039, -0.16611337661743164, 0.14890272915363312, -0.1764754056930542, -0.1901237517595291, 0.1188013032078743, 0.032264020293951035, -0.10146176815032959, 0.24593225121498108, -0.07940233498811722, 0.26848429441452026, 0.05562413111329079, 0.1795589029788971, -0.21750566363334656, 0.1649671494960785, 0.13506343960762024, -0.3216499090194702, 0.07674749940633774, 0.07936365902423859, -0.09726295620203018, 0.05786758288741112, -0.2485554963350296, 0.0693717896938324, -0.0030818264931440353, -0.20929725468158722, 0.10666678845882416, 0.009188732132315636, 0.06457371264696121, -0.19349075853824615, -0.03808172047138214, 0.07927141338586807, -0.16549034416675568, -0.11830852180719376, 0.16607847809791565, -0.19262991845607758, -0.0768086388707161, -0.058140069246292114, 0.21086761355400085, -0.17464224994182587, 0.18586096167564392, -0.28338027000427246, -0.059418752789497375, 0.09203433245420456, -0.14963525533676147, -0.03095705807209015, 0.22272653877735138, -0.1870267242193222, -0.08179114013910294, 0.04497518762946129, 0.042891476303339005, -0.030057214200496674, 0.22224779427051544, 0.011275316588580608, -0.09089666604995728, 0.1700623482465744, -0.16275258362293243, 0.11362940073013306, 0.09257403761148453, 0.20764264464378357, 0.015757137909531593, 0.1616477370262146, -0.18944746255874634, 0.13072478771209717, 0.10989779978990555, -0.14485308527946472, -0.02117999643087387, 0.0906485840678215, 0.04078515246510506, -0.07985685765743256, -0.16152513027191162, 0.1928054839372635, 0.009098134934902191, -0.2585577070713043, 0.08359793573617935, -0.06417100131511688, 0.06163477152585983, -0.07807794958353043, 0.12908968329429626, 0.21139858663082123, 0.030777625739574432, 0.01927134394645691, 0.07436862587928772, -0.12963008880615234, -0.0028694947250187397, -0.07986589521169662, 0.07121895253658295, -0.05956127494573593, -0.10231462866067886, -0.05990033224225044, -0.08740712702274323, -0.17445142567157745, 0.15611115097999573, -0.13173869252204895, 0.08560731261968613, -0.07669037580490112, -0.03109924867749214, 0.08809234201908112, -0.008080121129751205, -0.053211092948913574, 0.28868311643600464, 0.02774839662015438, -0.10136688500642776, 0.21399548649787903, -0.12898610532283783, 0.08183117210865021, -0.006710957735776901, 0.1107901856303215, 0.23658722639083862, 0.0367940291762352, -0.16829678416252136, 0.010669121518731117, -0.14243477582931519, -0.12030060589313507, 0.001362399896606803, 0.013860994949936867, 0.06948988884687424, -0.007193837780505419, -0.1705368161201477, -0.17274975776672363, -0.2024613320827484, 0.33395063877105713, 0.038169313222169876, -0.07702845335006714, 0.030184127390384674, 0.09479278326034546, -0.0808345153927803, 0.3568449020385742, 0.18951915204524994, 0.014316394925117493, -0.20631176233291626, -0.1264556348323822, -0.08315315842628479, -0.23179122805595398, -0.26919206976890564, -0.05637168511748314, -0.06736235320568085, 0.008592795580625534, -0.14318910241127014, 0.20121830701828003, 0.05821217969059944, -0.06064457818865776, -0.07762614637613297, -0.17480675876140594, 0.020390791818499565, -0.298529714345932, -0.002269911579787731, 0.26820623874664307, -0.3271852731704712, 0.21051451563835144, 0.1741642951965332, -0.07598692178726196, -0.15516476333141327, 0.09408242255449295, 0.2067241072654724, 0.5690107941627502, 0.16455967724323273, -0.12547044456005096, -0.12941749393939972, -0.03052135743200779, 0.005588572006672621, -0.14169920980930328, 0.12010277807712555, -0.006288494449108839, -0.18937137722969055, 0.06513766199350357, -0.04660234972834587, -0.18615664541721344, 0.020247986540198326, -0.19746845960617065, -0.14081580936908722, -0.10532425343990326, 0.022031567990779877, -0.11222100257873535, -0.08777325600385666, 0.11567827314138412, -0.014133813790977001, 0.03752826899290085, -0.08000154048204422, -0.18339712917804718, 0.05037994682788849, 0.014393956400454044, 0.10009992122650146, 0.037947867065668106, 0.11451467126607895, -0.2911187708377838, 0.0428197905421257, -0.06601215898990631, -0.09517473727464676, -0.025561992079019547, -0.004049194045364857, 0.011960314586758614, -0.15558728575706482, 0.15691061317920685, -0.1399616301059723, 0.08111812174320221, -0.05355985835194588, -0.20744916796684265, -0.04953504353761673, 0.16050317883491516, -0.12181233614683151, 0.12169775366783142, 0.283168226480484, -0.03291492164134979, 0.03892487287521362, -0.16312313079833984, 0.04751715436577797, -0.11460693925619125, -0.11961930245161057, 0.095982126891613, -0.07361077517271042, -0.15223804116249084, 0.048026151955127716, -0.09618522971868515, -0.07035525888204575, -0.09641487896442413, -0.21269352734088898, 0.0809779018163681, -0.02929985336959362, -0.11777850240468979, -0.25275298953056335, 0.1369573175907135, -0.11797069013118744, 0.3411734998226166, 0.20586484670639038, 0.25159570574760437, -0.33845967054367065, 0.2114182561635971, -0.1835956573486328, 0.14631178975105286, -0.04994058981537819, 0.0908525139093399, -0.2612694501876831, 0.14216896891593933, -0.0921601802110672, -0.3968084752559662, -0.02810099348425865, -0.07726097851991653, -0.07187312841415405, 0.1140054389834404, -0.0008169824141077697, 0.11817764490842819, 0.004978497978299856, 0.05483044683933258, -0.05668126046657562, 0.030794743448495865, 0.023681780323386192, 0.12056849151849747, 0.14680323004722595, 0.053960904479026794, -0.05151442065834999, -0.052140168845653534, 0.17172400653362274, 0.28273260593414307, 0.07911954820156097, -0.06892278045415878, -0.22206564247608185, -0.03222668915987015, 0.12808288633823395, -0.15681594610214233, 0.19298532605171204, 0.3535042107105255, -0.07473883777856827, 0.29574957489967346, 0.05378510802984238, 0.3271366059780121, 0.053577639162540436, -0.0996297150850296, -0.1918632537126541, 0.06157580390572548, 0.13504867255687714, -0.1351383775472641, -0.304212361574173, -0.0021453036461025476, -0.16903255879878998, -0.21813680231571198, 0.09715070575475693, -0.18973316252231598, 0.004774570465087891, 0.34537452459335327, -0.020502101629972458, -0.07401367276906967, 0.16396863758563995, 0.043703462928533554, 0.1476893275976181, -0.008476214483380318, -0.023228798061609268, -0.2610454261302948, -0.14022697508335114, -0.21283413469791412, -0.06972719728946686, 0.23465999960899353, -0.1874607801437378, -0.08491330593824387, 0.13767144083976746, -0.27888748049736023, 0.00300819450058043, 0.30885303020477295, -0.15431632101535797, -0.2592753767967224, 0.13003170490264893, -0.11822003871202469, 0.08625117689371109, -0.14368784427642822, -0.11566851288080215, 0.15997159481048584, 0.004388822242617607, -0.008361827582120895, 0.00582579942420125, -0.08842974901199341, -0.07127437740564346, -0.04419756308197975, -0.06036701425909996, 0.2940593957901001, -0.1390083134174347, -0.01210089586675167, -0.011000792495906353, -0.0881563276052475, -0.009991291910409927, -0.045203063637018204, -0.3119802176952362, -0.08399637043476105, -0.10055339336395264, 0.19492383301258087, 0.028520673513412476, -0.009642744436860085, 0.00927490834146738, 0.03295028954744339, -0.06741800159215927, 0.05351996421813965, 0.05742059648036957, 0.049616046249866486, -0.132791668176651, -0.004693055059760809, -0.22038476169109344, 0.00402627931907773, -0.20842929184436798, -0.15020009875297546, 0.2909029722213745, -0.02864746004343033, -0.23145316541194916, 0.10367720574140549, -0.0914568081498146, -0.15475736558437347, 0.14089210331439972, 0.021447626873850822, -0.06938109546899796, 0.17887242138385773, -0.009563174098730087, -0.13531532883644104, -0.05512885004281998, 0.1568588763475418, -0.08066341280937195, -0.18200483918190002, -0.06720305979251862, 0.10830505937337875, 0.0016511192079633474, 0.21079006791114807, -0.16297534108161926, 0.09551375359296799, -0.052503909915685654, -0.2513459622859955, -0.004372718278318644, 0.07336710393428802, 0.03318396210670471, -0.0391007699072361, -0.05182573199272156, 0.07789461314678192, 0.22770802676677704, 0.05284535884857178, 0.12855032086372375, -0.10514833778142929, 0.10384334623813629, -0.05815970525145531, -0.014721338637173176, 0.03491533175110817, -0.12575119733810425, -0.02729101851582527, -0.09147986024618149, 0.08669136464595795, -0.06487202644348145, -0.029483933001756668, -0.09685368835926056, -0.019746914505958557, 0.11542332917451859, -0.05970674380660057, -0.10282972455024719, 0.03263922035694122, 0.1409602165222168, -0.01585099659860134, 0.04817666485905647, 0.029850374907255173, -0.058191217482089996, 0.14197809994220734, 0.027572957798838615, -0.05883142352104187, 0.06318558007478714, 0.005998105276376009, 0.07676105946302414, 0.06759221851825714, -0.01700866036117077, -0.14387810230255127, 0.04847663268446922, 0.10999606549739838, 0.007717548869550228, -0.12582410871982574, 0.051621463149785995, 0.03217780962586403, 0.004037385806441307, 0.053400665521621704, 0.5305909514427185, 0.10526077449321747, 0.5081016421318054, -0.7949181795120239, -0.4465596079826355, 0.28822872042655945, 0.270971417427063, -0.14562401175498962, 0.32650643587112427, 0.1992429494857788, -0.8281424045562744, 0.19003091752529144, 0.03976134955883026, -0.935476541519165, 0.14362360537052155, -0.2863219380378723, -0.13409502804279327, -0.32748880982398987, 0.19728218019008636, -0.10154422372579575, 0.19914931058883667, 0.16485591232776642, 0.029875710606575012, -0.19555677473545074, -0.37743085622787476, 0.02235143445432186, -0.20764626562595367, -0.12152596563100815, 0.07357563078403473, -0.015543869696557522, 0.14985865354537964, 0.04216783866286278, -0.000742411648388952, -0.1429777443408966, 0.21594902873039246, -0.3315873444080353, 0.10437583178281784, 0.08315134048461914, 0.1409023255109787, -0.12906494736671448, -0.07127436250448227, -0.05183720961213112, 0.026277057826519012, -0.05432331562042236, 0.15976837277412415, 0.18090401589870453, 0.3771468698978424, -0.1503496617078781, -0.07491446286439896, 0.269992858171463, -0.18911568820476532, -0.1559949517250061, -0.22859765589237213, -0.45199063420295715, -0.3048325777053833, 0.22581098973751068, 0.2623024880886078, -0.1706690788269043, 0.29430511593818665, -0.1796373724937439, 0.024728946387767792, 0.2546895146369934, 0.031449876725673676, 0.08834506571292877, -0.11303837597370148, -0.14024506509304047, -0.035589799284935, 0.15772193670272827, 0.4536207914352417, 0.194611057639122, 0.49707022309303284, -0.027168480679392815, -0.5245086550712585, -0.36630910634994507, 0.17528848350048065, -0.45532578229904175, 0.18210703134536743, 0.23552800714969635, 0.2484951913356781, -0.39702296257019043, 0.48686715960502625, 0.006836013402789831, 0.057739339768886566, 0.21859709918498993, -0.10474993288516998, -0.5164573192596436, -0.026192938908934593, 0.13996541500091553, 0.5824916958808899, 0.2127513736486435, 0.699584424495697, 0.5666043758392334, -0.12843042612075806, -0.37060946226119995, -0.43333902955055237, 0.0813022330403328, -0.25854963064193726, 0.26102694869041443, 0.26619523763656616, 0.6257525682449341, -0.2221895307302475, 0.2680650055408478, -0.234451025724411, 0.21506205201148987, 0.34752580523490906, 0.3730221092700958, -0.08269026130437851, 0.58653724193573, 0.05934572219848633, -0.18744124472141266, -0.9571300745010376, 0.34543439745903015, -0.24107183516025543, -0.06857462227344513, 0.286792129278183, -0.046882085502147675, 0.22318458557128906, -0.35877725481987, 0.45398107171058655, 0.18566489219665527, -0.31248462200164795, -0.17397244274616241, 0.31730028986930847, 0.1089010089635849, 0.26942822337150574, 0.1147550418972969, 0.22631146013736725, -0.4170987010002136, -0.10815288871526718, 0.2057841718196869, 0.01329823024570942, 0.06762725114822388, 0.09462571889162064, -0.28039371967315674, -0.04612450301647186, 0.18031363189220428, 0.04047083109617233, 0.04928087443113327, 0.22553613781929016, -0.014101775363087654, 0.038544002920389175, -0.14661815762519836, 0.48242440819740295, -0.17426106333732605, -0.23917774856090546, 0.18215544521808624, 0.24785518646240234, 0.013825922273099422, 0.2152835577726364, 0.09643936157226562, -0.321004182100296, -0.18809598684310913, 0.05111275613307953, -0.012988267466425896, 0.13849875330924988, -0.0711807832121849, 0.26806315779685974, 0.3221208155155182, 0.08438485860824585, 0.14941604435443878, 0.19074320793151855, 0.42965927720069885, 0.0612630657851696, 0.19442325830459595, -0.22970685362815857, 0.11655937880277634, -0.03841317817568779, 0.30476710200309753, -0.3309243619441986, -0.2990415692329407, 0.19554242491722107, -0.19048894941806793, 0.24035128951072693, -0.45131173729896545, 0.19022800028324127, -0.05291564390063286, 0.010190646164119244, 0.3822375237941742, -0.5541114211082458, -0.09473930299282074, -0.44331198930740356, 0.06423500180244446, -0.05807725712656975, -0.4604458510875702, 0.42363786697387695, 0.04084387794137001, -0.2294308841228485, -0.03125203400850296, -0.4467235505580902, 0.03442738950252533, 0.19986207783222198, -0.14235848188400269, 0.17964290082454681, -0.22935734689235687, -0.15087565779685974, -0.062190160155296326, 0.2303207665681839, -0.4305451512336731, 0.2797171473503113, -0.15815047919750214, -0.5224562883377075, -0.018112685531377792, 0.3061448335647583, 0.05349554866552353, -0.10110205411911011, 0.47945937514305115, -0.061053428798913956, -0.2448662668466568, -0.006956110242754221, 0.2709421217441559, 0.3615509867668152, -0.07338409125804901, -0.07666029036045074, -0.11455127596855164, -0.39823010563850403, 0.1974766105413437, 0.4205736815929413, 0.11618287116289139, 0.11936184018850327, -0.12467879056930542, -0.0984797403216362, 0.2864331901073456, 0.03371677175164223, -0.17685751616954803, -0.04477432370185852, 0.053638726472854614, -0.16051426529884338, 0.36878126859664917, -0.04176754504442215, 0.28741490840911865, -0.31700676679611206, -0.1810230165719986, 0.14368155598640442, 0.39448314905166626, -0.4098493754863739, -0.09387020021677017, -0.2632989287376404, -0.10622137039899826, -0.3426482379436493, 0.2581513524055481, 0.3342873752117157, -0.07812869548797607, 0.029616624116897583, -0.10742232203483582, -0.06307049095630646, -0.11013565212488174, -0.02458510734140873, -0.06670871376991272, -0.08072532713413239, 0.06448347866535187, -0.0435168482363224, -0.2177002727985382, 0.2107912302017212, 0.16251425445079803, 0.2720963656902313, 0.011101965792477131, -0.039657920598983765, 0.18720385432243347, -0.2504864037036896, -0.1118893250823021, -0.19353768229484558, -0.21857619285583496, 0.12916487455368042, -0.12521213293075562, -0.10603306442499161, 0.09966746717691422, -0.2867133915424347, -0.11372566223144531, -0.05256570130586624, 0.053507596254348755, 0.25183677673339844, 0.08799714595079422, -0.14713160693645477, -0.03146684542298317, 0.05987796187400818, -0.047555889934301376, 0.11297392845153809, 0.016464579850435257, 0.07852296531200409, 0.0478784516453743, -0.09081508219242096, 0.10434263199567795, 0.026693372055888176, 0.027305051684379578, -0.015837999060750008, -0.07740262150764465, -0.06772345304489136, 0.009061899036169052, -0.02276940643787384, 0.04978878051042557, -0.0820716843008995, -0.046635761857032776, 0.22330227494239807, -0.01545171532779932, -0.06297808140516281, 0.037018176168203354, -0.04403335601091385, 0.027313098311424255, 0.1332114040851593, -0.05301709100604057, -0.016057521104812622, 0.0848459005355835, -0.051130156964063644, 0.04608669877052307, -0.13112232089042664, 0.03157530352473259, 0.02629212662577629, -0.044827837496995926, 0.08564705401659012, 0.3614705204963684, 0.2740239202976227, 0.05942242965102196, -0.045750007033348083, -0.2337736040353775, -0.011551103554666042, -0.1316855251789093, 0.026032544672489166, 0.016114480793476105, 0.12611794471740723, 0.19833432137966156, -0.19451721012592316, 0.16109678149223328, -0.09790017455816269, -0.07442843914031982, -0.0487307570874691, 0.1839354783296585, 0.1951642781496048, -0.14326798915863037, -0.12341778725385666, 0.0015676948241889477, 0.15052758157253265, 0.08848895877599716, 0.20506897568702698, 0.012160606682300568, 0.11124615371227264, 0.12662705779075623, 0.015391581691801548, 0.20095933973789215, 0.07298347353935242, -0.12377406656742096, 0.2418852150440216, 0.04338792338967323, -0.4541671872138977, -0.03531048446893692, 0.00936996191740036, -0.23346176743507385, 0.4911830425262451, -0.03319035843014717, 0.19937901198863983, -0.26932501792907715, -0.010784091427922249, 0.27251797914505005, -0.17060159146785736, -0.09032125771045685, -0.27459388971328735, 0.3322383165359497, 0.17404581606388092, -0.08589883893728256, 0.01766078732907772, 0.013043757528066635, -0.2620580792427063, 0.37281501293182373, 0.04718876630067825, 0.16905559599399567, 0.06749314814805984, 0.02577858231961727, -0.150997132062912, -0.34637975692749023, 0.17476527392864227, -0.47149959206581116, 0.01427413523197174, -0.18174664676189423, -0.18827132880687714, -0.005217114929109812, 0.006520785856992006, -0.020474515855312347, -0.24126867949962616, 0.13130919635295868, -0.04405593499541283, -0.08264327794313431, -0.08326250314712524, -0.2633475661277771, -0.10809285938739777, -0.010080092586576939, 0.000262345012743026, -0.05734529718756676, 0.19902850687503815, 0.036334339529275894, -0.0785018801689148, 0.056051962077617645, -0.0024284326937049627, -0.02534504421055317, 0.05920606851577759, -0.1413191258907318, 0.09428038448095322, 0.00244150054641068, -0.1500292718410492, -0.045088205486536026, -0.04813939705491066, -0.0009033846436068416, 0.23576419055461884, 0.04663582518696785, 0.04409581795334816, -0.08987836539745331, 0.08763746172189713, -0.18213286995887756, -0.19116443395614624, -0.00591686787083745, 0.14956235885620117, -0.1552179753780365, -0.025074230507016182, 0.16759836673736572, -0.09630250930786133, -0.21362616121768951, 0.02368444949388504, 0.003642853582277894, 0.16016755998134613, -0.05245322734117508, 0.1463160663843155, -0.013988654129207134, -0.11208758503198624, -0.15361011028289795, 0.06408331543207169, 0.20488929748535156, 0.007727567572146654, 0.12514761090278625, 0.00035453468444757164, -0.1880619078874588, 0.22665318846702576, 0.06699181348085403, -0.15763865411281586, 0.1922067254781723, -0.09768106043338776, -0.3395061790943146, 0.09033477306365967, 0.18710863590240479, -0.2917371690273285, -0.16415098309516907, 0.2322223037481308, 0.08304464817047119, 0.02641710638999939, 0.1660485863685608, -0.5544281005859375, 0.18798352777957916, -0.0455426387488842, 0.3321685194969177, 0.09928342700004578, -0.2857287526130676, 0.2326032668352127, 0.13527874648571014, 0.2647477984428406, -0.352081835269928, 0.048152241855859756, 0.19786959886550903, 0.028193237259984016, -0.25026214122772217, 0.14124369621276855, -0.17607614398002625, 0.025733474642038345, -0.12114796042442322, 0.04834411293268204, 0.09385523945093155, 0.21040943264961243, 0.16043280065059662, 0.009839377366006374, 0.030988847836852074, -0.2520272433757782, 0.06879235059022903, 0.10301485657691956, 0.21474356949329376, -0.12498804181814194, -0.014292575418949127, 0.15807616710662842, -0.1945677548646927, 0.15569423139095306, -0.05975905805826187, 0.04926571995019913, 0.21416513621807098, -0.07275008410215378, -0.005166714079678059, -0.026797084137797356, 0.21824002265930176, 0.08018993586301804, -0.06378237903118134, 0.22479277849197388, 0.08925852924585342, 0.06282457709312439, 0.060823746025562286, 0.10428458452224731, -0.0871940478682518, 0.2802801728248596, -0.05622400343418121, 0.12340453267097473, -0.007615239825099707, 0.13368576765060425, 0.2066074162721634, -0.21580074727535248, -0.11442374438047409, 0.1482534408569336, -0.008985158056020737, -0.07075856626033783, 0.3322538733482361, 0.04984035715460777, 0.059953831136226654, -0.07250002771615982, -0.023094383999705315, 0.03166676685214043, 0.15406839549541473, 0.02961505949497223, -0.03985733911395073, -0.25119835138320923, 0.17122876644134521, -0.15644024312496185, 0.09905394911766052, -0.1258106529712677, -0.2067667543888092, -0.1833188682794571, 0.1432521939277649, -0.00310703762806952, -0.10529395192861557, 0.06383012980222702, -0.019536612555384636, -0.026821868494153023, 0.16570578515529633, 0.1396595686674118, -0.1209619864821434, 0.1329949051141739, 0.15003034472465515, -0.04653158411383629, 0.1883712261915207, -0.04209093004465103, -0.0900297611951828, 0.1464221477508545, 0.020059658214449883, 0.06088368222117424, 0.013842271640896797, -0.14258114993572235, -0.015696067363023758, 0.0921132043004036, -0.1716739535331726, -0.07337711751461029, -0.09938334673643112, -0.016458872705698013, 0.00828627310693264, -0.3027802109718323, 0.1133396252989769, 0.12244537472724915, -0.062337134033441544, -0.04184306412935257, -0.19074049592018127, -0.01970124989748001, 0.0016869667451828718, -0.107603520154953, -0.0960933119058609, -0.06139889732003212, 0.07941519469022751, -0.004627285525202751, -0.06929650902748108, -0.10820601880550385, 0.2268138974905014, -0.1196269765496254, -0.16008718311786652, 0.1811167299747467, -0.2089499533176422, 4.450645064935088e-05, -0.08325382322072983, -0.2177356779575348, -0.17000848054885864, 0.07015437632799149, 0.05697961524128914, 0.010578854940831661, 0.3419504165649414, 0.037405431270599365, 0.012075184844434261, 0.28543099761009216, 0.0360383614897728, -0.16731742024421692, -0.048845939338207245, -0.04483423009514809, -0.005053631030023098, -0.06600635498762131, 0.0005457938532344997, -0.10080797225236893, 0.08131538331508636, 0.18472179770469666, 0.00932062417268753, -0.05212680622935295, -0.005929641891270876, 0.23847731947898865, 0.2650248408317566, -0.04561859741806984, 0.17397864162921906, 0.025211311876773834, -0.08100422471761703, 0.01718924567103386, 0.33003848791122437, 0.15362612903118134, 0.09769459813833237, 0.026374442502856255, -0.34411248564720154, -0.2225048542022705, 0.08288058638572693, 