{"version": "0.5.4", "metadata": {"date": {"year": 2026, "month": 5, "day": 25, "hour": 7, "minute": 47, "second": 33}, "loudness": -18.181764602661133, "gain": 0.7301601030984339, "name": "JCM800 Clean", "modeled_by": "paLm", "gear_type": "amp_cab", "gear_make": "JCM800", "gear_model": "Marshall JCM800 - Marshall 1960AV", "tone_type": "clean", "input_level_dbu": null, "output_level_dbu": null, "training": {"settings": {"ignore_checks": false}, "data": {"latency": {"manual": null, "calibration": {"algorithm_version": 1, "delays": [0], "safety_factor": 1, "recommended": -1, "warnings": {"matches_lookahead": false, "disagreement_too_high": false, "not_detected": false}}}, "checks": {"version": 3, "passed": true}}, "validation_esr": 0.004183829631375935}}, "architecture": "WaveNet", "config": {"layers": [{"input_size": 1, "condition_size": 1, "head_size": 8, "channels": 16, "kernel_size": 3, "dilations": [1, 2, 4, 8, 16, 32, 64, 128, 256, 512], "activation": "Tanh", "gated": false, "head_bias": false}, {"input_size": 16, "condition_size": 1, "head_size": 1, "channels": 8, "kernel_size": 3, "dilations": [1, 2, 4, 8, 16, 32, 64, 128, 256, 512], "activation": "Tanh", "gated": false, "head_bias": true}], "head": null, "head_scale": 0.02}, "weights": [0.5525819659233093, 0.7893868684768677, -1.2291442155838013, -1.047609567642212, -0.5299787521362305, 0.7064427137374878, -0.24137072265148163, 1.1126042604446411, -0.2812688648700714, 0.5562761425971985, -0.6252957582473755, -0.43318599462509155, -1.3645678758621216, -0.88648521900177, -0.6820017099380493, 0.687839150428772, -0.14368630945682526, 0.2278572916984558, -0.183781236410141, -0.18219205737113953, 0.2512018084526062, 0.12016760557889938, 0.08148162811994553, -0.0956278145313263, -0.028044158592820168, 0.13295650482177734, -0.0704534500837326, -0.13506484031677246, 0.02565140463411808, -0.2310783565044403, -0.05197518691420555, -0.015835145488381386, 0.10128089785575867, -0.07461421936750412, 0.002900652354583144, -0.2877843976020813, -0.033798545598983765, 0.003831681329756975, 0.2662138342857361, 0.0705719143152237, 0.14698070287704468, -0.24637356400489807, 0.056207358837127686, -0.2619156539440155, 0.09204356372356415, -0.08431631326675415, 0.19561976194381714, -0.11212178319692612, -0.06872233003377914, 0.13944682478904724, -0.10105463862419128, 0.14750078320503235, 0.1717332899570465, -0.18446584045886993, 0.09280674904584885, 0.02689727395772934, -0.1718447208404541, -0.11435916274785995, 0.020516395568847656, -0.271711140871048, 0.06609485298395157, -0.12494278699159622, 0.09186863899230957, 0.01174863800406456, 0.27968889474868774, -0.010061237029731274, 0.22742226719856262, 0.15286694467067719, 0.04742559790611267, 0.2827482521533966, -0.23848684132099152, -0.017787005752325058, -0.09123782813549042, -0.004856372717767954, 0.16395127773284912, -0.02052418701350689, -0.08585988730192184, -0.08592374622821808, -0.12875057756900787, 0.054542116820812225, -0.17331650853157043, 0.28586316108703613, 0.025574345141649246, -0.12982891499996185, -0.12014035135507584, 0.10428711771965027, -0.06283203512430191, 0.08298648148775101, -0.052941951900720596, -0.04534999281167984, -0.09256172925233841, 0.20474228262901306, 0.06740633398294449, 0.20945267379283905, -0.2578500807285309, -0.0560590997338295, -0.0675363838672638, -0.10903377830982208, -0.0647631511092186, -0.231378972530365, 0.009829271584749222, 0.13538758456707, -0.21011382341384888, -0.1513281762599945, -0.09728208929300308, -0.14342916011810303, -0.23402689397335052, -0.07159291207790375, -0.15257319808006287, 0.22052179276943207, -0.0922074243426323, 0.27022460103034973, -0.37511754035949707, 0.29692769050598145, 0.10009792447090149, -0.36414116621017456, 0.12355140596628189, 0.06126781925559044, 0.2541879713535309, -0.12999112904071808, -0.0031923060305416584, 0.24885845184326172, -0.23067741096019745, 0.012665163725614548, 0.102525994181633, -0.24038133025169373, -0.08182776719331741, -0.3299562931060791, 0.1020037829875946, -0.06950107216835022, 0.20183667540550232, -0.11598536372184753, -0.09156499058008194, -0.2480490505695343, 0.2654034495353699, 0.04095735028386116, 0.2740495502948761, -0.1481422632932663, 0.02021452970802784, -0.1591549813747406, 0.29157593846321106, 0.1325066089630127, 0.3720439672470093, -0.16523875296115875, -0.17763996124267578, 0.19608935713768005, -0.048851706087589264, -0.05560707300901413, 0.1645984947681427, -0.2742604613304138, -0.19338101148605347, 0.114236980676651, -0.18805012106895447, 0.02580103650689125, 0.32029902935028076, -0.29515862464904785, 0.03802391141653061, -0.40415722131729126, 0.11163324117660522, -0.032789651304483414, -0.008994988165795803, -0.17748388648033142, 0.05763185769319534, -0.1498626321554184, -0.1985176056623459, 0.09663457423448563, -0.034607380628585815, 0.2342315912246704, -0.21945825219154358, 0.016780948266386986, 0.3048746883869171, -0.15269845724105835, 0.15446588397026062, 0.22400158643722534, -0.22901207208633423, 0.0749880000948906, -0.1912413239479065, 0.04445607215166092, 0.14743582904338837, 0.02287747897207737, -0.12415546178817749, -0.05567168816924095, -0.07668465375900269, 0.1351892352104187, 0.07541564851999283, 0.20562371611595154, -0.16396339237689972, -0.05142252892255783, -0.29352977871894836, 0.18732239305973053, 0.14440131187438965, 0.26778843998908997, -0.19483588635921478, 0.01836211234331131, 0.06663020700216293, -0.186344176530838, -0.05570100620388985, 0.22964619100093842, -0.17702051997184753, 0.024060679599642754, 0.18076765537261963, 0.001434100791811943, -0.0862402468919754, 0.0740281492471695, -0.18099330365657806, 0.10738585144281387, -0.2160249650478363, 0.270866721868515, 0.18364039063453674, 0.19125796854496002, -0.40412843227386475, 0.11518125981092453, 0.24421420693397522, -0.3099694848060608, -0.1342833936214447, -0.2011428028345108, 0.1679864376783371, -0.21600459516048431, -0.10878552496433258, 0.16304932534694672, -0.15317028760910034, -0.08145752549171448, 0.3269968628883362, 0.14466744661331177, 0.10293535888195038, -0.22480197250843048, -0.24064232409000397, -0.20584741234779358, 0.27383583784103394, 0.11622458696365356, 0.22843290865421295, -0.16167651116847992, -0.14246304333209991, -0.09720835089683533, 0.37716972827911377, 0.05550761893391609, 0.29429444670677185, -0.3922872543334961, -0.18869587779045105, -0.1680757701396942, 0.3212353587150574, -0.03083263337612152, -0.27132853865623474, 0.291294664144516, -0.059761788696050644, -0.3637605309486389, 0.38312458992004395, -0.25596877932548523, -0.22002887725830078, 0.24835734069347382, -0.20957812666893005, -0.20469515025615692, 0.39757442474365234, 0.07027702033519745, 0.13443031907081604, -0.38560208678245544, -0.26517799496650696, 0.09952320158481598, 0.03860428184270859, -0.19604800641536713, -0.047800954431295395, 0.2118651419878006, 0.166548490524292, 0.06717745214700699, -0.08326589316129684, 0.04892493411898613, -0.07872115075588226, -0.08976145833730698, 0.21728818118572235, 0.002786064986139536, -0.1903841644525528, -0.17893633246421814, -0.10975612699985504, 0.16148021817207336, 0.019305704161524773, -0.15842106938362122, 0.06348678469657898, -0.19051317870616913, 0.022769195958971977, 0.17477869987487793, 0.1307946741580963, -0.1113412156701088, -0.2060067057609558, 0.010713391937315464, 0.05609476938843727, 0.24345633387565613, 0.04473630711436272, 0.0067183952778577805, -0.14999927580356598, 0.11265505105257034, -0.10264898091554642, -0.07842731475830078, 0.13904334604740143, -0.04412831738591194, -0.16642066836357117, 0.005627030972391367, 0.06053396314382553, -0.23419642448425293, 0.15836010873317719, -0.0828801840543747, -0.19668181240558624, -0.10197336971759796, -0.06377287954092026, 0.15313653647899628, -0.07001237571239471, -0.009142553433775902, 0.2737874388694763, -0.0843091607093811, 0.1066863164305687, 0.1577935814857483, 0.01927034743130207, -0.07989894598722458, -0.12698712944984436, 0.09084426611661911, 0.001860865275375545, -0.08110520243644714, 0.06916648894548416, -0.04752306640148163, -0.1071837916970253, -0.14400969445705414, 0.055234212428331375, 0.19807878136634827, 0.008285509422421455, -0.03723735734820366, -0.0497545525431633, -0.013639440760016441, 0.13792821764945984, 0.19566205143928528, 0.22880271077156067, -0.10057252645492554, -0.2712703049182892, -0.27196547389030457, 0.19129806756973267, 0.2649795114994049, 0.03733382001519203, 0.005001499317586422, -0.05530054494738579, 0.3081388473510742, 0.09114231914281845, -0.06920134276151657, 0.1076899915933609, -0.10593251883983612, -0.05776698887348175, 0.22230544686317444, -0.13916319608688354, -0.04027668014168739, 0.2158525437116623, 0.02945237047970295, -0.25987598299980164, -0.12214583903551102, -0.01654229313135147, 0.29237908124923706, -0.19609175622463226, 0.3048846125602722, -0.033555034548044205, -0.07853210717439651, 0.17978306114673615, 0.017842544242739677, 0.04145345464348793, -0.1936803162097931, -0.04260173812508583, -0.0012849414488300681, -0.3438268303871155, 0.16781961917877197, 0.2193693220615387, -0.0896305963397026, 0.16788338124752045, -0.27828341722488403, 0.1312621384859085, -0.08390510082244873, 0.04432956874370575, -0.12514008581638336, -0.08269239962100983, -0.21435090899467468, 0.08881604671478271, -0.13772346079349518, 0.26816636323928833, -0.106004498898983, 0.1568143516778946, -0.034565627574920654, 0.35705628991127014, -0.09339815378189087, 0.20960423350334167, -0.09445027261972427, 0.10331345349550247, 0.2826356887817383, -0.15915265679359436, 0.1434594988822937, 0.09195510298013687, -0.15849651396274567, 0.07093457877635956, 0.10778017342090607, -0.3061176836490631, -0.027776895090937614, 0.03087933361530304, -0.13132086396217346, 0.1558442860841751, -0.19629605114459991, 0.1478135585784912, 0.029768912121653557, 0.006540330126881599, 0.027854228392243385, 0.04465264454483986, 0.07253960520029068, 0.0827951431274414, 0.016264641657471657, 0.1911872774362564, 0.08111846446990967, -0.18052995204925537, 0.13969118893146515, -0.10721948742866516, -0.1502988636493683, 0.18549767136573792, -0.01456371508538723, -0.21807797253131866, -0.11643430590629578, -0.022884560748934746, 0.10000073909759521, 0.08370126038789749, 0.1159374788403511, -0.06819607317447662, -0.14742951095104218, 0.03254266455769539, 0.19689877331256866, 0.16240739822387695, -0.13057182729244232, -0.11560147255659103, -0.17313039302825928, -0.043459903448820114, 0.17238546907901764, -0.04562533646821976, 0.03359043225646019, 0.013184127397835255, 0.08004641532897949, -0.10820414870977402, -0.18121939897537231, 0.08652471005916595, -0.13710254430770874, -0.056168511509895325, -0.07264021039009094, -0.16229383647441864, -0.25995999574661255, 0.032990243285894394, 0.07854723930358887, -0.25499555468559265, 0.04171372950077057, -0.05542771518230438, 0.16079896688461304, 0.37552618980407715, -0.1265868842601776, -0.05759807303547859, 0.3461357653141022, 0.11771254986524582, -0.11830459535121918, -0.37395602464675903, 0.13333961367607117, 0.18730388581752777, -0.20596879720687866, -0.09747445583343506, 0.14264068007469177, -0.41446244716644287, -0.04419946298003197, 0.21250028908252716, 0.17100019752979279, 0.017989035695791245, -0.11401641368865967, -0.22583416104316711, -0.07239363342523575, 0.11919291317462921, 0.23385803401470184, 0.04684177786111832, -0.038701076060533524, -0.18612803518772125, 0.002109136199578643, 0.24417325854301453, 0.14014001190662384, -0.14120274782180786, -0.12109766155481339, -0.3509761691093445, 0.08641014248132706, 0.08240930736064911, -0.32543158531188965, -0.054595548659563065, 0.2957686185836792, -0.28932565450668335, 0.12735898792743683, 0.2713170647621155, -0.19222745299339294, 0.01698935776948929, 0.1345617175102234, -0.3066748380661011, 0.03423783555626869, 0.2514708936214447, 0.21737860143184662, 0.08442442119121552, -0.20787754654884338, -0.43615996837615967, -0.26900041103363037, 0.7086143493652344, -0.22177264094352722, -0.3487151861190796, 0.6064895987510681, 0.41752761602401733, 0.2925460934638977, -0.3842393159866333, 0.2718430757522583, 0.2563861608505249, -0.4463368058204651, 0.3024640381336212, 0.2587420642375946, -0.5338671207427979, -0.2737911641597748, -0.25793617963790894, 0.47097769379615784, 0.35562965273857117, 0.28698644042015076, -0.47855618596076965, -0.33842164278030396, -0.12700454890727997, 0.49346688389778137, 0.3983328342437744, 0.18874385952949524, -0.4318848252296448, -0.4578976333141327, -0.29986414313316345, 0.43405094742774963, 0.47633352875709534, 0.17458830773830414, -0.49387213587760925, 0.305732786655426, 0.37081772089004517, -0.3822105824947357, 0.24033483862876892, 0.09301939606666565, -0.6146466732025146, 0.3432317078113556, 0.17206545174121857, -0.5911992788314819, 0.3002464175224304, 0.24016951024532318, -0.5788984298706055, -0.35899969935417175, -0.2728421986103058, 0.48315614461898804, 0.39494818449020386, -0.013023159466683865, -0.2786390781402588, 0.3175073564052582, -0.21343004703521729, -0.08568134903907776, -0.4393772780895233, 0.028188461437821388, 0.3721165060997009, -0.39959630370140076, 0.18970653414726257, 0.21449580788612366, -0.3384300172328949, 0.12522868812084198, 0.3086830675601959, 0.3356682062149048, -0.29035356640815735, -0.3069331645965576, -0.34745779633522034, 0.21392807364463806, 0.07748029381036758, 0.4452769160270691, -0.19543620944023132, -0.25282201170921326, -0.21904753148555756, 0.21218270063400269, 0.31450971961021423, 0.39997854828834534, -0.2011890411376953, -0.3135863244533539, -0.3132058084011078, 0.28120291233062744, 0.1758243888616562, -0.46901506185531616, 0.20171120762825012, 0.3669782876968384, -0.3463318943977356, 0.046506136655807495, 0.0985136330127716, -0.2680802643299103, 0.15097951889038086, 0.1512605845928192, -0.28272923827171326, 0.21260714530944824, 0.3366221785545349, 0.4765041172504425, -0.15271618962287903, -0.33272916078567505, 0.2981438636779785, -0.04793649539351463, 0.009281730279326439, 0.4065600335597992, -0.3480929136276245, 0.018965043127536774, -0.2116588056087494, 0.3484688997268677, -0.014300322160124779, -0.399647980928421, 0.12115343660116196, 0.24735307693481445, -0.4027099311351776, 0.14902502298355103, 0.18095360696315765, 0.2934165894985199, -0.2991231381893158, -0.12807264924049377, -0.32891035079956055, 0.061756670475006104, 0.18093381822109222, 0.2853478193283081, -0.1698099672794342, 0.015079142525792122, -0.2776138484477997, 0.22365455329418182, 0.21556437015533447, 0.37009572982788086, -0.28651461005210876, 0.029542548581957817, -0.3150229752063751, 0.07191987335681915, 0.06149674579501152, -0.44792553782463074, 0.36810508370399475, 0.10927194356918335, -0.47932136058807373, 0.21018216013908386, 0.19992613792419434, -0.30505841970443726, 0.2612181007862091, 0.12048076093196869, -0.2976909875869751, 0.18205487728118896, 0.04982784390449524, 0.27664947509765625, -0.33256301283836365, -0.039136387407779694, 0.005198017228394747, 0.0246435534209013, -0.03980481997132301, 0.07700677216053009, -0.10785822570323944, 0.021139929071068764, -0.14312739670276642, 0.13750527799129486, 0.004696873482316732, -0.09970520436763763, 0.09412287175655365, 0.05991425737738609, 0.05223347991704941, -0.08841313421726227, -0.013482294045388699, 0.008631517179310322, 0.015382268466055393, 0.01242176815867424, -0.14070072770118713, 0.06261026114225388, 0.033953458070755005, 0.03300686553120613, 0.09064863622188568, -0.23148788511753082, -0.07913767546415329, 0.12515409290790558, 0.06312008947134018, 0.18331994116306305, -0.05333567038178444, 0.0029318288434296846, -0.20322659611701965, -0.0109374625608325, 0.07521617412567139, -0.031059859320521355, 0.06069137528538704, 0.23041963577270508, -0.08282919973134995, 0.011439974419772625, 0.21825887262821198, -0.10363169759511948, 0.1405748575925827, 0.01543894037604332, -0.08357464522123337, 0.0014939784305170178, 0.17502529919147491, 0.18082989752292633, -0.014934730716049671, -0.23155628144741058, 0.038497813045978546, 0.05196371674537659, -0.06271407753229141, -0.06677587330341339, 0.1571403592824936, 0.09121491760015488, -0.01891171932220459, -0.2053920328617096, 0.14331120252609253, -0.13188092410564423, -0.034170109778642654, 0.06340537220239639, -0.08738613873720169, -0.012719511985778809, -0.07712677121162415, 0.04696259647607803, -0.03611210733652115, -0.0651746541261673, 0.015225544571876526, 0.07562500983476639, 0.04389416053891182, 0.11885648965835571, 0.049813851714134216, -0.10929152369499207, -0.11947628855705261, -0.17522217333316803, 0.21929900348186493, -0.01803884468972683, 0.06799637526273727, -0.013403142802417278, 0.0702953115105629, 0.06293704360723495, 0.17470970749855042, -0.11079732328653336, -0.06429505348205566, -0.027928601950407028, -0.1110663041472435, -0.0349765345454216, 0.17697742581367493, -0.1407587081193924, 0.02130783349275589, -0.028446465730667114, -0.049413762986660004, 0.05398068204522133, 0.01747346669435501, 0.012533130124211311, -0.07582280039787292, 0.04732542857527733, 0.15433186292648315, -0.5129347443580627, 0.41306278109550476, 0.009911710396409035, -0.5421428680419922, 0.26810958981513977, -0.004003465175628662, 0.3781152665615082, -0.19672177731990814, 0.008296322077512741, 0.5196914076805115, -0.339077353477478, -0.12441720068454742, 0.3740130364894867, -0.3770590126514435, 0.13330741226673126, -0.32347437739372253, 0.39667007327079773, -0.05317952483892441, 0.4029124975204468, -0.35125836730003357, 0.22997654974460602, -0.48733118176460266, 0.16529716551303864, -0.08392202109098434, 0.5061653256416321, -0.4078640043735504, 0.25015345215797424, -0.37590011954307556, 0.1741560399532318, -0.15027649700641632, 0.5346431732177734, -0.37260276079177856, -0.1725035309791565, 0.48467203974723816, -0.38824692368507385, -0.041015926748514175, 0.49950671195983887, -0.17420528829097748, -0.20447656512260437, 0.5632352232933044, -0.34390023350715637, 0.024408990517258644, 0.2852060794830322, -0.3905184268951416, 0.28222864866256714, -0.4265415072441101, 0.3241308331489563, -0.030990218743681908, -0.2202652096748352, -0.10160288959741592, -0.08120264112949371, -0.0361936129629612, -0.055873505771160126, -0.13402286171913147, 0.007486273534595966, -0.007960124872624874, 0.256899356842041, -0.02029906027019024, 0.07443656027317047, -0.016820823773741722, 0.0969276949763298, -0.03701848164200783, -0.020449915900826454, 0.45517489314079285, -0.28442323207855225, 0.8621945381164551, -0.6211251616477966, -0.2673611044883728, 1.0374345779418945, 1.1709398031234741, -0.6301407814025879, 0.30849429965019226, -0.05680743232369423, 0.03174116462469101, -0.5780630111694336, 0.1596919596195221, -0.8175668716430664, 0.130693718791008, 0.6878045201301575, -0.000970865658018738, 0.33554816246032715, 0.17679806053638458, 0.07239805907011032, 0.3086934983730316, 0.1161416545510292, 0.3836917579174042, -0.33305788040161133, 0.04442010447382927, 0.04148649424314499, 0.15662781894207, -0.34620699286460876, 0.3936782777309418, -0.15652501583099365, 0.3752427101135254, 0.23534606397151947, -0.18996161222457886, 0.1284424066543579, -0.5054070353507996, 0.27902132272720337, -0.2634159028530121, -0.0727926716208458, -0.15906335413455963, -0.18394356966018677, -0.04674169793725014, 0.3309904634952545, -0.002851924393326044, 0.27308204770088196, 0.31934991478919983, -0.03760506957769394, -0.03162724897265434, 0.9350200891494751, -0.0907306894659996, 0.17326633632183075, -0.1083851158618927, 0.3155238926410675, -0.3574461340904236, -0.2107354700565338, 0.0016845893114805222, -0.3220318853855133, -0.09675192832946777, -0.3123686611652374, 0.2202274054288864, -0.09119950234889984, 0.10521282255649567, 0.348150372505188, -0.10109871625900269, 0.006283754017204046, 0.28091469407081604, -0.23751704394817352, 0.07545111328363419, -0.2909186780452728, 0.3254478871822357, -0.03263990581035614, -0.023341884836554527, 0.011272327974438667, -0.32915574312210083, 0.21609550714492798, -0.11634360253810883, -0.03054104745388031, 0.23014789819717407, 0.3563668131828308, 0.03818972781300545, -0.5172199606895447, -0.17196549475193024, -0.02940496988594532, -0.400698184967041, 0.10887982696294785, 0.2677564322948456, -0.02377362921833992, -0.05483938381075859, -0.02324674464762211, -0.052517492324113846, 0.36815646290779114, -0.4295702874660492, 0.42247268557548523, 0.13594020903110504, 0.326907217502594, -0.1241004467010498, -0.10525789111852646, -0.2214033156633377, -0.003900032490491867, 0.11968569457530975, -0.0014027073048055172, 0.34438562393188477, 0.25091126561164856, 0.28105679154396057, 0.2995423674583435, 0.188411146402359, 0.027672922238707542, -0.24349702894687653, -0.13380998373031616, -0.11604994535446167, -0.22431600093841553, 0.15672127902507782, -0.049588002264499664, -0.07142730802297592, 0.3580034077167511, 0.027973918244242668, 0.1740105301141739, -0.12796184420585632, -0.393614798784256, -0.039675693958997726, 0.13079960644245148, -0.03607577830553055, -0.36673489212989807, -0.5276148319244385, 0.5070399641990662, 0.3348722457885742, -0.07448426634073257, -0.04465587064623833, -0.5129685997962952, 0.2515014111995697, 0.07751105725765228, 0.3962841033935547, -0.3094939589500427, -0.08446905016899109, 0.3720022737979889, 0.39758944511413574, 0.014204096049070358, 0.37011969089508057, -0.09037438035011292, 0.23213450610637665, -0.4047602713108063, 0.0062943752855062485, -0.4080978035926819, 0.05101805180311203, 0.028384001925587654, 0.1538100689649582, 0.02185361087322235, -0.0353468582034111, -0.37892112135887146, -0.014547876082360744, 0.039911240339279175, 0.018219951540231705, 0.24844969809055328, -0.084349624812603, -0.24912720918655396, 0.4599717855453491, -0.07980554550886154, -0.3619098663330078, -0.2374763786792755, 0.09774817526340485, -0.11729319393634796, -0.04153062030673027, -0.20612399280071259, 0.3542173504829407, -0.3249392807483673, -0.28552430868148804, 0.2371918112039566, 0.3699089288711548, -0.06549955159425735, 0.19236312806606293, 0.2183624804019928, 0.39473241567611694, -0.16058382391929626, -0.016949420794844627, -0.009322145022451878, -0.08902200311422348, 0.07580979913473129, 0.14145825803279877, 0.20846876502037048, -0.20628346502780914, 0.09006437659263611, -0.19919686019420624, -0.1165260598063469, 0.10757501423358917, -0.0351082943379879, 0.14670470356941223, -0.2547867000102997, -0.024958938360214233, -0.09552204608917236, -0.16181620955467224, 0.04235256090760231, -0.007532699964940548, 0.09326188266277313, 0.105762779712677, -0.34312471747398376, 0.4284796118736267, 0.006953676231205463, -0.3005129396915436, 0.11380188167095184, 0.05961598828434944, -0.5135788321495056, 0.12735798954963684, -0.5503470301628113, 0.37197279930114746, -0.5964298248291016, -0.4017323851585388, 0.05939421057701111, -0.24911192059516907, -0.11355888843536377, -0.10483963787555695, -0.16076858341693878, -0.09948474168777466, 0.15994958579540253, 0.18833254277706146, -0.37264543771743774, -0.22700142860412598, 0.06040385365486145, -0.10425124317407608, -0.1806885153055191, -0.3774545192718506, 0.3476201295852661, 0.27994289994239807, 0.16046027839183807, -0.25613975524902344, -0.08822042495012283, -0.04253517836332321, -0.09380783140659332, -0.1849508136510849, 0.1587626338005066, -0.3795512318611145, 0.2069140523672104, 0.22203686833381653, 0.19463403522968292, 0.033503904938697815, -0.37138888239860535, 0.04307112842798233, 0.02048245444893837, -0.21693891286849976, -0.0559140220284462, -0.3576430082321167, 0.08216507732868195, -0.12549784779548645, 0.19870378077030182, -0.0194926206022501, -0.10828487575054169, 0.14359353482723236, 0.08485154062509537, 0.19190345704555511, -0.04315119981765747, -0.20226576924324036, 0.12970095872879028, 0.005148437339812517, -0.1355462521314621, 0.15561722218990326, 0.1608332097530365, -0.19775204360485077, 0.0765029564499855, 0.2553980350494385, 0.12170442938804626, 0.3680277168750763, -0.16903604567050934, -0.09052065014839172, 0.4115777909755707, 0.28031644225120544, -0.10316737741231918, 0.07599180191755295, -0.01654786989092827, 0.12222981452941895, -0.45145344734191895, 0.08322817832231522, -0.0343765914440155, 0.22406582534313202, 0.264210045337677, 0.09333956241607666, -0.1033979207277298, 0.11164897680282593, -0.12177357077598572, -0.09137671440839767, -0.05105770006775856, 0.13839209079742432, -0.12804493308067322, 0.09318066388368607, -0.0802336260676384, 0.09631004929542542, 0.13862235844135284, 0.04887835681438446, 0.15454213321208954, 0.005887243431061506, 0.06399542093276978, 0.29414844512939453, 0.020629698410630226, -0.29137903451919556, 0.20103919506072998, 0.05575746297836304, -0.045090336352586746, -0.2639616131782532, -0.028483767062425613, 0.3001398742198944, -0.07843436300754547, -0.012257981114089489, 0.24535484611988068, -0.23604664206504822, -0.1162026971578598, 0.3111065924167633, 0.37033313512802124, -0.0400252565741539, -0.25489065051078796, -0.3630104660987854, -0.162358358502388, 0.29661664366722107, 0.26927509903907776, -0.007225357927381992, -0.4676339030265808, -0.4423659145832062, -0.06259150058031082, 0.07804839313030243, 0.11812113225460052, 0.10933361202478409, -0.3429897427558899, -0.2935720980167389, 0.009734030812978745, 0.2829935848712921, -0.40156885981559753, -0.09970352798700333, 0.22959089279174805, -0.36797598004341125, -0.03523566573858261, 0.24829281866550446, -0.35333505272865295, 0.038167331367731094, 0.12684552371501923, -0.15506060421466827, 0.16995590925216675, 0.34555190801620483, 0.3691662847995758, 0.024203795939683914, -0.3768292963504791, 0.016385726630687714, 0.20931397378444672, -0.05224275961518288, -0.27513474225997925, -0.3036065399646759, 0.32582372426986694, -0.184648796916008, -0.19212520122528076, 0.31186339259147644, -0.18977686762809753, 0.3932366669178009, -0.0013341243611648679, 0.05659458413720131, -0.2988426089286804, 0.24913249909877777, 0.01484740898013115, -0.024236483499407768, -0.21393896639347076, 0.11683795601129532, -0.3081091344356537, 0.16728097200393677, 0.19794826209545135, 0.08633600920438766, -0.1653493493795395, -0.41351592540740967, -0.02309280075132847, 0.00701130973175168, 0.1741013377904892, 0.20846113562583923, -0.3273891806602478, -0.04594750329852104, -0.1653202623128891, 0.14833571016788483, -0.4823492765426636, 0.8377508521080017, -0.12691816687583923, -0.11613687127828598, -0.1915721297264099, 0.23036730289459229, -0.1132289469242096, -0.13366490602493286, 0.20685377717018127, -0.041865959763526917, -0.10081741213798523, 0.18336856365203857, -0.035001471638679504, 0.28135403990745544, -0.3151741623878479, -0.1295415610074997, -0.19223035871982574, 0.04756385460495949, 0.048961520195007324, -0.19553567469120026, -0.4770553708076477, 0.10467943549156189, 0.04623209312558174, -0.11143642663955688, 0.2826618254184723, -0.0039747548289597034, -0.029262864962220192, 0.16666534543037415, -0.03721955046057701, 0.07114709913730621, -0.15027649700641632, 0.08570226281881332, 0.27420589327812195, 0.05774051323533058, -0.25488242506980896, -0.23701359331607819, -0.17257139086723328, -0.10558010637760162, 0.20440714061260223, 0.031537529081106186, 0.09542347490787506, -0.2736124098300934, -0.1362638771533966, 0.05231645703315735, -0.07720797508955002, -0.1510719507932663, -0.2931849956512451, -0.1988631784915924, 0.5709707140922546, 0.36333128809928894, -0.14369750022888184, 0.19897966086864471, 0.033012133091688156, -0.09691280126571655, 0.14170341193675995, -0.0045857192017138, -0.10942206531763077, -0.17347855865955353, -0.07309559732675552, -0.01076445635408163, -0.1481735110282898, 0.12401967495679855, 0.19813521206378937, -0.10778135061264038, -0.41483739018440247, 0.33429020643234253, 0.03713744506239891, 0.38561001420021057, -0.02815486490726471, 0.1969405859708786, 0.06265498697757721, -0.46083661913871765, 0.33812880516052246, -0.03582913428544998, -0.42534640431404114, 0.036741241812705994, 0.23733043670654297, -0.3811945617198944, -0.3009538948535919, -0.12596076726913452, 0.3787238299846649, 0.0015514662954956293, 0.32365041971206665, -0.3052874505519867, -0.34930554032325745, -0.23366177082061768, 0.4469276964664459, 0.2715786099433899, -0.026190942153334618, -0.09199713170528412, 0.09567345678806305, -0.30587366223335266, 0.38002026081085205, 0.17770050466060638, 0.12790846824645996, -0.2119663953781128, 0.6116021275520325, -0.4108021557331085, 0.11849707365036011, 0.18859881162643433, 0.32837116718292236, -0.42765283584594727, 0.16158616542816162, 0.04939110204577446, -0.33871594071388245, 0.07343544811010361, 0.07909957319498062, -0.3035378158092499, -0.029671363532543182, -0.1958792805671692, 0.4280785620212555, -0.27170369029045105, -0.002846307121217251, 0.0792451798915863, -0.06727225333452225, -0.06395381689071655, -0.3384822607040405, 0.055602021515369415, 0.03438785672187805, -0.1607833057641983, -0.23386137187480927, 0.049604494124650955, 0.16763222217559814, -0.025970540940761566, -0.09029561281204224, -0.17242763936519623, -0.25219881534576416, 0.10631784051656723, 0.02881643921136856, 0.21467986702919006, -0.08415103703737259, -0.03098425455391407, -0.019283723086118698, 0.1961495280265808, 0.24066217243671417, 0.3490709960460663, 0.061147987842559814, -0.11092796176671982, -0.15351451933383942, -0.09906697273254395, 0.057357244193553925, 0.25992241501808167, -0.09106893837451935, -0.09723452478647232, 0.3068889379501343, 0.21015365421772003, 0.1974555253982544, -0.10661869496107101, -0.21118156611919403, 0.004212183877825737, 0.16275449097156525, -0.09429118782281876, -0.13693958520889282, -0.10803726315498352, -0.13935332000255585, -0.08837315440177917, 0.055512744933366776, 0.0881035327911377, 0.05622517690062523, 0.2096596509218216, -0.13275262713432312, -0.21291127800941467, -0.12192762643098831, 0.2819139063358307, -0.22980830073356628, -0.25449827313423157, 0.0379352942109108, 0.22754621505737305, 0.13879834115505219, -0.0458870455622673, 0.16969650983810425, -0.2708156108856201, 0.11482804268598557, 0.09487619996070862, 0.30628231167793274, -0.09499054402112961, -0.21325311064720154, -0.11525879800319672, -0.030450383201241493, 0.11947696655988693, 0.3044922947883606, -0.1651649922132492, -0.05469951406121254, -0.14276747405529022, -0.022013744339346886, 0.15787416696548462, 0.3394099473953247, -0.07770843803882599, -0.1453353464603424, -0.10365765541791916, 0.1959982067346573, 0.2844463288784027, 0.25129619240760803, -0.5046375393867493, 0.32563120126724243, -0.14284276962280273, 0.1809699535369873, 0.2416730374097824, -0.27762800455093384, -0.036788951605558395, 0.3071647584438324, -0.06725423783063889, 0.22107867896556854, 0.026234937831759453, 0.17821745574474335, -0.091932512819767, -0.12751521170139313, 0.019108077511191368, -0.04751947894692421, 0.11346182972192764, -0.7518686652183533, -0.2734222412109375, -0.07002045959234238, -0.02363395132124424, -0.11754177510738373, -0.05243571102619171, 0.7563405632972717, 0.04298940300941467, 0.12625575065612793, -0.012608674354851246, 0.03522682562470436, -0.009569701738655567, 0.0938723161816597, 0.16820913553237915, 0.20358797907829285, 0.1757715493440628, -0.08331362158060074, -0.1941964328289032, -0.2000236064195633, 0.0999690592288971, 0.044616129249334335, -0.16849978268146515, -0.02529640682041645, -0.3179991841316223, -0.11645044386386871, 0.022915419191122055, 0.0843803733587265, -0.031852349638938904, -0.07965099066495895, -0.14060959219932556, 0.10710623860359192, 0.38622644543647766, -0.1022789254784584, 0.25176867842674255, 0.16235516965389252, 0.006146855652332306, -0.10327811539173126, 0.0906229093670845, -0.34594985842704773, 0.1032426729798317, -0.19425471127033234, -0.1315610408782959, -0.09853985905647278, -0.01603347808122635, 0.022174609825015068, -0.14413399994373322, 0.137812077999115, 0.02363552711904049, 0.09437256306409836, 0.6331275105476379, -0.07568951696157455, -0.25550559163093567, 0.1434251368045807, 0.16788429021835327, -0.16016457974910736, -0.3909788727760315, -0.3704882264137268, -0.03786170110106468, -0.03496583178639412, -0.11299803107976913, 0.26240649819374084, -0.24384388327598572, -0.041818149387836456, -0.06816155463457108, -0.13595238327980042, 0.12062793225049973, 0.0921739712357521, -0.1577417552471161, -0.03679025545716286, 0.024391168728470802, -0.11962360143661499, 0.3296472132205963, 0.2065238654613495, 0.1025797575712204, -0.09238934516906738, 0.023465577512979507, -0.0026702762115746737, 0.10465572029352188, -0.18819840252399445, -0.3584051728248596, -0.07942000776529312, -0.18005837500095367, -0.050815023481845856, -0.010634084232151508, -0.16169023513793945, 0.10201837122440338, 0.06285030394792557, -0.15601417422294617, 0.08165968954563141, 0.16167691349983215, -0.08322028815746307, -0.03454280272126198, 0.016474293544888496, 0.08082114160060883, 0.017436200752854347, -0.07604838907718658, -0.050211746245622635, -0.6856617331504822, -0.26515254378318787, 0.2677968740463257, 0.021926388144493103, 0.13645969331264496, 0.10654188692569733, 0.2625000774860382, 0.4074679911136627, 0.16263213753700256, -0.0349823534488678, 0.045925699174404144, -0.21004222333431244, 0.1815095990896225, -0.13574382662773132, 0.11718999594449997, 0.17511871457099915, -0.055915720760822296, -0.17234331369400024, 0.006989916320890188, 0.03234375640749931, -0.047941721975803375, -0.12402210384607315, 0.03408731520175934, -0.10201812535524368, 0.08577875792980194, -0.16655735671520233, 0.14842627942562103, -0.06308956444263458, -0.13279294967651367, -0.20555071532726288, 0.05647330731153488, 0.4339131712913513, 0.0646497905254364, 0.15497317910194397, 0.06469134986400604, -0.005673037376254797, -0.15688197314739227, -0.3342158794403076, 0.14253944158554077, -0.20268821716308594, 0.13349781930446625, -0.02770768664777279, -0.0041137137450277805, -0.12294980883598328, 0.16259515285491943, -0.07661448419094086, 0.14313124120235443, 0.19318830966949463, 0.4226970374584198, -0.14148157835006714, -0.04273902252316475, 0.08903910964727402, -0.18728940188884735, 0.08592521399259567, -0.07916949689388275, 0.05401158705353737, 0.14060141146183014, 0.19047389924526215, -0.13330882787704468, -0.22316616773605347, -0.15332143008708954, 0.1940845400094986, -0.03084597922861576, 0.12844939529895782, -0.12928088009357452, -0.2105848789215088, -0.10308190435171127, 0.2631343901157379, -0.03955867886543274, -0.10053537786006927, -0.11501622200012207, -0.17117924988269806, -0.25096237659454346, 0.18517151474952698, -0.0571385882794857, 0.14783650636672974, -0.05964604765176773, -0.0016157809877768159, -0.9389976859092712, 0.21531862020492554, -0.025300120934844017, 0.03220295161008835, -0.27132752537727356, -0.09595698118209839, 0.14423485100269318, -0.16512933373451233, 0.016902942210435867, -0.060898616909980774, -0.03042186051607132, -0.10325239598751068, -0.19247542321681976, 0.009030397050082684, -0.1941596120595932, 0.10086961090564728, -0.2858015298843384, -0.21359673142433167, 0.13574281334877014, 0.21773526072502136, -0.0017808270640671253, 0.014489124529063702, 0.23503996431827545, -0.15789705514907837, 0.03622467815876007, -0.10902869701385498, 0.03676256909966469, -0.024761203676462173, -0.012467395514249802, 0.04605301842093468, 0.0024224596563726664, -0.10962061583995819, 0.08913146704435349, 0.09172354638576508, 0.35711371898651123, -0.009203565306961536, 0.12233565002679825, -0.02602723054587841, -0.12258032709360123, 0.029562348499894142, 0.14958664774894714, -0.07289409637451172, -0.1050923615694046, -0.13356100022792816, 0.14580824971199036, 0.005635528825223446, 0.14608687162399292, 0.14961302280426025, 0.2614519000053406, -0.3175344467163086, 0.06729696691036224, -0.053929418325424194, 0.19338996708393097, 0.059064239263534546, -0.07806148380041122, 0.16395564377307892, 0.026585757732391357, 0.028978079557418823, 0.090891532599926, -0.03943942114710808, -0.06477295607328415, -0.06094557046890259, 0.07718857377767563, 0.05809662118554115, -0.11779158562421799, 0.28963586688041687, 0.4805842936038971, 0.464977890253067, -0.1498170793056488, 0.22117532789707184, 0.23545177280902863, 0.045770399272441864, -0.15255798399448395, -0.30336833000183105, 0.11589860916137695, 0.13787713646888733, -0.013303743675351143, -0.01494117546826601, 0.02767680585384369, -0.011164122261106968, -0.1768248975276947, -0.1950712651014328, 0.08889318257570267, 0.12243689596652985, 0.09805137664079666, 0.04518197849392891, 0.03665239363908768, -0.037843137979507446, -0.1042996495962143, -0.14398516714572906, 0.10769359767436981, -0.008671180345118046, -0.13611815869808197, 0.09742753207683563, 0.11171336472034454, -0.3905278742313385, -0.1657891869544983, -0.2262153923511505, -0.10888095200061798, -0.10717761516571045, 0.09704931825399399, 0.0347793772816658, 0.06325501203536987, 0.05297859013080597, -0.13536909222602844, 0.0014922688715159893, -0.20524108409881592, -0.18634755909442902, -0.006391698028892279, 0.0720696821808815, -0.290498822927475, 0.35466882586479187, -0.20641693472862244, 0.08776970207691193, 0.0381099097430706, 0.03486144542694092, 0.0962541326880455, -0.2403002232313156, 0.009183369576931, -0.3287009000778198, -0.09087125957012177, 0.24292875826358795, 0.23712284862995148, -0.36175537109375, 0.010741413570940495, -0.0019031293923035264, 0.20400370657444, -0.06357170641422272, 0.1641654670238495, -0.3926282525062561, 0.16477437317371368, -0.05732071027159691, 0.3258393704891205, -0.10659433901309967, 0.15654276311397552, 0.07267261296510696, 0.018819332122802734, -0.06950130313634872, 0.3639671802520752, -0.25029173493385315, 0.2313101589679718, -0.13138779997825623, 0.03192327916622162, -0.15606145560741425, 0.18048541247844696, 0.08771999180316925, 0.10197629034519196, -0.46198105812072754, 0.24563269317150116, 0.10972099006175995, -0.2718510329723358, -0.09267470985651016, -0.04956270754337311, -0.48334646224975586, 0.20233918726444244, -0.013840250670909882, 0.4854719936847687, -0.09533420205116272, -0.01799713633954525, -0.17939552664756775, 0.18003609776496887, 0.07725728303194046, 0.07886036485433578, 0.000528995820786804, 0.3005538284778595, -0.04921213537454605, -0.047829385846853256, 0.0786459892988205, -0.2579759657382965, 0.17366823554039001, -0.015716854482889175, 0.07834520936012268, 0.14801985025405884, -0.2101871371269226, 0.06752222031354904, -0.015885235741734505, -0.041724793612957, 0.20846109092235565, -0.10193544626235962, 0.028673509135842323, 0.03234978765249252, 0.04568430408835411, 0.07188581675291061, 0.011841162107884884, -0.14327192306518555, 0.016043487936258316, -0.1740913987159729, 0.15474162995815277, 0.05514777451753616, 0.0823705717921257, -0.26515552401542664, 0.2148943990468979, -0.24454189836978912, -0.292118102312088, -0.04147254675626755, -0.00216864631511271, -0.14736169576644897, 0.24257034063339233, 0.2410537749528885, -0.2920469343662262, 0.18734504282474518, -0.12295287847518921, -0.17299111187458038, -0.04673708230257034, -0.1388891488313675, 0.1273435801267624, -0.012613493017852306, -0.2118808478116989, 0.07815021276473999, 0.03282987326383591, 0.34962788224220276, -0.04170473292469978, 0.03284437209367752, 0.3469887673854828, -0.15021179616451263, 0.2982153296470642, -0.1382017880678177, -0.25341731309890747, -0.023267196491360664, 0.28624191880226135, -0.15519216656684875, -0.02141195349395275, -0.26943832635879517, 0.14849796891212463, -0.12096569687128067, 0.2438150942325592, -0.1827940046787262, -0.09055832773447037, -0.23027406632900238, 0.1311521977186203, 0.059450164437294006, -0.050269678235054016, -0.06195740029215813, -0.13631300628185272, -0.3163468837738037, 0.2920754551887512, -0.027723662555217743, 0.3782246708869934, -0.014375438913702965, 0.7591314315795898, -0.39469245076179504, -0.06780357658863068, 0.09001816064119339, 0.27824723720550537, -0.19752487540245056, -0.06683897972106934, 0.2166040688753128, -0.14752043783664703, -0.001527440850622952, 0.1502840518951416, -0.43324461579322815, 0.07966218888759613, -0.32758092880249023, 0.15201455354690552, -0.02199646458029747, 0.027359412983059883, 0.011528541333973408, -0.203632190823555, 0.1443617045879364, -0.004622885026037693, 0.12752345204353333, 0.19332584738731384, -0.0543166846036911, 0.27395445108413696, -0.3034437894821167, -0.016215644776821136, 0.0006792947533540428, 0.010817124508321285, 0.0015409638872370124, -0.11227678507566452, -0.09519079327583313, 0.07354414463043213, 0.04014458507299423, 0.22047269344329834, -0.3330915868282318, 0.007657394278794527, -0.1207667887210846, -0.06239980086684227, -0.1656966507434845, 0.02475290559232235, -0.176012322306633, -0.14354746043682098, 0.10262345522642136, 0.21566501259803772, -0.021530184894800186, 0.32321667671203613, -0.19673720002174377, 0.1630629450082779, -0.2989843189716339, -0.16850490868091583, -0.008083191700279713, -0.0646490827202797, -0.06600134819746017, 0.08828907459974289, 0.36615273356437683, -0.21754710376262665, 0.30284473299980164, -0.10522186756134033, 0.04303561523556709, 0.010318653658032417, 0.08809958398342133, 0.15140078961849213, 0.07118899375200272, 0.05114670470356941, -0.04865235462784767, 0.06721764802932739, -0.15535598993301392, 0.11401698738336563, 0.147201806306839, 0.2525641620159149, -0.15445171296596527, -0.06664245575666428, 0.05179568752646446, 0.06167709827423096, 0.04944194480776787, 0.0277039036154747, 0.10703929513692856, -0.10684897005558014, -0.7897382974624634, -0.06251902133226395, 0.37716108560562134, 0.00978400930762291, 0.24360805749893188, -1.0921812057495117, -0.2068595141172409, -0.3357076942920685, 0.6539297103881836, -0.6937527656555176, -0.6781045794487, -0.8056789040565491, -0.10633254051208496, -0.6672351956367493, 0.6171151995658875, -0.6228988766670227, -0.34160420298576355, -0.055624138563871384, 0.07817568629980087, 0.448238730430603, 0.23288828134536743, -0.09812834113836288, -0.27482831478118896, -0.07493903487920761, 0.026619378477334976, -0.21380513906478882, 0.12075120210647583, 0.008503932505846024, -0.022913524881005287, -0.025430288165807724, 0.020291408523917198, -0.03268606960773468, 0.1732785403728485, 0.17585551738739014, 0.04186490550637245, -0.5502452850341797, -0.19550584256649017, 0.11256911605596542, -0.06586785614490509, -0.12219518423080444, -0.011539536528289318, -0.3431245684623718, 0.2714020013809204, 0.07924215495586395, 0.3119961619377136, 0.0787450522184372, -0.24079348146915436, 0.13864676654338837, 0.21843165159225464, -0.3082856237888336, -0.014327597804367542, 0.21458254754543304, -0.15225644409656525, 0.39187091588974, 0.02880266308784485, -0.07811468094587326, -0.007285549305379391, 0.002694070339202881, -0.2937440574169159, -0.2589033246040344, -0.1267411708831787, 0.3260481059551239, 0.16015352308750153, 0.1337304413318634, 0.17673687636852264, 0.1982153058052063, -0.359314888715744, -0.511282742023468, -0.002427615225315094, 0.09697842597961426, -0.8062454462051392, 0.5899502038955688, -0.4894452691078186, 0.21324098110198975, 0.20250658690929413, 0.5896848440170288, 0.15532295405864716, -0.44649168848991394, 0.15149261057376862, -0.12855622172355652, 0.676173210144043, 0.12151534110307693, -0.3658888041973114, -0.6243665218353271, 0.14118556678295135, 0.24235321581363678, -0.19785667955875397, 0.5375633239746094, -0.04699698090553284, 0.0743110328912735, -0.33931052684783936, 0.40546849370002747, -0.13466788828372955, -0.6498743295669556, -0.16009287536144257, -0.4009702801704407, -0.36238038539886475, -0.26409122347831726, -0.25772181153297424, 0.27981048822402954, 0.0313090905547142, -0.07124000787734985, 0.09913164377212524, -0.18867582082748413, 0.29875269532203674, 0.2388395369052887, -0.19800883531570435, -0.15988542139530182, -0.28044453263282776, -0.05754765868186951, 0.19286088645458221, 0.13855195045471191, 0.248312845826149, -0.2777218520641327, 0.07530631124973297, -0.19886092841625214, 0.01721108891069889, 0.38860785961151123, -0.24119232594966888, -0.15353329479694366, 0.12388806790113449, 0.000583228946197778, -0.1469920128583908, 0.32282552123069763, -0.10208632051944733, -0.048142194747924805, -0.10011351108551025, 0.03883296251296997, 0.011304765939712524, -0.3949928283691406, 0.022892337292432785, 0.8280468583106995, -0.17097707092761993, 0.12612523138523102, 0.12507882714271545, -0.0885372906923294, 0.020886173471808434, 0.31726157665252686, -0.3041900098323822, -0.029841121286153793, -0.4612981677055359, 0.2153690755367279, 0.4397430121898651, 0.15533849596977234, 0.16458280384540558, -0.009510648436844349, -0.06938335299491882, -0.17401766777038574, -0.21286940574645996, -0.06244611740112305, 0.24861720204353333, -0.27868443727493286, 0.13846193253993988, 0.13787472248077393, -0.22909162938594818, -0.22047851979732513, -0.03245565667748451, 0.21383997797966003, -0.10081406682729721, 0.2793373763561249, -0.427121102809906, 0.17318052053451538, 0.12317006289958954, 0.23707541823387146, 0.08330216258764267, -0.37154659628868103, 0.32145461440086365, -0.14970465004444122, 0.02569648250937462, 0.12663359940052032, 0.26499196887016296, 0.2352505326271057, 0.023588091135025024, 0.23964497447013855, 0.3189029097557068, 0.20426464080810547, -0.2553904950618744, -0.14680807292461395, 0.00411800853908062, 0.03895226866006851, 0.02680857852101326, -0.043153129518032074, 0.08332813531160355, -0.08159492909908295, 0.286668598651886, 0.23088985681533813, -0.22392383217811584, 0.1471419781446457, 0.14260055124759674, 0.1445254385471344, -0.14412441849708557, 0.08630284667015076, 0.24767526984214783, 0.5010184645652771, -0.3620642125606537, -0.35951918363571167, -0.16218364238739014, -0.0709807276725769, 0.046131350100040436, 0.20425906777381897, -0.1887819766998291, 0.01115507259964943, 0.21237404644489288, 0.08636593818664551, -0.043885692954063416, -0.21442079544067383, -0.09558113664388657, -0.10904102772474289, 0.1657567024230957, 0.04137531295418739, -0.35301586985588074, -0.3576098680496216, 0.0742863342165947, 0.05948677659034729, -0.33144816756248474, 0.3154575824737549, -0.17856034636497498, -0.07455594092607498, -0.13107937574386597, -0.02098679728806019, 0.3266279101371765, -0.21414418518543243, -0.13206474483013153, -0.13164326548576355, 0.1078144982457161, -0.0757889375090599, -0.09966614842414856, 0.22531753778457642, -0.12870080769062042, -0.0005588516360148787, -0.05953720211982727, -0.08769985288381577, 0.16741357743740082, 0.10234562307596207, -0.1318485289812088, -0.18772301077842712, 0.5107337236404419, 0.46118924021720886, 0.0058471024967730045, 0.06404855847358704, -0.013478068634867668, 0.07428605109453201, -0.03455428034067154, 0.0631815567612648, -0.34633776545524597, -0.04252633824944496, -0.02339375950396061, 0.16861280798912048, -0.16776646673679352, 0.25880005955696106, -0.14250662922859192, 0.3102138340473175, -0.09408871084451675, 0.011666467413306236, 0.16484761238098145, -0.020723197609186172, 0.17266187071800232, -0.0521523617208004, -0.1995265632867813, 0.026634877547621727, -0.22094295918941498, 0.11034460365772247, -0.25597083568573, 0.16137799620628357, 0.08222995698451996, -0.1568232774734497, 0.21043863892555237, 0.10246124863624573, -0.19756987690925598, 0.0715651884675026, -0.22178372740745544, -0.27288439869880676, -0.11398275196552277, -0.024041714146733284, -0.05968106538057327, -0.05284876376390457, -0.08240549266338348, -0.06743291020393372, 0.09522876143455505, -0.02435847371816635, 0.1153763011097908, 0.028860121965408325, 0.13721027970314026, -0.11478864401578903, 0.08628460764884949, -0.22510714828968048, -0.150729700922966, 0.030595336109399796, -0.0432477667927742, 0.10785713791847229, 0.025937261059880257, 0.006103208754211664, -0.43492189049720764, -0.1367729753255844, 0.23445002734661102, 0.005330992862582207, -0.09029515087604523, 0.07821532338857651, -0.2796420454978943, 0.0019361469894647598, 0.2697129249572754, -0.4230843186378479, 0.08073355257511139, 0.06968408077955246, 0.5130887031555176, -0.033884234726428986, 0.0770120620727539, -0.12383203953504562, -0.07005172967910767, -0.10793844610452652, 0.7644857168197632, -0.21052733063697815, 0.0681609958410263, 0.0893322229385376, -0.0637635886669159, -0.12925754487514496, 0.2720528542995453, 0.09904709458351135, 0.11757020652294159, 0.10229788720607758, -0.17966562509536743, -0.21375833451747894, -0.29056257009506226, 0.15851932764053345, 0.05954695865511894, -0.4660662114620209, 0.07353173941373825, 0.06964321434497833, 0.0715528056025505, -0.21730686724185944, 0.39075303077697754, -0.11974254250526428, -0.12427613884210587, -0.0038913628086447716, -0.16299515962600708, 0.1294606775045395, -0.08673331886529922, -0.08225857466459274, 0.1146736815571785, -0.19985517859458923, -0.08478057384490967, -0.15999312698841095, 0.25050920248031616, 0.3302247226238251, 0.1691129207611084, -0.15690720081329346, -0.04594185948371887, 0.0029599121771752834, 0.09380938112735748, -0.06184064969420433, 0.0461873933672905, 0.034574903547763824, 0.08814014494419098, -0.15845969319343567, 0.13067631423473358, 0.06628268957138062, 0.05498967692255974, -0.2584829330444336, 0.17277011275291443, -0.028865937143564224, 0.04486805573105812, -0.02940971776843071, -0.2958495616912842, 0.08913004398345947, -0.018117563799023628, 0.07860197126865387, 0.2824617922306061, -0.016946248710155487, -0.07661203294992447, -0.19916576147079468, -0.32372966408729553, -0.08028066158294678, 0.13414524495601654, 0.2232838124036789, 0.019635969772934914, -0.00042397272773087025, 0.07360223680734634, -0.13965879380702972, 0.013389039784669876, 0.4367634356021881, 0.10078957676887512, -0.024454526603221893, 0.010237941518425941, 0.13539814949035645, 0.09704755991697311, 0.028133219107985497, 0.04603588581085205, -0.11032003164291382, 0.21907515823841095, -0.11385960876941681, 0.21035608649253845, -0.00813616719096899, 0.009565169923007488, -0.27820026874542236, -0.051558222621679306, 0.12151931971311569, -0.07905320078134537, -0.10282425582408905, 0.34357014298439026, 0.45044413208961487, 0.26244547963142395, 0.1357840895652771, 0.01576654240489006, 0.049166835844516754, -0.061766617000103, 0.047864533960819244, 0.29931753873825073, 0.13073782622814178, 0.1032906174659729, -0.07260918617248535, -0.05750159174203873, 0.06032736599445343, 0.18025881052017212, 0.008629119023680687, -0.004726555664092302, -0.03740392625331879, 0.03802649676799774, -0.13954497873783112, 0.03954165428876877, 0.21858105063438416, -0.11821284890174866, -0.24569423496723175, -0.10591316968202591, 0.12969709932804108, 0.024321826174855232, 0.0878756120800972, 0.1330905258655548, -0.2867334485054016, -0.06951060891151428, -0.2584307789802551, -0.03062903881072998, 0.17535533010959625, -0.1823354959487915, -0.010404988192021847, 0.23571424186229706, -0.15091565251350403, 0.11570262163877487, 0.051709990948438644, 0.2101316899061203, 0.1771322637796402, -0.098173126578331, 0.21243040263652802, 0.15652674436569214, 0.06374070048332214, 0.2543945908546448, -0.13524751365184784, 0.01777079701423645, -0.09701424092054367, -0.029537128284573555, 0.05543733388185501, 0.24300359189510345, 0.0094761336222291, -0.20816786587238312, -0.15763169527053833, 0.20031766593456268, 0.07705102860927582, -0.03747282922267914, -0.04558320343494415, -0.14060357213020325, -0.14885829389095306, -0.07416890561580658, -0.10591394454240799, -0.01715286262333393, -0.1427953988313675, -0.21758882701396942, 0.13491305708885193, -0.15711437165737152, -0.1519632488489151, 0.15112663805484772, -0.009902042336761951, 0.16652114689350128, 0.22773286700248718, 0.027263078838586807, 0.14632607996463776, 0.4369637668132782, -0.21570204198360443, 0.17687122523784637, -0.17324136197566986, -0.08954881131649017, 0.03606874868273735, 0.20094801485538483, -0.11347664147615433, -0.08104429394006729, 0.14733734726905823, 0.35801663994789124, 0.3459348976612091, -0.09232990443706512, 0.019426599144935608, 0.032609231770038605, 0.053044866770505905, 0.2655307650566101, -0.14667220413684845, -0.21530404686927795, 0.3925040364265442, 0.07678248733282089, -0.0793209820985794, -0.09763377904891968, -0.018738916143774986, -0.2747519314289093, -0.12827034294605255, 0.162523552775383, -0.060015879571437836, -0.7706579566001892, -0.004496145993471146, -0.09889798611402512, -0.1835547685623169, 0.16431276500225067, 0.23542660474777222, 0.12014620751142502, 0.03754539415240288, -0.21771836280822754, -0.08991466462612152, 0.11911078542470932, 0.08568966388702393, 0.12132580578327179, -0.10072560608386993, -0.07445184141397476, 0.2923595607280731, -0.06527913361787796, -0.0936492308974266, -0.087365061044693, 0.24139834940433502, -0.26209643483161926, -0.025715062394738197, 0.21578140556812286, 0.10444877296686172, -0.13454313576221466, -0.21702264249324799, 0.014624165371060371, 0.06857984513044357, -0.027207056060433388, 0.039934687316417694, -0.2658742666244507, -0.009249551221728325, 0.06065098196268082, -0.1407681107521057, -0.18067221343517303, -0.020337829366326332, -0.2716287076473236, 0.22207845747470856, 0.19987283647060394, -0.457051157951355, 0.2585713565349579, -0.0035060911905020475, 0.3525867760181427, 0.03751135244965553, 0.030967727303504944, 0.028896473348140717, -0.02291252836585045, -0.1242142915725708, 0.5308920741081238, -0.043185628950595856, 0.11849285662174225, -0.0808914452791214, -0.2501761317253113, -0.2263648509979248, 0.2372915893793106, 0.09952350705862045, 0.08231703191995621, 0.10485202074050903, -0.06309857219457626, -0.06399190425872803, -0.2358018308877945, 0.06526090204715729, 0.18196803331375122, -0.4357619881629944, 0.04916979745030403, 0.07780752331018448, 0.05258336290717125, -0.009064172394573689, 0.1642228215932846, -0.31503620743751526, -0.10857706516981125, 0.05124086141586304, -0.0720851868391037, 0.0872286856174469, -0.11729871481657028, -0.004257096443325281, 0.0180421844124794, 0.05267832800745964, -0.06386394053697586, -0.12265951931476593, 0.231454536318779, -0.15792334079742432, -0.05902688577771187, -0.07375092804431915, 0.11182592809200287, 0.07295643538236618, -0.10116679966449738, -0.04751629754900932, 0.03283679857850075, -0.24938011169433594, -0.028650794178247452, -0.09449954330921173, 0.014548351988196373, -0.11075723171234131, -0.08132928609848022, 0.2609947919845581, 0.12099071592092514, 0.056347109377384186, -0.06728414446115494, -0.058695968240499496, 0.12953290343284607, -0.07195908576250076, 0.30074724555015564, -0.16038043797016144, -0.1778595745563507, 0.002477021887898445, 0.10252629965543747, -0.016143374145030975, -0.04617339372634888, 0.06378593295812607, -0.13991679251194, -0.29224467277526855, 0.12484565377235413, 0.1620999127626419, -0.2125132977962494, 0.09379296004772186, -0.1545943021774292, -0.00531481858342886, 0.2141047716140747, 0.15397299826145172, -0.02623051591217518, 0.0031690942123532295, -0.030889591202139854, 0.14314374327659607, -0.04461804777383804, 0.1337256282567978, 0.37888050079345703, -0.004922383464872837, 0.005845107603818178, 0.044470589607954025, -0.043105412274599075, -0.21695737540721893, -0.11129945516586304, 0.0705452635884285, -0.14395098388195038, 0.05593891441822052, -0.05672334507107735, 0.06383980065584183, 0.0734686404466629, 0.11366375535726547, -0.078366719186306, -0.19047127664089203, 0.0444999560713768, -0.14282384514808655, 0.39153560996055603, 0.12493787705898285, 0.1047365665435791, 0.07809179276227951, -0.1630832403898239, -0.08875161409378052, 0.27257823944091797, -0.15343713760375977, 0.10246193408966064, -0.2733873128890991, 0.12950865924358368, 0.1278063803911209, 0.25751006603240967, -0.19214293360710144, 0.049701180309057236, -0.22702237963676453, 0.14253553748130798, 0.07698730379343033, -0.1363142877817154, 0.11198444664478302, 0.0533684566617012, -0.16123788058757782, 0.20982950925827026, -0.10925968736410141, 0.11061882972717285, 0.012999200262129307, -0.038615912199020386, -0.16107290983200073, -0.025720013305544853, 0.01797543838620186, 0.06259192526340485, 0.15048418939113617, -0.11229782551527023, -0.05131446570158005, -0.19201108813285828, 0.12210090458393097, -0.032442424446344376, -0.014134968630969524, -0.17467552423477173, -0.10637817531824112, -0.11723048239946365, -0.08280463516712189, 0.04413357004523277, -0.1607026755809784, 0.00651252456009388, -0.16608019173145294, -0.004879364278167486, -0.00305594177916646, 0.09936046600341797, -0.038049835711717606, -0.028684182092547417, -0.06922069191932678, 0.08165540546178818, 0.053008560091257095, 0.25461721420288086, 0.1791190654039383, -0.2524787485599518, -0.24022595584392548, -0.0729101374745369, -0.10683441162109375, -0.015842299908399582, -0.24762339890003204, 0.15711963176727295, -0.11350883543491364, -0.024379076436161995, 0.08223079144954681, -0.01834331452846527, 0.2637837827205658, 0.43443605303764343, 0.09283240884542465, -0.18124379217624664, 0.18461036682128906, 0.054697185754776, -0.08444144576787949, -0.016494309529662132, 0.009926344268023968, -0.3150036036968231, -0.08819710463285446, 0.26511314511299133, 0.03813942149281502, 0.04651390761137009, -0.11379361152648926, 0.22638805210590363, -0.20196467638015747, 0.1715596467256546, -0.1709640473127365, -0.3890776038169861, 0.2694498300552368, 0.05762283131480217, 0.1181832030415535, -0.46346455812454224, -0.158402219414711, -0.2085379958152771, -0.14039508998394012, -0.04849670082330704, 0.41985270380973816, -0.8491588830947876, -0.11625561118125916, -0.02850404381752014, -0.24112576246261597, 0.23057091236114502, 0.21188868582248688, -0.07313750684261322, -0.11998436599969864, 0.165872260928154, 0.035272859036922455, 0.15861816704273224, -0.24056656658649445, 0.4395845830440521, -0.06867604702711105, -0.18465523421764374, 0.40090250968933105, -0.10431185364723206, -0.013630492612719536, -0.23145447671413422, 0.1072157695889473, -0.041688352823257446, 0.07921527326107025, 0.10414260625839233, 0.04292469844222069, 0.09175395220518112, -0.09972839057445526, -0.15272410213947296, -0.001625411561690271, 0.15318405628204346, 0.007052208762615919, 0.2034946084022522, 0.027842700481414795, 0.2886040508747101, 0.09843368828296661, 0.004044517874717712, -0.054662350565195084, 0.06719636917114258, 0.22782811522483826, 0.12681126594543457, -0.18139496445655823, 0.07250002026557922, 0.04779648780822754, -0.11981113255023956, -0.052255693823099136, 0.17702633142471313, 0.08473615348339081, -0.1754104197025299, 0.09497391432523727, 0.3162080943584442, 0.05500630661845207, 0.11744134873151779, 0.11589573323726654, -0.1117723286151886, -0.1167922392487526, 0.000459271454019472, 0.03364933654665947, 0.191703662276268, 0.09879521280527115, 0.06998760253190994, -0.21691805124282837, -0.04976821318268776, -0.04895830154418945, -0.004549518693238497, 0.002293006982654333, 0.09322500973939896, 0.291698157787323, -0.08960144221782684, -0.15499961376190186, 0.22078178822994232, 0.1765981763601303, -0.07755956053733826, -0.16319146752357483, -0.06035270541906357, 0.136954203248024, 0.09374170750379562, -0.018732262775301933, 0.018343130126595497, 0.10713721066713333, -0.24064218997955322, 0.19496390223503113, -0.1272640973329544, -0.07729923725128174, 0.21895509958267212, -0.020634261891245842, -0.0403510183095932, -0.13074687123298645, 0.24739618599414825, 0.017987867817282677, 0.015728546306490898, -0.11270342767238617, 0.02891777642071247, -0.03572820872068405, -0.061480145901441574, 0.09078487753868103, 0.25134146213531494, 0.2842966914176941, 0.03371720761060715, 0.007402786985039711, -0.12471554428339005, 0.05951932817697525, -0.017802776768803596, -0.1875268667936325, -0.01998022384941578, -0.12796767055988312, -0.005858063232153654, -0.2381718009710312, -0.10276579111814499, 0.2643135190010071, -0.11542823910713196, -0.040691912174224854, 0.0024354439228773117, -0.17946062982082367, -0.21441364288330078, -0.016483785584568977, -0.17884448170661926, 0.14614710211753845, -0.08190742135047913, -0.2865622341632843, -0.08855505287647247, 0.2806941270828247, -0.11074775457382202, -0.21229086816310883, -0.15629403293132782, -0.050341032445430756, 0.2588319480419159, 0.0487213209271431, 0.1417674869298935, -0.06833968311548233, 0.2141745388507843, -0.1125713586807251, 0.002694775117561221, -0.026999596506357193, 0.006872395984828472, 0.2227681279182434, -0.04801192879676819, -0.08972358703613281, 0.19031237065792084, -0.13281390070915222, -0.18247641623020172, -0.08811315149068832, -0.13701879978179932, -0.019945982843637466, -0.1431911438703537, 0.09913557022809982, -0.11413303017616272, -0.1880112588405609, 0.01412571407854557, -0.03159400448203087, -0.039706017822027206, -0.11100892722606659, 0.10645721107721329, -0.1046220138669014, -0.09839556366205215, 0.07471998780965805, -0.09383375197649002, 0.020532121881842613, 0.08068066835403442, 0.011938602663576603, 0.021256551146507263, 0.12117605656385422, 0.23408393561840057, 0.15250670909881592, 0.19961406290531158, 0.17290519177913666, 0.13762523233890533, 0.1833488792181015, 0.2514382600784302, -0.08496642112731934, -0.028561940416693687, 0.12689253687858582, -0.07265369594097137, 0.05661073327064514, 0.14455346763134003, 0.14529341459274292, 0.11298792064189911, -0.175365149974823, 0.2776832580566406, -0.026638993993401527, -0.21643155813217163, -0.14996115863323212, -0.09560701996088028, 0.30716294050216675, -0.12990900874137878, 0.0601472370326519, 0.19583900272846222, -0.1618955433368683, -0.22321651875972748, -0.07098731398582458, 0.0023955402430146933, -0.20295090973377228, -0.19725261628627777, -0.14541198313236237, 0.11167705059051514, 0.007773926015943289, 0.11220180988311768, 0.01922653429210186, -0.12451085448265076, -0.010849851183593273, 0.046579256653785706, 0.15763942897319794, -0.030931266024708748, 0.02727959305047989, 0.056500788778066635, -0.10970098525285721, 0.1144302561879158, 0.06775514036417007, 0.06681665778160095, 0.05554499104619026, 0.1413942575454712, 0.26539546251296997, 0.13945810496807098, -0.00031365593895316124, -0.0857587680220604, -0.13100868463516235, 0.24727997183799744, -0.21798545122146606, 0.09241767972707748, 0.15430887043476105, 0.01961137168109417, -0.06522297114133835, 0.033716022968292236, 0.7788044810295105, -0.7659633755683899, -0.03939693793654442, -0.06908590346574783, 0.33960282802581787, 0.28428372740745544, 0.2255275398492813, -0.13142265379428864, -0.18601864576339722, 0.47030943632125854, 0.24005573987960815, -0.12243280559778214, -0.5460235476493835, -0.17889182269573212, -0.3074369430541992, 0.06328543275594711, 0.548634946346283, 0.1643979251384735, -0.9164185523986816, 0.5434964299201965, 0.13111020624637604, 0.0339687205851078, 0.07936547696590424, 0.27196204662323, -0.3064289391040802, -0.7215909361839294, -0.31270137429237366, -0.6579185128211975, -0.18654583394527435, 0.08740703761577606, 0.33620545268058777, 0.30376529693603516, 0.016948526725172997, 0.3215785622596741, -0.044500935822725296, -0.11421617865562439, -0.045950502157211304, 0.06397954374551773, 0.24757222831249237, -0.9099083542823792, 0.8699131608009338, -0.30935215950012207, 0.15056777000427246, 0.1153620108962059, -0.29028698801994324, 0.2060522735118866, 0.08261283487081528, 0.06089361011981964, -0.6878564953804016, 0.387978732585907, 0.23253394663333893, -0.07696305215358734, -0.027059132233262062, 0.1402217596769333, -0.41146373748779297, 0.19745849072933197, 0.058743059635162354, -0.60836261510849, 0.5215209126472473, 0.10199849307537079, 0.8899252414703369, -0.24216678738594055, 0.07322417944669724, -0.0716184601187706, -0.054379839450120926, 0.11124678701162338, 1.2264691591262817, -0.6522290110588074, 0.20742842555046082, -0.04979993775486946, -0.15615299344062805, -0.00332328281365335, 0.2967452108860016, 0.011322625912725925, -0.02095857821404934, 0.1757737696170807, -0.22725513577461243, 0.11775696277618408, -0.412768691778183, 0.3906688690185547, 0.19838552176952362, -1.0017685890197754, 0.3961847722530365, -0.3681918978691101, 0.0034986950922757387, 0.06142008677124977, 0.04396579787135124, 0.19288931787014008, -0.23039251565933228, 0.13003592193126678, -0.21315895020961761, -0.04719935357570648, 0.07668130099773407, 0.10178492963314056, 0.008132096379995346, -0.247672900557518, -0.19285711646080017, 0.026874618604779243, -0.116160549223423, 0.024949658662080765, -0.116781085729599, 0.24084800481796265, 0.16610169410705566, 0.09850864857435226, 0.04553690552711487, -0.08929028362035751, 0.008769281208515167, -0.05948168411850929, -0.19357264041900635, -0.23488567769527435, -0.752630889415741, 0.888718843460083, 0.0742303878068924, -0.5099408626556396, 0.10522793233394623, -0.21571975946426392, 0.0021511618979275227, 0.7695446610450745, -0.8977934122085571, 1.0032099485397339, 0.8010651469230652, -0.11843506246805191, -0.3513336777687073, -0.020695026963949203, -0.6806473135948181, 0.04510953277349472, -0.3742561638355255, -0.26103734970092773, -0.39874395728111267, 0.16166408360004425, -0.09160472452640533, 0.46253809332847595, 0.30996814370155334, 0.3271203339099884, 0.06337691098451614, 0.15070533752441406, 0.040924251079559326, -0.11056187748908997, 0.4515361487865448, -0.035326097160577774, 0.12673676013946533, 0.32602962851524353, -0.07863109558820724, 0.06374509632587433, -0.3138565421104431, -0.10678604245185852, 0.28205007314682007, 0.12486691772937775, -0.2879839837551117, -0.20236779749393463, -0.0012878718553110957, -0.17622077465057373, -0.22598440945148468, -0.02475588023662567, 0.27196556329727173, -0.16960129141807556, -0.22314400970935822, 0.06237570941448212, -0.01607292704284191, -0.05238105356693268, -0.12694768607616425, 0.1926652193069458, -0.12033722549676895, -0.0952044129371643, -0.44489946961402893, -0.10507966578006744, 0.03792613744735718, -0.04767071455717087, 0.10427834838628769, 0.017939792945981026, -0.3761152923107147, 0.022874366492033005, -0.0052305543795228004, 0.27752190828323364, -0.16932134330272675, 0.24699300527572632, -0.050076406449079514, -0.31945061683654785, 0.10966423898935318, 0.10766185075044632, 0.41939401626586914, 0.3412301242351532, -0.08596282452344894, 0.22490501403808594, 0.30924147367477417, -0.10001170635223389, 0.3172559142112732, 0.04720640182495117, -0.0622393861413002, 0.15713271498680115, -0.28284209966659546, -0.0026645497418940067, -0.11712118238210678, 0.13369964063167572, -0.16080859303474426, 0.05380546301603317, -0.23798272013664246, 0.1021980345249176, -0.08825895935297012, -0.6513788104057312, 0.4929457902908325, -0.5617669820785522, -1.043619990348816, 0.06495092809200287, -0.12451685220003128, -0.4778251647949219, -0.18048688769340515, -0.15614423155784607, -0.04205619916319847, 0.10632573813199997, -0.2136019617319107, 0.07288895547389984, 0.16752754151821136, -0.08929061889648438, 0.026529334485530853, -0.08786363154649734, 0.17923474311828613, -0.12645886838436127, 0.0768255814909935, 0.23992981016635895, 0.1997777670621872, 0.24969269335269928, 0.11585576087236404, 0.3310559093952179, -0.046659912914037704, 0.02747265435755253, 0.01938166841864586, 0.011577004566788673, -0.06063389033079147, -0.05189897119998932, 0.15727806091308594, 0.0387222021818161, -0.23579096794128418, -0.14064674079418182, 0.21268323063850403, -0.22364121675491333, 0.3851204514503479, -0.04821397736668587, 0.2876850664615631, -0.19672201573848724, -0.1309431791305542, 0.32542306184768677, -0.11970174312591553, 0.22785697877407074, 0.34243887662887573, 0.2571471631526947, 0.12334438413381577, 0.07632476836442947, 0.029464785009622574, 0.31272971630096436, 0.31625449657440186, 0.08542820066213608, 0.024514487013220787, -0.391020804643631, 0.08908975124359131, -0.25161170959472656, 0.022634096443653107, 0.299153596162796, -0.08262325823307037, -0.3041500151157379, -0.15551136434078217, -0.09995827823877335, 0.1606016457080841, -0.262165904045105, 0.34637022018432617, -0.36868998408317566, -0.36147794127464294, 0.11700393259525299, 0.0834229364991188, 0.023879019543528557, 0.10356290638446808, -0.06179948151111603, 0.15997743606567383, 0.0036888057366013527, 0.055976878851652145, -0.10127471387386322, -0.04311409965157509, -0.256885290145874, -0.20202305912971497, 0.38668176531791687, -0.3913390338420868, 0.09755010157823563, 0.21038419008255005, 0.35422804951667786, -0.27607274055480957, 0.16728655993938446, -0.19080686569213867, -0.23828166723251343, -0.15948021411895752, 0.3371812403202057, -0.22707417607307434, -0.029647933319211006, -0.09513739496469498, 0.2486477941274643, 0.06843370199203491, -0.46086385846138, 0.10226011276245117, -0.08397635817527771, -0.28425732254981995, 0.0100643839687109, 0.19400553405284882, 0.268524706363678, 0.25571322441101074, -0.027132224291563034, 0.18838302791118622, -0.4173641502857208, 0.2998935282230377, 0.09666935354471207, 0.11724697053432465, -0.17274783551692963, -0.44222351908683777, 0.1340525895357132, 0.1356821358203888, -0.1556675136089325, -0.24257884919643402, 0.10885477811098099, -0.38357439637184143, -0.13700275123119354, -0.1952504962682724, 0.20760005712509155, -0.12176233530044556, 0.04815176501870155, 0.21925902366638184, -0.15686465799808502, 0.04331272840499878, 0.05595087260007858, -0.16582158207893372, -0.2932109236717224, 0.049192141741514206, -0.31077462434768677, 0.17486779391765594, 0.3153480887413025, -0.40313050150871277, -0.2919769883155823, 0.15086491405963898, -0.2246634066104889, 0.09580560028553009, 0.09903202205896378, 0.11427409201860428, 0.07720568031072617, -0.3725091218948364, 0.030364660546183586, 0.044854484498500824, 0.0629694014787674, -0.261623352766037, 0.15437979996204376, 0.1699097901582718, -0.23509332537651062, 0.07737154513597488, 0.03163056820631027, 0.10799632221460342, -0.02204628847539425, -0.2658615708351135, -0.11075759679079056, -0.02831282466650009, 0.14667358994483948, -0.1846434623003006, 0.17489032447338104, -0.117806077003479, -0.09603343158960342, 0.1453814059495926, -0.017111945897340775, -0.042485322803258896, 0.1530308574438095, -0.10855457186698914, -0.08779848366975784, -0.3169150650501251, 1.750416231516283e-05, -0.13999992609024048, -0.031279779970645905, -0.06557038426399231, -0.18934014439582825, -0.12307851016521454, -0.1367383897304535, 0.007830587215721607, 0.010029880329966545, 0.2940979301929474, -0.2022365927696228, -0.15445534884929657, -0.14518456161022186, 0.1966884881258011, 0.01675371639430523, 0.030842306092381477, 0.13876119256019592, 0.1146739274263382, -0.13095569610595703, 0.1615304797887802, 0.13652434945106506, 0.013861526735126972, -0.18278948962688446, -0.2113773077726364, 0.11324229836463928, 0.12761950492858887, 0.21078301966190338, -0.008777584880590439, -0.011447138153016567, 0.03476669639348984, 0.1791585236787796, -0.06313928961753845, 0.07904300838708878, -0.0066832019947469234, 0.32589858770370483, 0.3670206665992737, -0.0460839681327343, 0.10342220216989517, -0.15984119474887848, 0.03064717911183834, -0.0006929481169208884, 0.17808613181114197, 0.12516523897647858, -0.06284042447805405, -0.48093381524086, 0.09580396115779877, -0.29413968324661255, -0.005138603039085865, -0.07368966192007065, 0.04328308254480362, 0.03392558917403221, -0.3898594379425049, -0.15944141149520874, 0.12311376631259918, -0.06761245429515839, -0.03488283231854439, -0.08413790166378021, 0.002989839995279908, -0.07592841237783432, 0.0254563819617033, 0.002338295103982091, 0.2677857279777527, -0.07699693739414215, -0.08811694383621216, -0.19860602915287018, -0.15042363107204437, -0.12321102619171143, -0.03659948334097862, -0.24210117757320404, -0.0217435322701931, 0.06976006925106049, 0.00188541691750288, -0.03854290395975113, 0.029352545738220215, 0.061990946531295776, -0.06178097426891327, -0.18805453181266785, -0.18444713950157166, -0.07071277499198914, 0.3547182083129883, -0.1739671230316162, 0.317594975233078, 0.04397432133555412, -0.12366735190153122, -0.004579553846269846, -0.363676518201828, 0.24968381226062775, -0.13139835000038147, 0.3141123056411743, -0.08611080795526505, -0.24550621211528778, -0.09038727730512619, 0.36960774660110474, 0.10799689590930939, -0.3101057708263397, 0.22674815356731415, 0.042532581835985184, 0.052326902747154236, -0.020872687920928, -0.011029522866010666, -0.27250880002975464, -0.09611600637435913, -0.060077864676713943, -0.13036377727985382, 0.28045400977134705, 0.055973537266254425, 0.17223592102527618, 0.023873431608080864, -0.1395183950662613, -0.10980325937271118, 0.33365291357040405, -0.055737435817718506, -0.07537251710891724, -0.5340084433555603, -0.1552634835243225, -0.024581441655755043, 0.21585451066493988, -0.025975357741117477, -0.09823170304298401, -0.3226209282875061, 0.11677961051464081, -0.06610891968011856, 0.10074279457330704, -0.15174219012260437, 0.22181245684623718, -0.10820794105529785, -0.1263667643070221, -0.4030163586139679, -0.022497715428471565, -0.2990899980068207, -0.12830404937267303, -0.16283704340457916, -0.15255339443683624, 0.2412487268447876, 0.1252138912677765, -0.06520035862922668, 0.0302216075360775, 0.04878544062376022, 0.26925259828567505, 0.37302541732788086, -0.2182513028383255, -0.05966223031282425, -0.16164569556713104, -0.12519097328186035, -0.05597689747810364, 0.35101038217544556, 0.12919509410858154, -0.2640170156955719, -0.3845747113227844, -0.024738920852541924, 0.0037874712143093348, 0.2648935317993164, -0.11768516898155212, -0.08137518167495728, -0.3228658437728882, 0.0020080460235476494, 0.08178254961967468, 0.19582945108413696, -0.3590604066848755, -0.0048948051407933235, 0.05159694701433182, -0.04169227555394173, 0.03411063551902771, 0.3348531126976013, -0.08225243538618088, -0.0468306839466095, -0.11751789599657059, 0.34759461879730225, -0.27732881903648376, 0.0763566866517067, -0.10225673764944077, 0.026341106742620468, -0.0199256781488657, -0.05306911841034889, 0.08199699223041534, 0.0271435659378767, 0.030995819717645645, -0.2109428495168686, -0.18513093888759613, 0.008329376578330994, 0.16886579990386963, -0.025232916697859764, -0.01184952724725008, 0.02181837148964405, 0.07609807699918747, 0.02517443336546421, -0.12006676942110062, 0.0887850746512413, 0.10703784227371216, -0.2297636717557907, -0.032227832823991776, -0.14581963419914246, -0.0032777043525129557, 0.002467329613864422, -0.16451434791088104, 0.032435931265354156, -0.002005652990192175, 0.06491004675626755, 0.012761346995830536, -0.1545896977186203, -0.11526452749967575, -0.21957865357398987, 0.09619953483343124, -0.12356694787740707, 0.011705434881150723, 0.03194976970553398, 0.13944575190544128, -0.02773667499423027, 0.2586701214313507, 0.3946293592453003, -0.036227740347385406, 0.1166180893778801, -0.10888992249965668, 0.42362526059150696, 0.2018738090991974, 0.13891562819480896, 0.05887926369905472, 0.08449951559305191, -0.0019774409011006355, -0.19735100865364075, -0.03491242229938507, 0.06475407630205154, 0.12954159080982208, -0.1309582144021988, -0.15049263834953308, 0.18394985795021057, -0.09574684500694275, 0.0987284854054451, -0.08045020699501038, 0.2688952684402466, -0.0560658760368824, 0.1204371303319931, -0.17261464893817902, 0.07636213302612305, 0.20547276735305786, -0.0052189575508236885, -0.05645732581615448, -0.35555562376976013, 0.16735143959522247, 0.23886241018772125, -0.027920102700591087, -0.31950145959854126, -0.0747995376586914, 0.03701435402035713, 0.03485102951526642, -0.008945883251726627, -0.1615791916847229, 0.2568589746952057, -0.08497243374586105, -0.30906790494918823, -0.06965645402669907, 0.12647870182991028, -0.04693662375211716, 0.2274668663740158, -0.08518925309181213, -0.1443030834197998, 0.15803517401218414, -0.12241768091917038, -0.08127966523170471, 0.21051493287086487, 0.09776414185762405, 0.0065810829401016235, -0.08326122909784317, 0.07397013157606125, -0.045375075191259384, 0.03180518373847008, 0.028149057179689407, 0.14070428907871246, -0.34547001123428345, -0.1536911427974701, -0.029335226863622665, -0.11873279511928558, -0.005342453718185425, -0.39080220460891724, -0.08034370094537735, -0.04955979436635971, -0.04147983714938164, 0.229264497756958, 0.10649587959051132, 0.012329359538853168, 0.0108267767354846, -0.1269771307706833, 0.3253662884235382, -0.07634229212999344, -0.24791625142097473, -0.14257444441318512, -0.19709880650043488, -0.08048410713672638, -0.07446224987506866, 0.0641523078083992, 0.02672448754310608, 0.22817564010620117, 0.010224606841802597, 0.11693600565195084, -0.16874179244041443, 0.08497792482376099, -0.05619361251592636, -0.1706315279006958, 0.09394008666276932, -0.2400793880224228, -0.09848803281784058, 0.0003633730811998248, -0.05866008624434471, 0.09840347617864609, -0.05758971348404884, 0.2219104915857315, 0.049893446266651154, 0.11196582019329071, -0.11202450841665268, -0.12852081656455994, -0.09355022013187408, 0.3837321400642395, 0.0656905248761177, -0.029443858191370964, 0.05308320373296738, 0.12454438209533691, 0.17134396731853485, 0.09531664848327637, 0.36877569556236267, -0.14786961674690247, -0.2537801265716553, -0.12030693888664246, 0.49873724579811096, 0.00435667484998703, -0.02603352814912796, 0.47926533222198486, 0.08437108993530273, 0.11827236413955688, -0.11021404713392258, -0.010965454392135143, -0.39984944462776184, 0.09744466841220856, 0.0687813013792038, 0.16648820042610168, -0.4837997853755951, -0.04472474753856659, -0.020226920023560524, 0.3254862427711487, -0.38006097078323364, 0.3871912360191345, -0.012766162864863873, 0.12522299587726593, -0.2812553644180298, 0.3373231291770935, 0.013749184086918831, -0.1874258667230606, -0.5481690168380737, 0.35695862770080566, 0.22405868768692017, 0.4311959147453308, -0.1921522170305252, 0.0906076654791832, -0.16973738372325897, 0.974105954170227, 0.2057303786277771, 0.25665953755378723, 0.311187207698822, -0.3483368158340454, 0.16747620701789856, -0.23092356324195862, -0.08082246035337448, 0.44672074913978577, 0.27970296144485474, 0.20370781421661377, -0.0057134199887514114, -0.12619878351688385, -0.016346672549843788, -0.30477175116539, 0.06902889162302017, -0.17163798213005066, 0.07335450500249863, -0.07811485230922699, -0.05434505268931389, 0.02086973376572132, -0.06626900285482407, -0.09719996899366379, -0.06289301067590714, 0.1436077356338501, 0.002851132769137621, 0.37550437450408936, -0.1716044545173645, 0.13160081207752228, -0.01773541048169136, 0.0625855103135109, -0.0763530284166336, -0.0038784132339060307, 0.01221300195902586, -0.3809877336025238, -0.09215856343507767, -0.18124903738498688, 0.08572591841220856, 0.1368301808834076, -0.17890574038028717, -0.18495666980743408, -0.10861068964004517, 0.19258971512317657, 0.04923074692487717, 0.10412836819887161, -0.3031964898109436, 0.05486410856246948, 0.06064409390091896, 0.11582763493061066, 0.2328740507364273, 0.016378235071897507, -0.039716340601444244, 0.2087755799293518, 0.2922182083129883, -0.21625445783138275, -0.038040149956941605, -0.11089062690734863, -0.13435812294483185, -0.03369995206594467, -0.04764613136649132, 0.12922343611717224, -0.14835911989212036, 0.22903451323509216, 0.0565614216029644, 0.20657700300216675, -0.37671959400177, 0.13578303158283234, -0.12988165020942688, -0.3570271134376526, 0.1199713796377182, -0.21559762954711914, -0.04123999550938606, -0.21446886658668518, -0.22314338386058807, 0.21516160666942596, 0.13084201514720917, 0.17855975031852722, 0.8490720391273499, 0.04768228158354759, 0.1185407042503357, -0.2870577275753021, 0.14811760187149048, -0.017898764461278915, -0.15042202174663544, -0.20874933898448944, -0.03178093954920769, -0.01761028543114662, 0.09344487637281418, 0.2752131223678589, 0.37396520376205444, -0.30593281984329224, -0.2565756142139435, -0.3707863986492157, 0.06047374755144119, -0.09724068641662598, -0.25071948766708374, -0.4917602241039276, -0.08209296315908432, -0.0704030767083168, -0.34220683574676514, 0.09896040707826614, -0.02475896291434765, 0.15424798429012299, -0.05392856150865555, -0.2529700994491577, -0.21930448710918427, -0.11967062950134277, 0.010845472104847431, 0.15325364470481873, -0.42510250210762024, 0.017303302884101868, 0.08476117253303528, 0.09590762108564377, -0.10247442871332169, -0.10088884830474854, 0.4420763850212097, 0.004449224099516869, 0.09446382522583008, -0.24548110365867615, 0.04681382700800896, -0.014788690954446793, -0.0018187658861279488, 0.1080567017197609, 0.1374216377735138, -0.25610044598579407, -0.032839175313711166, -0.04739375412464142, -0.04678863659501076, 0.0024859686382114887, -0.04046255722641945, 0.02017287164926529, -0.01670348271727562, -0.12327352166175842, 0.3878554105758667, 0.032312724739313126, -0.02602439559996128, 0.025162305682897568, -0.09658517688512802, 0.024234294891357422, 0.009331788867712021, 0.033136479556560516, -0.013412708416581154, -0.09741368144750595, -0.08476126194000244, -0.018015369772911072, -0.11404220014810562, -0.07447364181280136, 0.0009334052447229624, -0.26953446865081787, -0.10397674888372421, -0.15732938051223755, 0.26615771651268005, 0.06288090348243713, -0.30957016348838806, 0.09634651243686676, -0.0332484096288681, 0.1905287355184555, 0.13782285153865814, -0.22055228054523468, -0.08500603586435318, 0.18216988444328308, 0.014628123492002487, 0.05400657281279564, -0.17195220291614532, 0.1421046108007431, 0.08703989535570145, 0.10353514552116394, -0.1179029792547226, -0.0030327094718813896, -0.32924723625183105, 0.020909816026687622, 0.24820451438426971, 0.013999316841363907, 0.17921943962574005, 0.4392753839492798, 0.3081730008125305, 0.33274292945861816, -0.5468462705612183, 0.07214844226837158, 0.08413178473711014, -0.017679806798696518, -0.13137702643871307, 0.26469796895980835, 0.14356909692287445, -0.031942158937454224, -0.28079429268836975, 0.3657829761505127, -0.003759603714570403, 0.39545938372612, -0.18458110094070435, 0.008784729987382889, -0.49404025077819824, 0.6130380630493164, -0.050965700298547745, -0.08044176548719406, 0.3400512635707855, -0.09451410919427872, 0.06871429085731506, -0.6763250231742859, -0.09333480894565582, 0.10774838924407959, 0.10930502414703369, 0.009631330147385597, 0.029581427574157715, -0.06279439479112625, -0.10635673999786377, -0.034316375851631165, 0.17223967611789703, 0.09472731500864029, 0.03568056970834732, -0.1510830819606781, -0.032447606325149536, 0.09845875203609467, 0.12911754846572876, -0.06845143437385559, -0.0454697422683239, 0.059157904237508774, -0.374589741230011, -0.1883413940668106, 0.14682115614414215, 0.06634580343961716, -0.009219677187502384, 0.12758545577526093, 0.07104521989822388, 0.09449870884418488, -0.06027349829673767, -0.13307738304138184, -0.053963493555784225, -0.1506061553955078, -0.0721159279346466, 0.04708826541900635, -0.12960191071033478, 0.06744596362113953, -0.06130978465080261, -0.03644019737839699, -0.04478151351213455, -0.050672974437475204, 0.056976839900016785, 0.09026769548654556, 0.09763271361589432, 0.13801534473896027, 0.04617837816476822, 0.007892735302448273, -0.05643351003527641, -0.04833301156759262, 0.07519999891519547, 0.1418687403202057, -0.10912799835205078, 0.039049502462148666, -0.3128538727760315, 0.15966704487800598, -0.014426485635340214, 0.08277774602174759, 0.07541757822036743, -0.17552633583545685, -0.006403186824172735, 0.05072525888681412, 0.19814029335975647, 0.07019833475351334, 0.14597469568252563, 0.1734589785337448, -0.23901872336864471, -0.09342831373214722, -0.13980311155319214, 0.013579889200627804, 0.2452894151210785, 0.42917564511299133, -0.39056146144866943, -0.0041183349676430225, -0.11486121267080307, -0.23458078503608704, -0.17540694773197174, 0.225836381316185, -0.035243693739175797, -0.08366178721189499, -0.3008362352848053, 0.0007640713592991233, -0.06715033203363419, 0.3195987641811371, -0.4302557408809662, -0.14641055464744568, 0.06899170577526093, 0.41135913133621216, -0.03631261736154556, 0.09017717093229294, -0.5321570038795471, 0.04725200682878494, -0.05083484947681427, 0.3894026279449463, 0.07198655605316162, 0.11624600738286972, -0.22691169381141663, 0.03172314912080765, 0.18085485696792603, 0.06189611926674843, -0.08708816766738892, -0.00585012836381793, -0.17721650004386902, 0.17668886482715607, -0.008184744976460934, -0.02309976890683174, 0.08929618448019028, 0.02003028802573681, 0.1517125964164734, 0.026839731261134148, -0.0038950880989432335, 0.08920340240001678, -0.0896298959851265, 0.03554688021540642, 0.03930532559752464, 0.06578857451677322, 0.0608334019780159, -0.028989551588892937, 0.18539784848690033, 0.11517779529094696, 0.03447926416993141, 0.0764038935303688, -0.059061966836452484, 0.07008334994316101, -0.1546364724636078, -0.07026000320911407, 0.07882493734359741, -0.1164247915148735, -0.1072070375084877, -0.0698774978518486, -0.019266115501523018, -0.06842973083257675, 0.06778500229120255, -0.08130279183387756, -0.17430628836154938, 0.06415101140737534, 0.13494910299777985, 0.0912289097905159, -0.04989548772573471, 0.038041599094867706, 0.025228578597307205, -0.0070430138148367405, 0.029789987951517105, 0.01923065073788166, -0.01775757037103176, -0.11687400937080383, -0.12661872804164886, 0.03765246644616127, -0.3051587641239166, -0.027449095621705055, 0.11751061677932739, 0.1136382594704628, 0.11386612802743912, 0.1312190294265747, 0.02004595287144184, -0.2912288010120392, -0.17070123553276062, 0.6862499713897705, -0.6808333396911621, -0.012770473025739193, -0.056559961289167404, 0.39942485094070435, 0.18704856932163239, 0.09852316230535507, -0.38378268480300903, 0.052483972162008286, 0.15861515700817108, 0.5241193771362305, 0.15694037079811096, -0.48735368251800537, 0.7684009671211243, -0.022833291441202164, 0.49189293384552, -0.11297395080327988, 0.11902328580617905, -0.5417130589485168, -0.03639412298798561, -0.15583032369613647, -0.23428896069526672, 0.7813142538070679, 0.35761603713035583, -0.7856670618057251, -0.13875333964824677, 0.1292678862810135, -0.09769772738218307, 0.29403722286224365, -0.11063076555728912, 0.0789174810051918, -0.8150344491004944, 0.5509661436080933, -0.24262215197086334, 0.13906529545783997, -0.010252025909721851, 0.4128756523132324, 0.8933992385864258, 0.3268066644668579, -0.21202006936073303, 0.12872663140296936, -0.06765422224998474, 0.12382915616035461, 0.02462959848344326, -0.08715122193098068, -0.044552478939294815, 0.051815904676914215, 0.25537028908729553, -0.06681063026189804, 0.018318533897399902, -0.27468112111091614, 0.0132600674405694, -0.06143331900238991, -0.11845814436674118, -0.1438574492931366, 0.011465496383607388, 0.19643892347812653, -0.09247416257858276, 0.40253886580467224, 0.17222554981708527, -0.3585352599620819, -0.06734702736139297, 0.16878636181354523, -0.14598849415779114, -0.16710500419139862, 0.05270843580365181, 0.059280384331941605, 0.1706070601940155, -0.21622124314308167, 0.1501438468694687, 0.017762677744030952, -0.08401872217655182, -0.01930156722664833, -0.06389673054218292, 0.03698432072997093, -0.06770659983158112, 0.05744277313351631, -0.17499814927577972, -0.0817270502448082, 0.12328221648931503, 0.009241766296327114, -0.15224483609199524, -0.04555075243115425, 0.029845232143998146, -0.2533571422100067, 0.23617753386497498, 0.05505262315273285, 0.12218497693538666, 0.051026828587055206, 0.050463709980249405, -0.07434618473052979, 0.14398017525672913, 0.3386811912059784, 0.06894967705011368, -0.025603871792554855, 0.1537024974822998, -0.1053461953997612, 0.1133618876338005, 0.21815983951091766, 0.18454356491565704, -0.24044570326805115, -0.06301965564489365, 0.11750078201293945, -0.004327163100242615, -0.029959416016936302, -0.10933124274015427, 0.14761720597743988, -0.1503501534461975, 0.07976798713207245, 0.5018516182899475, 0.33830222487449646, 0.4240693747997284, -0.9690585732460022, -0.6385740637779236, 0.2134033888578415, 0.1945047527551651, -0.23169919848442078, 0.45706143975257874, 0.33364444971084595, -1.1061911582946777, 0.23113833367824554, -0.11791687458753586, -0.6549416780471802, -0.13838009536266327, -0.9550175070762634, -0.1567535400390625, -0.17796018719673157, 0.2903078496456146, -0.07772655040025711, 0.2317698448896408, 0.04301493614912033, 0.1272755116224289, -0.21427077054977417, -0.1053648591041565, -0.034098077565431595, -0.041561707854270935, -0.3325791656970978, 0.11266885697841644, -0.08869121223688126, 0.11848374456167221, -0.07530563324689865, 0.016841046512126923, -0.2354254275560379, 0.18246883153915405, -0.37516841292381287, 0.02831086330115795, 0.09561748802661896, 0.1767210215330124, 0.05370554327964783, -0.051275234669446945, 0.2530662417411804, -0.09635572135448456, 0.39967742562294006, -0.02614547871053219, 0.1676998883485794, -0.06266005337238312, 0.2778298556804657, 0.19518698751926422, 0.27162864804267883, -0.18302449584007263, 0.0210827998816967, -0.11639662832021713, -0.20077021420001984, -0.18536637723445892, 0.11114197224378586, 0.12883518636226654, -0.32106518745422363, 0.017987605184316635, -0.3239091634750366, -0.13594038784503937, 0.31510695815086365, 0.08710130304098129, 0.10192405432462692, -0.1555919498205185, -0.1782200038433075, 0.0693708062171936, 0.10110947489738464, 0.04776855930685997, 0.23324717581272125, 0.15829382836818695, 0.18198564648628235, -0.14499501883983612, -0.15890969336032867, 0.009291812777519226, -0.30585867166519165, 0.4581167995929718, 0.007229842245578766, -0.01946021057665348, -0.09649812430143356, 0.9637731909751892, 0.04419900104403496, 0.17569251358509064, -0.09939724206924438, -0.12732097506523132, 0.33630940318107605, -0.12864339351654053, -0.08017811179161072, 0.04949590191245079, 0.1447674036026001, 0.0813247561454773, -0.2999648451805115, -0.19424590468406677, -0.25574052333831787, -0.02615734376013279, -0.2517397105693817, -0.34290391206741333, 0.1851448118686676, 0.14065411686897278, 0.07486074417829514, -0.2653505802154541, 0.2254781574010849, -0.18123146891593933, 0.04461277648806572, 0.14071393013000488, 0.11249890178442001, -0.12685513496398926, 0.04078883305191994, 0.03446188569068909, 0.0252423994243145, -0.11913978308439255, -0.019803354516625404, -0.31548362970352173, -0.09045464545488358, 0.09962917864322662, 0.0723714604973793, 0.0029899203218519688, -0.17597268521785736, 0.2751361131668091, 0.21585090458393097, -0.15418407320976257, 0.16624774038791656, -0.006502325180917978, 0.225803941488266, 0.10764820128679276, 0.011672651395201683, 0.12002482265233994, -0.24310551583766937, -0.3277156352996826, 0.30521103739738464, -0.049295756965875626, 0.2968699336051941, 0.12469486147165298, -0.35677093267440796, -0.22282235324382782, 0.028970731422305107, 0.13846589624881744, 0.19936098158359528, 0.15413308143615723, 0.7298620343208313, -0.047987788915634155, -0.0941120833158493, 0.16192913055419922, 0.11876483261585236, -0.10776315629482269, 0.15811896324157715, -0.053283337503671646, -0.006268966011703014, 0.18278926610946655, 0.23567385971546173, -0.18997420370578766, -0.07520753890275955, 0.060099046677351, -0.12331141531467438, -0.012633280828595161, -0.5321151614189148, -0.19038569927215576, 0.27458900213241577, 0.08367764204740524, 0.06835152208805084, -0.02190791815519333, 0.1292959600687027, -0.0990944504737854, 0.2372749000787735, -0.21896284818649292, 0.13913749158382416, -0.1975274235010147, 0.21203891932964325, -0.019863862544298172, 0.12667116522789001, -0.031659822911024094, -0.16390779614448547, 0.19428229331970215, -0.3627129793167114, 0.09651908278465271, 0.18462559580802917, -0.05159483850002289, 0.21760734915733337, -0.2135881781578064, -0.08362223207950592, -0.10031305253505707, -0.05144714191555977, -0.13811972737312317, -0.16166824102401733, 0.2545353174209595, 0.028028441593050957, -0.06835436075925827, -0.06432001292705536, -0.21868734061717987, 0.20719070732593536, 0.17611007392406464, -0.10678435117006302, -0.0076553188264369965, 0.1556551456451416, -0.3259366452693939, -0.6230000257492065, -0.10362664610147476, -0.23280128836631775, 0.09782624989748001, 0.3083118796348572, -0.16465257108211517, -0.04702403023838997, 0.16715747117996216, -0.13525499403476715, -0.26490551233291626, 0.19909261167049408, -0.20569764077663422, -0.3956011235713959, 0.1772925853729248, 0.18776552379131317, 0.16970621049404144, 0.11855708062648773, -0.20279055833816528, 0.05412343516945839, -0.23841871321201324, 0.014696380123496056, 0.2897358238697052, -0.03155699372291565, -0.15523265302181244, -0.07690511643886566, -0.1760302037000656, -0.1881057322025299, 0.05714874342083931, -0.4866163730621338, -0.030964694917201996, 0.06226770579814911, -0.07016207277774811, 0.08104471862316132, -0.09016912430524826, -0.18976366519927979, 0.028486132621765137, 0.09221303462982178, 0.03962772339582443, 0.30274340510368347, -0.011602899990975857, -0.010340552777051926, -0.3564123511314392, -0.1996571570634842, -0.1709546446800232, -0.07041912525892258, 0.13614115118980408, -0.024090293794870377, 0.13783475756645203, 0.029904291033744812, -0.23172639310359955, -0.005340998061001301, -0.1157761812210083, 0.11165816336870193, 0.01835155114531517, 0.6632546186447144, -0.13654838502407074, 0.005611126311123371, 0.1827230304479599, 0.09766430407762527, -0.11261551082134247, 0.21983389556407928, -0.15621212124824524, 0.03569347783923149, 0.026829984039068222, -0.14211347699165344, -0.28018584847450256, -0.35651418566703796, -0.03413798287510872, -0.029691122472286224, -0.03706391155719757, 0.011701136827468872, -0.14225167036056519, 0.13216020166873932, 0.16632087528705597, -0.08035772293806076, -0.05064256489276886, -0.1234235167503357, -0.2514279782772064, -0.08540460467338562, 0.08757880330085754, -0.12578128278255463, 0.03972632437944412, 0.07583281397819519, -0.07046708464622498, 0.12536528706550598, -0.19459675252437592, 0.19755515456199646, 0.09456321597099304, -0.018250584602355957, 0.06347126513719559, -0.12679503858089447, -0.12454750388860703, 0.10460317134857178, 0.03876147046685219, 0.17075282335281372, -0.1644236147403717, -0.058351024985313416, 0.11100663989782333, 0.1414829045534134, 0.1399247795343399, -0.08703161776065826, -0.13162049651145935, 0.15827052295207977, 0.12546566128730774, -0.20725367963314056, 0.008904283866286278, 0.1671503633260727, -0.12103820592164993, 0.17882093787193298, 0.22686652839183807, -0.058607738465070724, 0.005400531459599733, -0.03316023200750351, 0.22064544260501862, 0.014792995527386665, 0.5029990673065186, 0.10809797793626785, -0.0269976444542408, -0.13707755506038666, 0.009573639370501041, 0.1102098599076271, -0.3364143371582031, 0.13233241438865662, 0.09872590005397797, 0.13133881986141205, -0.05108160898089409, 0.033259324729442596, -0.015698950737714767, -0.030227521434426308, -0.01307915709912777, 0.3659445345401764, 0.07706283032894135, -0.06408784538507462, -0.14178717136383057, 0.17673459649085999, -0.07234783470630646, -0.3613508939743042, 0.2936044931411743, 0.02201770804822445, 0.30702316761016846, -0.09241796284914017, 0.0659003034234047, 0.1784372627735138, 0.18717382848262787, 0.2658802270889282, 0.290069043636322, 0.06901466846466064, -0.1310575306415558, -0.000570157018955797, 0.021559158340096474, -0.07402234524488449, 0.579909086227417, 0.09368693083524704, -0.0007861500489525497, -0.05029147118330002, -0.10880313813686371, 0.04193294793367386, 0.14969439804553986, -0.07833947241306305, -0.12026240676641464, 0.014578819274902344, -0.05327058210968971, -0.14410582184791565, -0.02683333493769169, -0.1563342958688736, 0.018990615382790565, -0.3343939483165741, 0.21040867269039154, 0.031991489231586456, -0.182524636387825, -0.0035529816523194313, -0.00864871684461832, -0.3727439045906067, 0.11280667036771774, -0.1350301206111908, -0.5723151564598083, -0.09720158576965332, -0.061030857264995575, -0.5820562839508057, 0.0719587653875351, 0.07344578206539154, -0.2522570490837097, -0.079868845641613, 0.05071640759706497, 0.5398000478744507, -0.047816529870033264, -0.30516916513442993, 0.15020185708999634, -0.0678127333521843, 0.053833089768886566, -0.14823012053966522, 0.5870631337165833, 0.2372237890958786, -0.1409265249967575, -0.4485495090484619, -0.0013211671030148864, 0.3362729847431183, -0.35609158873558044, 0.10596295446157455, 0.19957180321216583, 0.11802315711975098, -0.09908318519592285, -0.05134226009249687, 0.23200513422489166, -0.11688724160194397, -0.006805454380810261, 0.32729026675224304, 0.004673496354371309, -0.04319210723042488, -0.4302229881286621, -0.09859856218099594, -0.07994221895933151, 0.08894896507263184, 0.36685582995414734, -0.056768108159303665, -0.3467138707637787, 0.2672635614871979, -0.09406103938817978, 0.18283261358737946, 0.2497057318687439, 0.14250421524047852, 0.045556046068668365, -0.01623453013598919, 0.02664547972381115, 0.09383849799633026, 0.13856878876686096, -0.018441297113895416, 0.04291330650448799, -0.09320754557847977, -0.1273939162492752, -0.3754989802837372, 0.08535579591989517, 0.2921297550201416, 0.12841741740703583, 0.030756622552871704, -0.16674943268299103, 0.38238927721977234, -0.03413630276918411, -0.31023162603378296, 0.14524513483047485, -0.1591414511203766, 0.10144669562578201, -0.18489515781402588, -0.00919374544173479, 0.3876931667327881, 0.04710659384727478, 0.09887970238924026, -0.3525095582008362, -0.010464318096637726, 0.1069483831524849, -0.0919630378484726, 0.2148662954568863, -0.15438656508922577, -0.22955699265003204, -0.0654996931552887, 0.05966882407665253, -0.05467605218291283, 0.03321114182472229, -0.05239241570234299, 0.032053545117378235, -0.08023088425397873, 0.08777732402086258, 0.29105344414711, 0.05971721187233925, -0.08406472951173782, 0.10116282105445862, -0.07540925592184067, 0.02427544817328453, 0.22945761680603027, 0.03081899881362915, -0.05684291943907738, 0.2805226743221283, 0.21393896639347076, -0.008384285494685173, 0.14046567678451538, 0.0178653784096241, -0.0911296159029007, 0.08877470344305038, -0.04706573858857155, 0.1316155195236206, -0.1115306094288826, -0.17311176657676697, 0.07494917511940002, -0.2525571882724762, 0.027971822768449783, -0.09669511765241623, 0.3432285487651825, 0.020554354414343834, -0.04155377671122551, -0.05768086388707161, 0.1724470555782318, 0.22332905232906342, -0.01624480076134205, 0.08057716488838196, 0.016776971518993378, 0.6441513299942017, -0.0028640872333198786, 0.03264600411057472, 0.11413666605949402, -0.0007856115116737783, 0.16112011671066284, -0.026893559843301773, 0.040484718978405, 0.2434280514717102, 0.006225305609405041, -0.10147518664598465, -0.06281702220439911, 0.2897588610649109, -0.09596197307109833, 0.08101338148117065, -0.387477844953537, 0.22883576154708862, 0.03653239458799362, 0.06742869317531586, 0.18379153311252594, -0.1926099807024002, -0.14790353178977966, -0.17311041057109833, -0.04119722172617912, -0.3506227135658264, -0.14192093908786774, -0.19076350331306458, 0.13161809742450714, 0.07912075519561768, -0.1238090842962265, -0.16331756114959717, -0.10986687988042831, 0.13226629793643951, 0.17599855363368988, 0.4118290841579437, -0.21855491399765015, 0.17406819760799408, 0.09003502875566483, -0.040486566722393036, 0.15123453736305237, -0.22078801691532135, -0.08481705188751221, -0.32474085688591003, 0.3171748220920563, 0.33009666204452515, -0.309986412525177, -0.0851086750626564, 0.050437312573194504, 0.31775468587875366, -0.31653887033462524, 0.16506630182266235, -0.482835590839386, -0.03610111027956009, -0.15645958483219147, -0.23542942106723785, 0.003216515062376857, 0.07548059523105621, -0.03765604645013809, -0.03870180621743202, -0.5670390129089355, -0.11391767859458923, 0.03768632560968399, 0.2368122935295105, -0.4103085994720459, -0.07926821708679199, -0.15810495615005493, 0.3717213571071625, -0.06977462768554688, 0.0994725450873375, -0.4374711513519287, -0.013947724364697933, -0.03470420837402344, 0.5733281373977661, 0.0819944217801094, 0.05697368085384369, -0.8727928996086121, -0.3169017732143402, -0.16600918769836426, -0.4100302457809448, -0.11152079701423645, -0.01499265618622303, 0.3232564926147461, -0.03239811211824417, -0.07219012081623077, -0.006129435729235411, -0.07441262155771255, -0.1157466247677803, -0.01420482899993658, 0.059287719428539276, -0.03663308545947075, 0.010690642520785332, 0.027096683159470558, -0.10088290274143219, -0.04044909402728081, -0.06743553280830383, -0.2624132037162781, -0.14797000586986542, 0.10012819617986679, -0.0010090800933539867, -0.02592526189982891, 0.07360633462667465, -0.04082433506846428, -0.013928909786045551, 0.420513778924942, 0.09126818180084229, 0.18166160583496094, -0.14001674950122833, 0.03138480708003044, -0.20549376308918, -0.1469307690858841, -0.2405317723751068, 0.03101704642176628, 0.10650245100259781, 