{"version": "0.5.4", "metadata": {"date": {"year": 2026, "month": 5, "day": 25, "hour": 10, "minute": 0, "second": 21}, "loudness": -17.340850830078125, "gain": 0.9055006996041682, "name": "JCM800 Clean", "modeled_by": "paLm", "gear_type": "amp_cab", "gear_make": "JCM800", "gear_model": "Marshall JCM800 - Marshall 1960AV", "tone_type": "clean", "input_level_dbu": null, "output_level_dbu": null, "training": {"settings": {"ignore_checks": false}, "data": {"latency": {"manual": null, "calibration": {"algorithm_version": 1, "delays": [0], "safety_factor": 1, "recommended": -1, "warnings": {"matches_lookahead": false, "disagreement_too_high": false, "not_detected": false}}}, "checks": {"version": 3, "passed": true}}, "validation_esr": 0.011992327845895304}}, "architecture": "WaveNet", "config": {"layers": [{"input_size": 1, "condition_size": 1, "head_size": 8, "channels": 16, "kernel_size": 3, "dilations": [1, 2, 4, 8, 16, 32, 64, 128, 256, 512], "activation": "Tanh", "gated": false, "head_bias": false}, {"input_size": 16, "condition_size": 1, "head_size": 1, "channels": 8, "kernel_size": 3, "dilations": [1, 2, 4, 8, 16, 32, 64, 128, 256, 512], "activation": "Tanh", "gated": false, "head_bias": true}], "head": null, "head_scale": 0.02}, "weights": [0.0025193423498421907, 0.5384548902511597, -1.076026201248169, -0.4506654739379883, -0.5198687314987183, 0.34081777930259705, -0.12941133975982666, 0.939304769039154, -0.28715193271636963, 0.33079659938812256, -0.5150339007377625, -0.004436217248439789, -1.1624141931533813, -0.6613971590995789, -0.684429943561554, 0.16567431390285492, 0.20251333713531494, 0.3175172507762909, 0.14668574929237366, -0.11427528411149979, 0.12527316808700562, 0.11763748526573181, 0.007991716265678406, 0.017159411683678627, -0.035827212035655975, 0.05428396165370941, 0.043911390006542206, -0.14360253512859344, -0.040403228253126144, -0.11109887808561325, -0.05283255875110626, 0.07605990022420883, -0.015186360105872154, -0.0775495171546936, -0.012179484590888023, -0.15612493455410004, -0.009223650209605694, 0.0851220190525055, 0.1539861559867859, 0.08014868199825287, 0.07949072867631912, -0.12498702853918076, 0.06661497801542282, -0.18383674323558807, -0.03181684762239456, -0.08808568120002747, 0.14568480849266052, 0.011774098500609398, -0.05439383164048195, -0.01648266240954399, -0.007285681553184986, 0.03394320607185364, 0.09494007378816605, -0.07125204056501389, 0.08324526995420456, -0.0466042160987854, -0.06103960797190666, -0.12165497243404388, -0.05394977331161499, -0.15743638575077057, 0.06333760917186737, -0.017573656514286995, -0.07873859256505966, -0.07392608374357224, 0.003012766595929861, -0.2128516286611557, -0.2172715663909912, 0.26629936695098877, -0.0836830586194992, 0.025385025888681412, -0.3339664936065674, 0.13426131010055542, 0.1826472282409668, -0.10302053391933441, 0.3015177547931671, 0.2428545504808426, -0.20717716217041016, 0.04555099830031395, 0.12204405665397644, 0.1488071084022522, -0.2976129353046417, 0.03126378729939461, -0.1506050080060959, -0.03849140554666519, 0.07026936113834381, 0.19869300723075867, -0.2099992334842682, -0.19072143733501434, -0.21263809502124786, 0.04962136596441269, 0.11870459467172623, 0.3105323314666748, -0.05399744212627411, -0.03787385672330856, -0.38595113158226013, 0.07451646029949188, 0.17690734565258026, -0.0008321598288603127, -0.005289127584546804, 0.05140240117907524, -0.08618897199630737, 0.2855531573295593, 0.06470568478107452, -0.25819799304008484, 0.04363531991839409, 0.11721785366535187, -0.3431265950202942, 0.06584067642688751, 0.10625071078538895, 0.2411135584115982, -0.1913103461265564, 0.030712900683283806, -0.12962615489959717, 0.09756522625684738, -0.0031479145400226116, 0.09964247047901154, 0.16668075323104858, -0.03542572632431984, -0.21007929742336273, -0.17880690097808838, 0.09554114192724228, -0.20445886254310608, -0.26764029264450073, 0.11458325386047363, -0.347647488117218, -0.27399662137031555, 0.02385867014527321, 0.1291828602552414, 0.12640513479709625, -0.19820494949817657, -0.1823544055223465, -0.10199633985757828, 0.024989573284983635, 0.22018148005008698, 0.3125307857990265, -0.057165518403053284, -0.1695513129234314, -0.15768182277679443, 0.1446363478899002, 0.2805173993110657, 0.3027254343032837, 0.008554206229746342, -0.07757063955068588, -0.20281407237052917, -0.06680997461080551, -0.1414979100227356, 0.044019632041454315, -0.04015306383371353, -0.3041774034500122, -0.3245534598827362, -0.0982401892542839, -0.33921703696250916, -0.23008853197097778, 0.12503616511821747, -0.1436052918434143, -0.3407617509365082, 0.1439659595489502, 0.0768757313489914, 0.12129583954811096, -0.1622132658958435, -0.05650099739432335, -0.04755687713623047, -0.07194414734840393, -0.19971130788326263, -0.12591294944286346, 0.0822359174489975, 0.02141575887799263, 0.1705983728170395, -0.204353928565979, 0.06662027537822723, 0.2329365462064743, -0.13696151971817017, 0.19639623165130615, 0.1448262333869934, -0.22573427855968475, 0.026900291442871094, -0.10735514760017395, 0.040334396064281464, 0.11369357258081436, -0.1012704074382782, -0.1588011085987091, -0.11503732204437256, -0.011088838800787926, 0.11681675910949707, 0.10723070800304413, 0.11149979382753372, -0.1735929697751999, -0.08248791843652725, -0.19406701624393463, 0.19304481148719788, 0.1823396384716034, 0.1931142807006836, -0.2011174112558365, -0.018800141289830208, -0.12919452786445618, -0.14788445830345154, 0.0035031044390052557, 0.16588179767131805, -0.1589401364326477, 0.07467442750930786, 0.1130627766251564, 0.01288978848606348, -0.030272895470261574, 0.008517516776919365, -0.1700228750705719, 0.05107209086418152, -0.09779436886310577, 0.2760750949382782, -0.19909848272800446, -0.21575365960597992, -0.3719485104084015, -0.12999381124973297, 0.4375775456428528, -0.15764233469963074, 0.09513162821531296, -0.41127273440361023, 0.010747815482318401, 0.025947395712137222, -0.2930213212966919, 0.0075743128545582294, 0.10354334861040115, -0.2702418565750122, 0.1885722130537033, -0.12618660926818848, 0.2634996771812439, -0.08775871992111206, 0.07983621954917908, -0.33901965618133545, 0.14740030467510223, -0.11897022277116776, 0.42912083864212036, -0.005807193927466869, 0.17460893094539642, -0.24431757628917694, 0.27140307426452637, -0.21270987391471863, 0.4578748643398285, -0.24909113347530365, 0.055644940584897995, -0.37151554226875305, 0.18980956077575684, 0.23169498145580292, -0.06653902679681778, 0.07886724174022675, 0.16746211051940918, -0.5721161365509033, 0.2243570238351822, -0.017201606184244156, -0.41545361280441284, 0.10182218998670578, 0.0312807559967041, -0.4050246775150299, 0.25414738059043884, -0.15783214569091797, 0.26596418023109436, -0.2434256672859192, -0.14851075410842896, 0.10940242558717728, -0.0425109900534153, -0.21955762803554535, 0.05242405831813812, 0.0936054065823555, 0.18870699405670166, -0.03825145214796066, 0.03284779191017151, 0.06998158246278763, -0.17567524313926697, 0.032355401664972305, 0.2482081800699234, -0.08907242864370346, -0.06737131625413895, -0.20453380048274994, -0.020180782303214073, 0.012036597356200218, 0.07658837735652924, -0.19668680429458618, 0.18998675048351288, -0.20776472985744476, 0.13025231659412384, 0.058424949645996094, 0.16896134614944458, -0.18431061506271362, -0.0628194734454155, -0.02232074923813343, 0.13417121767997742, 0.09881802648305893, 0.08400499820709229, -0.0854886844754219, -0.02800978347659111, 0.08653392642736435, -0.0273127444088459, 0.11799372732639313, 0.15698730945587158, -0.15321242809295654, -0.054248154163360596, 0.027478419244289398, -0.040357522666454315, -0.12034006416797638, 0.18230468034744263, -0.18735551834106445, -0.07568066567182541, -0.10099104046821594, 0.0038470234721899033, -0.03241737559437752, -0.154555082321167, -0.3051667809486389, -0.20009809732437134, 0.029044458642601967, 0.17274567484855652, -0.08783527463674545, -0.09660176932811737, -0.14908811450004578, 0.1150512844324112, -0.019550232216715813, -0.05751108005642891, 0.16733698546886444, -0.03378645330667496, -0.10419785231351852, 0.14109809696674347, -0.046222083270549774, 0.09759796410799026, -0.08728791773319244, -0.06348418444395065, -0.06802231073379517, 0.1986471712589264, 0.10391370207071304, 0.2067139446735382, -0.04968414455652237, 0.1503928154706955, -0.13054583966732025, 0.01182812824845314, -0.1815582662820816, 0.2273918092250824, -0.009395831264555454, -0.05979364737868309, -0.05142507329583168, 0.19339141249656677, 0.20479324460029602, 0.142435684800148, 0.1297881007194519, -0.012546440586447716, -0.17842401564121246, 0.1816352754831314, 0.11037302762269974, -0.20458054542541504, 0.198307603597641, 0.10213764756917953, -0.03873298317193985, -0.013928021304309368, 0.0002771527215372771, 0.008216963149607182, -0.014021852053701878, -0.060156162828207016, 0.14067023992538452, 0.13886892795562744, -0.11237582564353943, -0.032170966267585754, 0.22029799222946167, 0.08860845863819122, 0.026952650398015976, -0.24080374836921692, 0.033426374197006226, -0.1270313709974289, -0.029391130432486534, 0.24753272533416748, 0.11200246214866638, -0.039481427520513535, -0.2974391281604767, -0.0733773335814476, 0.1377035230398178, 0.003010252257809043, 0.02005549892783165, -0.2992478311061859, -0.25695013999938965, -0.1317792534828186, 0.0629376471042633, 0.2628065347671509, 0.06612461805343628, -0.07850578427314758, -0.04193495586514473, 0.1675482839345932, 0.1300094574689865, 0.2352333664894104, 0.10453680157661438, -0.11111412197351456, 0.32955893874168396, 0.20290528237819672, 0.19803006947040558, 0.1378898322582245, 0.06261654198169708, -0.12690483033657074, 0.1435328722000122, -0.09422187507152557, -0.22659343481063843, 0.06966064870357513, 0.08149972558021545, -0.0495464913547039, -0.19155053794384003, -0.04092899337410927, 0.27431440353393555, -0.060113631188869476, -0.06628149747848511, -0.12218163162469864, 0.014480553567409515, 0.1724235564470291, 0.07455214112997055, 0.24816225469112396, -0.01253433059900999, -0.24343791604042053, 0.20026156306266785, -0.18937526643276215, -0.19528156518936157, 0.24704453349113464, -0.10019708424806595, -0.27641379833221436, -0.18546071648597717, 0.04878208041191101, 0.12020759284496307, 0.1202143058180809, 0.0264541395008564, -0.15138374269008636, -0.20240050554275513, 0.1258021891117096, 0.2554650604724884, 0.23011058568954468, -0.19732089340686798, -0.15126407146453857, -0.2379426807165146, 0.030556494370102882, 0.20444898307323456, 0.021354911848902702, -0.05438689514994621, -0.05370180308818817, 0.03613940626382828, -0.1468917280435562, -0.16233539581298828, 0.14048896729946136, -0.23349912464618683, -0.12119380384683609, -0.014568591490387917, -0.2513023912906647, -0.3190656006336212, 0.09215877950191498, -0.013464471325278282, -0.31523221731185913, 0.043095361441373825, 0.06880225986242294, 0.20930485427379608, 0.11060857772827148, -0.020502055063843727, 0.2376229614019394, 0.020048504695296288, 0.27242276072502136, 0.0938527062535286, -0.050611574202775955, -0.025007085874676704, -0.025644000619649887, 0.11612379550933838, -0.2511430084705353, -0.06955411285161972, -0.08632023632526398, -0.19001692533493042, 0.008943061344325542, -0.17068177461624146, 0.17325657606124878, 0.08865083009004593, 0.11112740635871887, -0.16990971565246582, -0.0873420462012291, -0.08887971937656403, 0.20876151323318481, 0.17544133961200714, 0.1653299480676651, -0.12026115506887436, 0.0666610598564148, -0.20157723128795624, -0.002962324768304825, 0.07471974939107895, -0.019920483231544495, -0.059882283210754395, -0.11696887761354446, 0.07033976167440414, 0.03650704771280289, 0.22898529469966888, 0.029296262189745903, -0.035281144082546234, 0.05417385697364807, 0.12679454684257507, -0.13439252972602844, -0.07338820397853851, 0.018968043848872185, -0.12242181599140167, 0.04436532035470009, -0.13531887531280518, 0.23411765694618225, -0.022939851507544518, -0.0436730682849884, -0.09389398992061615, 0.03588203713297844, 0.4616531431674957, -0.2639082074165344, -0.10246093571186066, -0.25073909759521484, 0.22746524214744568, 0.336902916431427, -0.39830920100212097, 0.17482152581214905, 0.25825899839401245, -0.3752270042896271, 0.17772452533245087, 0.16079549491405487, 0.42648178339004517, -0.15568546950817108, -0.23272588849067688, -0.2715321481227875, 0.16404321789741516, 0.10738764703273773, 0.3346464931964874, -0.05817370116710663, -0.22781510651111603, -0.3200138807296753, 0.057303305715322495, 0.20697066187858582, 0.22462114691734314, -0.20068669319152832, -0.25416573882102966, -0.20336295664310455, 0.09343726187944412, 0.2038467973470688, -0.18829390406608582, 0.12255508452653885, 0.19758637249469757, -0.4290798604488373, 0.028727317228913307, 0.10974906384944916, -0.3220527470111847, 0.0970388799905777, 0.11032967269420624, -0.3845016062259674, 0.16224050521850586, 0.13218910992145538, 0.3105531930923462, -0.13364149630069733, -0.21172435581684113, 0.010209709405899048, 0.14612261950969696, -0.030548056587576866, -0.07519593089818954, -0.19525426626205444, 0.2024221122264862, -0.04382484406232834, 0.01571081578731537, 0.0837094634771347, -0.011459029279649258, 0.16750475764274597, -0.07507334649562836, 0.03966929763555527, 0.09751234948635101, 0.014938331209123135, -0.05152617394924164, -0.2556303143501282, 0.008561424911022186, -0.039526160806417465, 0.12920604646205902, -0.22693464159965515, 0.047328025102615356, -0.18138161301612854, 0.03605298697948456, 0.14189913868904114, 0.15754643082618713, -0.0041365730576217175, 0.02822200208902359, -0.1540578156709671, -0.0021500287111848593, 0.061291322112083435, 0.2512792646884918, -0.12881597876548767, -0.05365730822086334, 0.16360585391521454, 0.26471346616744995, 0.05270563066005707, 0.034617215394973755, -0.18801634013652802, 0.11797713488340378, 0.13137105107307434, -0.13720370829105377, 0.1108366847038269, 0.1980547308921814, 0.043200377374887466, 0.06594555079936981, -0.07912126183509827, 0.011244643479585648, -0.08363029360771179, 0.0630263090133667, 0.015437396243214607, 0.4516608417034149, -0.3794504404067993, 0.05471215397119522, -0.2455054372549057, 0.395558625459671, -0.03359435498714447, -0.433352530002594, 0.15053480863571167, 0.21417942643165588, -0.4517161250114441, 0.1897200047969818, 0.15213938057422638, 0.32970044016838074, -0.31256192922592163, -0.07621307671070099, -0.4067259728908539, 0.07793503254652023, 0.1496637463569641, 0.3177843689918518, -0.21375392377376556, 0.037968747317790985, -0.3511694073677063, 0.24143661558628082, 0.1597367525100708, 0.40450528264045715, -0.3103336989879608, 0.07144737988710403, -0.36178773641586304, 0.11500804126262665, 0.03593903407454491, -0.19966983795166016, 0.22381629049777985, 0.06987443566322327, -0.5115933418273926, 0.25894683599472046, 0.18174204230308533, -0.3404856324195862, 0.30443277955055237, 0.09558600187301636, -0.3383224904537201, 0.22418491542339325, 0.022616107016801834, 0.22052274644374847, -0.3388215899467468, 0.03011014498770237, 0.039209701120853424, 0.04746941477060318, 0.035403475165367126, 0.24429431557655334, -0.08277913928031921, -0.08843380957841873, -0.31203630566596985, 0.11713726073503494, 0.12233516573905945, -0.26657891273498535, 0.06617671996355057, 0.15610387921333313, -0.11655906587839127, -0.11124135553836823, 0.10159970074892044, 0.17469409108161926, 0.039769187569618225, -0.07753531634807587, -0.2867371439933777, 0.05096995085477829, 0.16707363724708557, 0.19669097661972046, 0.10827093571424484, -0.3466893136501312, -0.24237819015979767, 0.1057850643992424, 0.17836666107177734, 0.3473854959011078, -0.03021247312426567, -0.09063292294740677, -0.3766341805458069, -0.02913728356361389, 0.20578733086585999, -0.09723010659217834, -0.05321190506219864, 0.07285799086093903, -0.24785871803760529, -0.0056888083927333355, 0.3382468819618225, -0.26971808075904846, 0.1189168244600296, 0.1263868510723114, -0.2524857223033905, -0.016665149480104446, 0.2948471009731293, 0.27823275327682495, -0.05231694504618645, -0.320869117975235, -0.0353931188583374, -0.17426255345344543, -0.12033732980489731, 0.12467983365058899, -0.1289629340171814, 0.14805305004119873, -0.19292990863323212, 0.10038239508867264, 0.09817492216825485, -0.3065390884876251, 0.2589412331581116, 0.016823867335915565, -0.2822904884815216, 0.27569979429244995, -0.14140088856220245, 0.24908137321472168, -0.30563750863075256, 0.007392487023025751, -0.21580320596694946, 0.2742726504802704, -0.13006646931171417, 0.29753199219703674, -0.2522051930427551, -0.0646023377776146, -0.37497690320014954, 0.057573068886995316, 0.08771322667598724, 0.18077826499938965, -0.20269423723220825, 0.06556782871484756, -0.12588855624198914, 0.34288516640663147, 0.09691397100687027, 0.00937854778021574, 0.17810873687267303, 0.09631288051605225, -0.286094605922699, 0.2715159058570862, 0.13505229353904724, -0.31740137934684753, 0.3186537027359009, -0.07876800000667572, -0.24066375195980072, 0.34685084223747253, -0.04153002053499222, 0.22698859870433807, -0.2691383361816406, 0.1981908679008484, -0.04470955580472946, -0.08710595220327377, 0.10734093189239502, -0.2263743281364441, -0.2948198616504669, 0.0995444804430008, 0.24987606704235077, 0.15029655396938324, -0.020655574277043343, 0.246358260512352, 0.27416375279426575, -0.1651245802640915, 0.09624181687831879, 0.12317488342523575, -0.22056542336940765, -0.10851313918828964, -0.05176588147878647, 0.23798376321792603, 0.05116279423236847, 0.11488431692123413, -0.22296176850795746, -0.023580342531204224, -0.24825097620487213, -0.009416338056325912, 0.10139632970094681, 0.21784065663814545, -0.2756217420101166, 0.03464261814951897, -0.09582854062318802, 0.017979690805077553, 0.08304622024297714, 0.2940351665019989, -0.22202752530574799, 0.07847712934017181, 0.17225663363933563, -0.043199557811021805, 0.2146429419517517, 0.2661615014076233, 0.0014674082631245255, 0.031144332140684128, 0.3235018849372864, -0.1774357110261917, 0.27070534229278564, 0.044000349938869476, -0.22777293622493744, 0.003123682690784335, -0.08837396651506424, 0.1571110039949417, -0.02734757773578167, -0.0653475746512413, -0.00349816563539207, -0.10093242675065994, 0.025327760726213455, 0.07401558011770248, 0.06399467587471008, -0.049698296934366226, 0.119441457092762, 0.06160225719213486, -0.018296146765351295, -0.06758225709199905, 0.03540043905377388, -0.013198950327932835, 0.016422057524323463, 0.014932951889932156, 0.4760097563266754, -0.5710353255271912, 0.7784057855606079, -0.6479666233062744, -0.10283584147691727, 0.9398381114006042, 0.947439432144165, -0.4474765360355377, 0.381952702999115, 0.16779208183288574, -0.697997510433197, -0.3050053119659424, 0.16798549890518188, -0.9406377673149109, 0.1512996405363083, 0.5044539570808411, -0.009367000311613083, 0.12939833104610443, 0.006515678949654102, -0.034877315163612366, 0.4461594223976135, -0.04881845787167549, 0.16747260093688965, -0.20582474768161774, -0.0892750695347786, 0.15331053733825684, 0.013584796339273453, -0.12854821979999542, -0.01573466695845127, 0.18918192386627197, -0.2298562079668045, -0.33660945296287537, 0.15419824421405792, -0.20362809300422668, -0.3361239433288574, 0.2151273787021637, -0.010204055346548557, 0.09244391322135925, 0.043515391647815704, 0.12840113043785095, 0.11248823255300522, 0.12972727417945862, -0.31819573044776917, -0.006168588064610958, -0.20438110828399658, -0.37348777055740356, -0.07997223734855652, 0.40640100836753845, -0.1536715030670166, 0.283954381942749, -0.10969715565443039, 0.2175082564353943, -0.1186758354306221, -0.3469041585922241, -0.06379856169223785, -0.11498944461345673, -0.16146019101142883, -0.19730381667613983, 0.6682796478271484, -0.09038124233484268, 0.35159972310066223, 0.700332760810852, 0.23476983606815338, -0.033069152384996414, 0.468458354473114, -0.27845239639282227, -0.005137508735060692, -0.4118676781654358, 0.4005134105682373, 0.3102033734321594, 0.4522945284843445, -0.4991481602191925, -0.038852691650390625, 0.35019612312316895, -0.22437170147895813, -0.3823469877243042, 0.2512681782245636, 0.11877277493476868, -0.17765207588672638, -0.38040590286254883, -0.2319130003452301, -0.30168604850769043, -0.37362951040267944, 0.08969350904226303, 0.5795564651489258, 0.12527996301651, 0.16166795790195465, -0.13892214000225067, 0.14281636476516724, 0.3412352204322815, -0.38531532883644104, 0.0732593983411789, -0.5809122920036316, 0.14023759961128235, -0.5320610404014587, -0.06837942451238632, -0.1409851312637329, -0.3197353482246399, 0.3141425549983978, -0.1272965371608734, 0.41869235038757324, 0.4700295925140381, 0.290377676486969, 0.0931084081530571, 0.365890234708786, 0.194271981716156, -0.4858863055706024, -0.22080014646053314, -0.3370370864868164, -0.36930280923843384, -0.2651887834072113, 0.008968857116997242, -0.04998696595430374, 0.3060126304626465, 0.06014763191342354, 0.30502453446388245, -0.37544333934783936, -0.3823087215423584, -0.10628321021795273, 0.1019224300980568, -0.05997171998023987, -0.42687469720840454, 0.09376002103090286, 0.362151563167572, 0.24144798517227173, -0.12302882224321365, 0.26206493377685547, 0.00032068605651147664, 0.2289508879184723, -0.04061957448720932, 0.34142327308654785, -0.3527195155620575, -0.1362917274236679, 0.26078346371650696, 0.2918168306350708, -0.07575712352991104, 0.2999289631843567, -0.04900071769952774, 0.024287089705467224, -0.3388846516609192, 0.130888894200325, -0.23907366394996643, -0.040547583252191544, -0.0899704173207283, -0.24370257556438446, 0.13432814180850983, -0.32955360412597656, -0.2036261409521103, 0.18111175298690796, -0.27470195293426514, -0.15886789560317993, -0.03058086335659027, -0.3319835364818573, -0.2718588709831238, 0.45838266611099243, 0.14070306718349457, 0.06018254533410072, 0.2743680477142334, -0.010793815366923809, -0.039916906505823135, -0.33288630843162537, 0.10870242863893509, 0.1812177300453186, -0.1983281970024109, -0.7345260381698608, 0.028423817828297615, 0.07840660214424133, -0.1190597414970398, 0.10285214334726334, 0.08614664524793625, 0.10949903726577759, 0.14894814789295197, 0.8187940716743469, -0.06742680817842484, 0.5795226693153381, 0.23347915709018707, 0.03558013215661049, 0.35966238379478455, -0.4365653097629547, 0.215447798371315, -0.21121355891227722, -0.3583446741104126, -0.09212712198495865, -0.0017967522144317627, -0.06454025208950043, -0.203994020819664, 0.03399067744612694, 0.10313737392425537, -0.04691781476140022, 0.2473340779542923, 0.17623960971832275, 0.33672815561294556, 0.1811944991350174, -0.15002954006195068, 0.24113750457763672, 0.009423856623470783, 0.007762356195598841, -0.0016180769307538867, 0.0552823543548584, -0.11783801764249802, -0.0029252858366817236, -0.12974560260772705, -0.15777148306369781, -0.20123666524887085, -0.07471679896116257, 0.018511952832341194, -0.1340240240097046, -0.24045789241790771, -0.026029301807284355, -0.021750938147306442, 0.21980071067810059, 0.12489275634288788, -0.0439264252781868, -0.13856051862239838, -0.08705654740333557, 0.15595875680446625, 0.1616348773241043, -0.05618474632501602, -0.07210054993629456, 0.16737042367458344, 0.12141505628824234, -0.14696744084358215, -0.11252570152282715, 0.26103800535202026, 0.07559651881456375, -0.3369753658771515, 0.011890523135662079, 0.22993281483650208, -0.18384361267089844, 0.2533069849014282, 0.07990515977144241, 0.3417716920375824, 0.05411229655146599, -0.14048850536346436, -0.09210558235645294, 0.12229537963867188, -0.36991482973098755, -0.08796951174736023, -0.3405214846134186, 0.42868176102638245, -0.25189009308815, 0.35050180554389954, -0.2680950164794922, -0.06892487406730652, 0.12605439126491547, -0.12646037340164185, 0.03820677474141121, 0.17895744740962982, -0.3004928529262543, 0.08968555182218552, 0.21497556567192078, 0.007897173054516315, 0.010000629350543022, 0.33825621008872986, -0.1896904855966568, 0.05113357678055763, 0.23147477209568024, 0.13054394721984863, 0.15885667502880096, -0.2293284386396408, 0.014290581457316875, 0.1766572743654251, 0.2499970644712448, -0.14567071199417114, -0.1535831242799759, -0.040361832827329636, 0.040133919566869736, -0.33320772647857666, 0.33529168367385864, 0.27206557989120483, 0.27609914541244507, -0.2537606656551361, 0.2873717248439789, -0.4119846224784851, 0.2788150906562805, -0.34423738718032837, -0.13650789856910706, 0.18626131117343903, 0.07751690596342087, 0.08747769147157669, -0.10260274261236191, 0.020581500604748726, 0.035338144749403, -0.045624930411577225, 0.10018127411603928, -0.09941647201776505, 0.08933014422655106, 0.09242560714483261, 0.2248680740594864, 0.08913341909646988, 0.20167545974254608, -0.1303752213716507, -0.18693609535694122, -0.0972026064991951, 0.005312293767929077, 0.1485411822795868, 0.40165746212005615, -0.17271307110786438, -0.17793916165828705, -0.212110698223114, -0.19481202960014343, -0.25370657444000244, 0.19984349608421326, 0.27631667256355286, -0.04400491714477539, -0.05093708261847496, -0.1617431491613388, 0.0036000232212245464, 0.21655917167663574, 0.18789666891098022, -0.0564650222659111, -0.3025861382484436, -0.13811051845550537, 0.06130348891019821, 0.04929758235812187, 0.06554705649614334, 0.07073840498924255, -0.4793287515640259, -0.21634434163570404, 0.02437678538262844, 0.23279201984405518, -0.08088210970163345, -0.20216931402683258, -0.2500300407409668, -0.1398146003484726, 0.20459626615047455, 0.2509365379810333, -0.40468573570251465, -0.05693037062883377, -0.22845202684402466, -0.14033155143260956, 0.2085074931383133, 0.3441299796104431, 0.24682840704917908, -0.13021060824394226, -0.2443072348833084, 0.14286953210830688, 0.11237002164125443, 0.20125827193260193, -0.3358862102031708, -0.12223108112812042, -0.013014605268836021, -0.12330695986747742, -0.11230085045099258, 0.16355621814727783, -0.10745247453451157, 0.03582669794559479, -0.1789654642343521, -0.43125367164611816, -0.09110937267541885, 0.05976086109876633, 0.09793762117624283, 0.05739530175924301, -0.0006701178499497473, 0.11464834958314896, -0.12899565696716309, 0.06708159297704697, 0.4287388026714325, 0.15327982604503632, 0.030267933383584023, -0.25794070959091187, -0.12697860598564148, 0.03840325027704239, 0.5771190524101257, 0.1476833075284958, 0.038381513208150864, -0.21105238795280457, -0.12807521224021912, -0.035825613886117935, 0.02308599278330803, -0.03230423480272293, 0.009111247956752777, -0.16026458144187927, -0.09956946969032288, 0.05817703902721405, -0.4685233235359192, -0.13612809777259827, -0.254146546125412, -0.1595742553472519, -0.16504555940628052, 0.04611128196120262, 0.2521340548992157, 0.20789667963981628, -0.08103195577859879, -0.22318731248378754, -0.21827208995819092, 0.10012880712747574, 0.36241981387138367, 0.16729258000850677, -0.17851310968399048, 0.14946705102920532, -0.4389684200286865, 0.15436960756778717, -0.15950331091880798, 0.2167072743177414, -0.047023992985486984, -0.24723048508167267, 0.3194054365158081, -0.33223918080329895, -0.18925389647483826, 0.41913869976997375, -0.01743747852742672, 0.4120487868785858, -0.44480380415916443, -0.06965509057044983, -0.3151271343231201, 0.18843692541122437, 0.00306707969866693, 0.179077610373497, -0.4358678460121155, 0.05230969563126564, -0.20136110484600067, -0.007029102183878422, -0.014752042479813099, 0.15995445847511292, -0.44228383898735046, 0.10449187457561493, -0.20487481355667114, 0.27347856760025024, 0.15992240607738495, 0.3542678952217102, -0.1779911071062088, -0.025065314024686813, 0.3145718574523926, 0.031420256942510605, -0.23729395866394043, 0.09234755486249924, -0.39094582200050354, 0.19279131293296814, -0.4257805645465851, 0.18946924805641174, 0.21800675988197327, 0.11052875965833664, 0.13802391290664673, -0.07419868558645248, -0.24478371441364288, -0.07946855574846268, 0.22264716029167175, -0.0005462902481667697, -0.05781666561961174, -0.17723357677459717, 0.24596655368804932, 0.14957192540168762, -0.15296736359596252, -0.18740178644657135, 0.08278799057006836, 0.2564011812210083, 0.0037682063411921263, 0.012374626472592354, -0.047912079840898514, -0.0701582059264183, 0.07592456787824631, 0.09247417002916336, -0.039815209805965424, -0.043718092143535614, -0.058495160192251205, 0.004608146846294403, -0.07600300759077072, 0.08925992250442505, 0.14502570033073425, -0.3536219894886017, -0.3342277407646179, -0.003443000605329871, -0.07649435847997665, 0.1382031887769699, 0.22855538129806519, 0.08007162064313889, 0.03920337185263634, -0.08055516332387924, 0.036722421646118164, 0.030430197715759277, -0.08702187985181808, -0.24070054292678833, 0.21068750321865082, -0.12588514387607574, 0.0414075069129467, 0.11281351745128632, 0.24470940232276917, 0.16469572484493256, -0.15947632491588593, -0.3893691599369049, -0.04856586828827858, -0.15885412693023682, 0.4505040645599365, 0.07443012297153473, 0.14981941878795624, 0.08173967152833939, 0.04894842952489853, -0.39204585552215576, -0.21856658160686493, 0.20334668457508087, 0.28482064604759216, 0.6125666499137878, -0.04119214788079262, -0.08109576255083084, -0.36930111050605774, 0.06079627946019173, 0.08112571388483047, 0.2820577025413513, -0.19495251774787903, -0.19816645979881287, -0.2554052472114563, 0.10401476919651031, 0.3010098338127136, 0.31159505248069763, 0.08124081790447235, -0.23084944486618042, -0.3838139474391937, -0.031169423833489418, 0.10887014865875244, 0.38503143191337585, -0.09454884380102158, -0.22865034639835358, -0.28934264183044434, 0.1746809184551239, 0.33660709857940674, 0.011248722672462463, -0.23513084650039673, -0.19447048008441925, 0.29476624727249146, -0.08852660655975342, 0.02677673101425171, 0.16765613853931427, -0.14080822467803955, -0.3862789571285248, -0.1291007697582245, 0.13301287591457367, 0.09108251333236694, -0.2094784677028656, -0.18055175244808197, 0.05025313049554825, 0.006377862766385078, 0.11765868216753006, -0.052858661860227585, 0.014161097817122936, -0.17233985662460327, -0.0218692384660244, -0.1638696789741516, 0.12212493270635605, 0.21562327444553375, -0.009594409726560116, 0.4712989032268524, 0.39274686574935913, 0.017887791618704796, 0.06928171217441559, 0.07091044634580612, 0.1576872020959854, -0.30136555433273315, -0.25002142786979675, -0.029313553124666214, -0.07160336524248123, 0.1378084123134613, 0.2387957125902176, 0.050448838621377945, -0.08400486409664154, 0.10602298378944397, -0.07862009853124619, 0.03069179318845272, 0.21318131685256958, -0.013293838128447533, 0.011437551118433475, -0.051815617829561234, -0.058337435126304626, 0.1687033623456955, 0.27118492126464844, 0.1649342030286789, 0.07423863559961319, 0.07076691091060638, -0.15474173426628113, -0.05450374633073807, 0.030684595927596092, 0.016179926693439484, -0.1764058619737625, -0.2074000984430313, -0.0541868582367897, 0.08113216608762741, 0.024350140243768692, -0.10420463234186172, -0.12496720254421234, -0.025090789422392845, 0.219739630818367, 0.05001180246472359, -0.011706572026014328, -0.18071652948856354, 0.2900497019290924, 0.22980830073356628, 0.08693242073059082, -0.06232152879238129, -0.5751611590385437, 0.18950879573822021, 0.20850595831871033, 0.1544826775789261, 0.12218643724918365, -0.10512607544660568, 0.1275579333305359, -0.08596377819776535, 0.1830340474843979, -0.03950180485844612, 0.07306397706270218, -0.2726953327655792, -0.011933671310544014, -0.20107905566692352, 0.048440445214509964, 0.22240349650382996, 0.03471362218260765, -0.3586009740829468, 0.04848143085837364, -0.09042680263519287, 0.2518392503261566, -0.009284758940339088, 0.0730891078710556, -0.18150535225868225, 0.14258825778961182, 0.20268525183200836, 0.3590512275695801, -0.22228161990642548, 0.17871177196502686, -0.02625289186835289, -0.15589645504951477, -0.12042585015296936, 0.15629355609416962, 0.08579269051551819, -0.07573087513446808, -0.20474229753017426, 0.03419850766658783, -0.05090159550309181, -0.11753573268651962, -0.023599078878760338, 0.13641496002674103, 0.13478094339370728, -0.18405339121818542, 0.02357790619134903, 0.020205141976475716, 0.09285393357276917, -0.12349440902471542, -0.16281984746456146, -0.1891530603170395, -0.037635065615177155, -0.18402579426765442, 0.17253398895263672, -0.15707314014434814, 0.00550268217921257, -0.0632423684000969, -0.0066011156886816025, 0.12844358384609222, 0.15155114233493805, -0.11359650641679764, 0.01979193463921547, -0.06979469954967499, -0.08312135934829712, 0.09606880694627762, 0.34937143325805664, -0.08055844902992249, -0.11177365481853485, -0.037474121898412704, -0.033692773431539536, 0.00941078644245863, 0.10288237780332565, -0.17118589580059052, -0.06418590992689133, -0.29970023036003113, -0.09825725108385086, -0.08303895592689514, -0.3698088824748993, 0.04249901697039604, -0.012801083736121655, -0.015649696812033653, 0.09398132562637329, 0.044385991990566254, 0.11116854101419449, -0.08189846575260162, -0.08348775655031204, 0.12864239513874054, 0.24684639275074005, 0.08282193541526794, -0.13167166709899902, -0.26864442229270935, -0.26135900616645813, 0.3081033527851105, 0.2359723448753357, 0.1582300066947937, -0.07803191989660263, -0.05324896425008774, -0.06423425674438477, -0.5785903930664062, -0.07621430605649948, 0.01095921266824007, -0.23249664902687073, 0.05081553012132645, 0.0758054181933403, 0.2541956305503845, 0.05730731040239334, -0.039100855588912964, -0.21741780638694763, -0.11252191662788391, 0.167719766497612, 0.11568331718444824, -0.03316488862037659, 0.05322704464197159, 0.3847735524177551, 0.166107177734375, 0.04739353433251381, 0.20572203397750854, -0.0070199063047766685, -0.11950819194316864, -0.19653695821762085, -0.08132366836071014, 0.18723124265670776, 0.158851757645607, 0.26170414686203003, 0.10244880616664886, 0.017255861312150955, -0.15147647261619568, -0.21914079785346985, 0.1136428564786911, 0.011811429634690285, -0.022860171273350716, -0.15016748011112213, -0.046523064374923706, -0.021662304177880287, 0.2379167675971985, 0.10644076764583588, 0.08919722586870193, -0.32349658012390137, 0.01830311119556427, 0.10248506814241409, -0.3607151210308075, -0.08714325726032257, 0.3811992406845093, 0.19118420779705048, 0.20378831028938293, -0.1974371075630188, -0.0026932291220873594, 0.2128220647573471, -0.30091872811317444, 0.1703386902809143, -0.016028381884098053, -0.31078797578811646, -0.2174558937549591, -0.1616724729537964, 0.3200918436050415, 0.11187759041786194, 0.03365097939968109, -0.2752302587032318, -0.2516133785247803, 0.06975968927145004, 0.3593143820762634, -0.060041021555662155, -0.3691047430038452, -0.08891932666301727, -0.3482379913330078, -0.03596870228648186, 0.44820576906204224, 0.3218415379524231, 0.044102560728788376, -0.2556373178958893, -0.30141904950141907, -0.16749079525470734, 0.15980681777000427, -0.32125866413116455, 0.05864874646067619, 0.1740388125181198, -0.3156728148460388, -0.1831374615430832, 0.45809340476989746, 0.20539674162864685, 0.013830864802002907, -0.3030882775783539, 0.07251577824354172, 0.24824018776416779, 0.016324743628501892, -0.23266097903251648, -0.1172192320227623, -0.2564740478992462, -0.15864437818527222, -0.22394715249538422, -0.08953636884689331, -0.20589295029640198, -0.012063980102539062, -0.015846088528633118, 0.45231902599334717, 0.09663697332143784, -0.5037395358085632, 0.4422367811203003, 0.6088117957115173, 0.543982207775116, -0.10794506967067719, -0.01892530359327793, 0.06578946858644485, 0.11056572198867798, 0.4960748553276062, 0.5710720419883728, -0.24673780798912048, -0.4350106418132782, -0.4082169532775879, -0.9542208909988403, 0.006835245061665773, 0.40023940801620483, -0.09788784384727478, -0.38173210620880127, -0.4059964716434479, 0.10870081186294556, 0.18845880031585693, 0.05779889225959778, 0.03039632737636566, -0.07422900944948196, 0.0007802221225574613, 0.4389195442199707, -0.10230850428342819, -0.07045850157737732, -0.11620283871889114, -0.2494010478258133, -0.3041418492794037, -0.2113915979862213, -0.07227285951375961, 0.08759066462516785, 0.29573503136634827, 0.22599369287490845, 0.14095723628997803, -0.2632788121700287, -0.3132859468460083, -0.3655628263950348, -0.06820527464151382, 0.02668781578540802, 0.19088268280029297, -0.12907619774341583, 0.009320247918367386, -0.16129453480243683, -0.4126857817173004, -0.06388978660106659, -0.731942355632782, 0.2973916828632355, 0.6751419901847839, 0.23956739902496338, -0.03944890946149826, -0.21486008167266846, 0.18528684973716736, 0.25623413920402527, 0.4004439115524292, 0.11102345585823059, -0.011210951022803783, -0.4417421817779541, -0.21192742884159088, -0.07840128988027573, 0.23123162984848022, 0.39861956238746643, -0.13898275792598724, -0.1690404862165451, -0.04657803475856781, -0.13804011046886444, 0.14333641529083252, -0.11382950097322464, 0.0016568595310673118, -0.07558679580688477, 0.21872758865356445, 0.03417761251330376, -0.09956695139408112, -0.16438758373260498, 0.044406551867723465, -0.15166378021240234, -0.11728227138519287, -0.10430539399385452, 0.07712829113006592, -0.04608647897839546, -0.012970101088285446, 0.19619041681289673, 0.04348071664571762, 0.10586321353912354, 0.03642009198665619, -0.16721421480178833, 0.20485371351242065, 0.30802929401397705, -0.3316543400287628, -0.23745311796665192, -0.15035952627658844, -0.010490762069821358, 0.08794592320919037, 0.12715600430965424, 0.14732684195041656, -0.1367492526769638, -0.2409016191959381, 0.48627400398254395, 0.11951685696840286, 0.020662371069192886, -0.20043687522411346, -0.18067990243434906, -0.1986418515443802, 0.3849502503871918, -0.0566411092877388, 0.22026798129081726, -0.1876613348722458, -0.0469718873500824, -0.45767852663993835, -0.26661619544029236, 0.19222283363342285, 0.2482692450284958, -0.23817969858646393, 0.002472597872838378, -0.25144854187965393, 0.18139739334583282, 0.31909915804862976, 0.11250568181276321, -0.016113057732582092, 0.21935006976127625, 0.07877672463655472, -0.044465791434049606, 0.21790951490402222, 0.16866983473300934, -0.27305424213409424, -0.08095163851976395, 0.04024045541882515, 0.17367641627788544, -0.03625737875699997, -0.04866049438714981, 0.16446495056152344, -0.041601043194532394, 0.008261834271252155, 0.014785830862820148, 0.007010386325418949, -0.2158193141222, 0.37278640270233154, 0.02032032236456871, 0.10392649471759796, -0.039007287472486496, -0.19332793354988098, 0.1902821660041809, 0.4033729135990143, 0.06561949849128723, 0.17295622825622559, -0.3280104100704193, -0.11983846127986908, -0.054727260023355484, 0.17272427678108215, 0.22037440538406372, 0.13383543491363525, -0.31429070234298706, -0.0747223049402237, -0.16994664072990417, 0.3296137750148773, 0.06792443245649338, -0.2218502014875412, -0.32185041904449463, -0.12413567304611206, -0.12097305059432983, 0.1646328717470169, 0.05445864051580429, 0.10950856655836105, -0.22324904799461365, -0.21389161050319672, -0.12627415359020233, 0.230682373046875, -0.02639039419591427, 0.003537264419719577, -0.044615887105464935, -0.13948632776737213, -0.15941455960273743, 0.17758899927139282, 0.06588103622198105, 0.009238778613507748, -0.10015328973531723, 0.16204364597797394, 0.08596475422382355, -0.1912853717803955, -0.4525628089904785, 0.10668344050645828, -0.007267572917044163, -0.24749138951301575, 0.5483511090278625, 0.09211903065443039, 0.3439370095729828, -0.24989083409309387, -0.04435128718614578, 0.11692780256271362, -0.548224687576294, 0.5695000886917114, 0.3862239122390747, -0.4611150622367859, -0.03133508935570717, -0.31824880838394165, 0.37588831782341003, 0.07214651256799698, 0.3008970320224762, -0.33693599700927734, -0.14647826552391052, -0.2153223305940628, 0.22302883863449097, -0.031016385182738304, 0.022538164630532265, 0.13428832590579987, -0.31661975383758545, -0.3268491327762604, 0.4243624210357666, 0.2176007777452469, 0.4546712338924408, -0.25038033723831177, -0.19505220651626587, -0.16263273358345032, 0.3216068744659424, 0.19532670080661774, -0.4220547676086426, -0.012703388929367065, 0.17895211279392242, -0.4200528860092163, 0.3704726994037628, -0.11439365148544312, 0.49557289481163025, -0.20091938972473145, -0.11551318317651749, -0.17576172947883606, 0.017131878063082695, 0.10522742569446564, 0.06506600975990295, 0.022403515875339508, -0.20421169698238373, 0.08029087632894516, 0.018927883356809616, 0.07401127368211746, -0.06630627065896988, 0.002446732483804226, 0.059394385665655136, 0.023399466648697853, -0.21175023913383484, -0.01466134563088417, -0.0735713392496109, -0.05036815628409386, 0.1025574803352356, 0.04639192670583725, 0.06446170806884766, -0.4538081884384155, -0.03685993328690529, -0.13494040071964264, -0.0545041486620903, -0.07197228819131851, -0.09642200171947479, -0.07367502152919769, -0.3229803740978241, 0.19928637146949768, -0.011713814921677113, 0.07214777171611786, 0.09288453310728073, -0.23060591518878937, -0.10182659327983856, -0.017559396103024483, 0.2482626736164093, 0.10497095435857773, 0.02865062654018402, -0.01811557449400425, 0.31634604930877686, 0.2986811697483063, -0.16909410059452057, 0.09747327864170074, -0.13738258183002472, 0.004769495222717524, -0.08786820620298386, 0.07981182634830475, 0.34939879179000854, 0.2842680811882019, 0.16779965162277222, -0.05284828320145607, 0.1537754088640213, -0.26075080037117004, 0.07261571288108826, 0.037980817258358, 0.0902828499674797, 0.019756101071834564, -0.008572280406951904, 0.23004662990570068, 0.3542318344116211, 0.2360939383506775, 0.07599321752786636, 0.11453934013843536, 0.022470718249678612, -0.6497721672058105, 0.4681829512119293, 0.09313824027776718, -0.6479431390762329, 0.5465577244758606, -1.1159762144088745, -0.6741206645965576, -0.09297368675470352, 0.696991503238678, -1.5186854600906372, 0.059041861444711685, -0.8635696172714233, 0.4252992272377014, -1.335327386856079, 0.1861671507358551, -0.8707008957862854, -0.03658919781446457, -0.07617630809545517, 0.08072314411401749, 0.20733441412448883, 0.36063873767852783, -0.10511981695890427, 0.01268287654966116, 0.12761469185352325, -0.15132401883602142, -0.28767523169517517, -0.07193563878536224, 0.17803063988685608, -0.17561602592468262, 0.04801216349005699, -0.21986371278762817, -0.05947656184434891, 0.14203250408172607, -0.2670062482357025, -0.3978690207004547, 0.029789797961711884, -0.32003071904182434, 0.20923656225204468, -0.2553402781486511, -0.1996338665485382, 0.2482156753540039, -0.15412873029708862, 0.04417029023170471, 0.23309384286403656, 0.23146973550319672, -0.06279604882001877, 0.33579832315444946, 0.004293207544833422, -0.2054823935031891, -0.09798659384250641, 0.4117584228515625, 0.30981022119522095, -0.16168592870235443, 0.12416625022888184, 0.0898025706410408, 0.05348338186740875, -0.17857874929904938, 0.04626383259892464, -0.12679341435432434, -0.014797501266002655, -0.0675477460026741, 0.09215310961008072, -0.13355198502540588, -0.17712494730949402, 0.2670332193374634, 0.003284748876467347, -0.17685137689113617, -0.023270616307854652, -0.2362765371799469, -0.21508225798606873, -0.09345725178718567, 0.11637832969427109, -0.05313126742839813, -0.35134148597717285, -0.019751355051994324, 0.017864074558019638, 0.46295878291130066, -0.3231000006198883, 0.026982564479112625, -0.03948273882269859, 0.056368693709373474, 0.09279857575893402, -0.21192342042922974, 0.4907389283180237, -0.21501567959785461, -0.6680952310562134, -0.016667697578668594, 0.8867995142936707, -0.5095028281211853, 0.03575751185417175, -0.22115269303321838, 0.272484689950943, -0.012194039300084114, -0.04779811576008797, 0.06934376806020737, -0.5181318521499634, -0.2194657027721405, -0.2545386552810669, -0.45130202174186707, -0.13169515132904053, 0.21703128516674042, -0.23908142745494843, -0.015222840011119843, -0.1914462149143219, 0.16698220372200012, 0.14177092909812927, -0.19445237517356873, -0.18352632224559784, 0.07287460565567017, -0.08329340815544128, 0.20151270925998688, 0.3289361596107483, 0.28911292552948, -0.16781717538833618, 0.5857127904891968, -0.34918516874313354, 0.098763108253479, 0.5566006898880005, 0.018563510850071907, -0.572327196598053, 0.31588107347488403, -0.25209999084472656, -0.23191411793231964, 0.26719173789024353, -0.25500577688217163, -0.03659989312291145, -0.49908408522605896, 0.31259745359420776, 0.2723870575428009, -0.07684554159641266, 0.27576079964637756, -0.3707040250301361, 0.12948481738567352, 0.17289206385612488, 0.04537251219153404, -0.15484444797039032, 0.036871086806058884, 0.33195334672927856, -0.3318597972393036, -0.022081762552261353, -0.31845441460609436, 0.2103235423564911, -0.07578644901514053, 0.4085513651371002, 0.02355019375681877, 0.06576462090015411, -0.09474766999483109, -0.1726834923028946, -0.33628594875335693, -0.09550601243972778, 0.03574692830443382, -0.04322664067149162, -0.030580488964915276, 0.18851949274539948, 0.3315785527229309, -0.01571531407535076, -0.2731281816959381, 0.15508311986923218, 0.04191943630576134, 0.19818028807640076, -0.154403954744339, -0.042097363620996475, 0.14745530486106873, 0.024422070011496544, -0.058061085641384125, 0.00971064530313015, 0.2469411939382553, -0.15562120079994202, -0.0947827622294426, 0.2848735451698303, -0.10353323817253113, 0.14376220107078552, 0.04945242404937744, 0.4126858711242676, 0.020809996873140335, -0.0019988357089459896, -0.2607451379299164, -0.08965429663658142, -0.17604029178619385, -0.01239812932908535, -0.12824015319347382, -0.11940065771341324, -0.11285919696092606, 0.07574129104614258, 0.15851733088493347, 0.16806505620479584, -0.25401607155799866, 0.2512989938259125, 0.0495833083987236, 0.030389394611120224, -0.07951100170612335, -0.12226752191781998, 0.06384770572185516, 0.2346871942281723, -0.4532521665096283, 0.22756801545619965, -0.2811470329761505, -0.08822423219680786, 0.1530604213476181, 0.17767494916915894, -0.21040493249893188, 0.2627484202384949, 0.020881209522485733, -0.23711970448493958, 0.031893812119960785, -0.07663283497095108, 0.3248828649520874, -0.19048860669136047, -0.291672021150589, -0.14066044986248016, -0.44917821884155273, -0.06397265940904617, 0.007495569530874491, -0.15870538353919983, -0.2428431212902069, 0.10390503704547882, -0.15433953702449799, -0.13320332765579224, -0.1725437492132187, -0.3142629861831665, 0.45713239908218384, -0.32671934366226196, 0.23771938681602478, -0.03308285400271416, 0.11776673793792725, -0.028701430186629295, -0.09426502138376236, 0.11725656688213348, -0.3523098826408386, 0.07364547252655029, -0.12971612811088562, -0.02547910250723362, 0.19721803069114685, 0.23087958991527557, 0.06451278179883957, -0.027078602463006973, 0.28884783387184143, 0.08979720622301102, 0.10138815641403198, -0.02488838881254196, -0.1140374168753624, 0.12820981442928314, 0.05564802512526512, 0.025671128183603287, -0.44643571972846985, -0.007637446746230125, 0.10772978514432907, -0.019706889986991882, -0.08978701382875443, 0.43482327461242676, -0.2337174266576767, 0.14261329174041748, -0.19035448133945465, 0.21134179830551147, 0.23906919360160828, 0.1796770691871643, 0.039352189749479294, -0.18178898096084595, 0.34624597430229187, 0.14485161006450653, -0.19334590435028076, -0.03425027057528496, -0.013793444260954857, 0.24290405213832855, 0.09275460243225098, -0.27307119965553284, 0.02171306684613228, 0.18572872877120972, -0.20880798995494843, 0.32590746879577637, -0.3933851420879364, -0.32969605922698975, 0.16188493371009827, -0.35602065920829773, 0.1529802680015564, -0.22365707159042358, -0.07078956067562103, 0.2064719796180725, 0.08672591298818588, 0.22092102468013763, -0.053287483751773834, 0.07865965366363525, 0.09639045596122742, -0.2422514259815216, 0.29130885004997253, -0.4053698182106018, -0.07737910002470016, -0.025082897394895554, 0.1479366421699524, -0.17322644591331482, -0.21631594002246857, -0.037433139979839325, -0.036192383617162704, 0.09636843204498291, -0.0667368695139885, 0.06515718996524811, 0.05234618857502937, 0.18919190764427185, -0.1327652633190155, -0.20180444419384003, 0.1707296222448349, 0.09383883327245712, -0.14364072680473328, 0.19464412331581116, 0.20804910361766815, 0.013272351585328579, -0.1310751885175705, 0.0061377002857625484, 0.20455282926559448, 0.174453005194664, 0.07146041840314865, -0.13171085715293884, -0.2108299732208252, 0.0675022304058075, 0.04884953424334526, 0.09471772611141205, -0.03773977980017662, -0.07829098403453827, -0.2003759741783142, 0.06286294758319855, -0.010972215794026852, -0.06079468876123428, -0.006739738862961531, -0.19929498434066772, -0.187357097864151, -0.05221020430326462, -0.09523528814315796, -0.17999422550201416, 0.226044699549675, -0.0009742401307448745, 0.05625243857502937, 0.12686677277088165, -0.044280994683504105, 0.2804909944534302, -0.13553860783576965, -0.036358579993247986, 0.014859206974506378, -0.36156365275382996, 0.28043192625045776, -0.015604156069457531, 0.2757056951522827, -0.29079362750053406, 0.1253945231437683, 0.1500072479248047, 0.0721483826637268, 0.039014704525470734, -0.12829819321632385, 0.010096629150211811, 0.26247638463974, 0.09481890499591827, 0.04746095836162567, -0.017308101058006287, 0.15046986937522888, -0.07245510071516037, 0.05238425359129906, -0.404468834400177, 0.030101094394922256, -0.2702274024486542, -0.12706072628498077, 0.0494140200316906, -0.04780423641204834, 0.08849424123764038, -0.2878592312335968, -0.01777220144867897, 0.30160272121429443, 0.058495983481407166, 0.12658052146434784, 0.09735415130853653, -0.12720546126365662, -0.08968514204025269, 0.23404110968112946, 0.0929524153470993, 0.04658472537994385, 0.2659010589122772, -0.0544251874089241, 0.03917998448014259, 0.21297334134578705, -0.2464246302843094, -0.10698837786912918, 0.31128817796707153, 0.013908261433243752, 0.22853530943393707, -0.2408745437860489, 0.1747199296951294, -0.1443069577217102, -0.05335964262485504, 0.06302738934755325, 0.3692973256111145, 0.05320052057504654, -0.19562232494354248, 0.27613818645477295, 0.05305327847599983, 0.040285803377628326, -0.22095640003681183, 0.026933137327432632, 0.15076249837875366, -0.206925630569458, -0.15142180025577545, 0.05514323338866234, 0.05131834000349045, -0.03855155035853386, 0.03214608132839203, 0.21386858820915222, 0.1750086098909378, -0.026755688712000847, -0.07866941392421722, 0.07840389013290405, 0.1954817771911621, 0.20590707659721375, 0.12174376100301743, 0.031713731586933136, -0.19623927772045135, 0.13235212862491608, 0.09107861667871475, 0.07450978457927704, 0.10890151560306549, -0.17983847856521606, -0.060071997344493866, 0.03632554039359093, 0.0644751787185669, 0.2534101605415344, 0.005807205103337765, -0.0626959279179573, 0.18652194738388062, -0.009671342559158802, -0.05911329761147499, 0.3407239019870758, -0.07746205478906631, -0.12501640617847443, -0.3276147246360779, -0.03888828679919243, 0.27608418464660645, -0.10670115798711777, -0.28766798973083496, 0.15005987882614136, -0.021895792335271835, 0.2945519983768463, -0.01283249445259571, -0.04346456006169319, 0.10343775153160095, -0.23324120044708252, 0.3002694845199585, 0.23338939249515533, -0.045995719730854034, 0.18837562203407288, -0.19154688715934753, -0.0668543353676796, 0.0006979487952776253, -0.22011494636535645, 0.1287352591753006, 0.0507340170443058, 0.03345621004700661, -0.22511622309684753, -0.04462500289082527, -0.14466844499111176, 0.02981194294989109, -0.030203694477677345, 0.09904153645038605, 0.03436882793903351, 0.047126635909080505, -0.15021896362304688, -0.0633382499217987, -0.08881016820669174, -0.011675230227410793, -0.1322811245918274, 0.22362220287322998, 0.04472343996167183, 0.05987892672419548, -0.051540520042181015, -0.06929194927215576, -0.08561577647924423, 0.21256905794143677, 0.0694475919008255, 0.005516421981155872, -0.027979230508208275, -0.05828740820288658, -0.007177942432463169, 0.20841588079929352, 0.04457898810505867, 0.22970537841320038, 0.1625482738018036, -0.13739913702011108, -0.1472434401512146, -0.19450794160366058, 0.05564030632376671, 0.17529933154582977, -0.16341370344161987, 0.061345525085926056, 0.11017261445522308, 0.1626487821340561, 0.1274481564760208, -0.2540595829486847, 0.07029576599597931, 0.011486032046377659, -0.13528329133987427, 0.21893325448036194, 0.20665259659290314, -0.28624868392944336, -0.2693878412246704, -0.08484749495983124, 0.261736661195755, 0.019986635074019432, 0.03950090333819389, 0.045167624950408936, -0.18348586559295654, -0.2508257329463959, 0.2234031707048416, 0.06136336922645569, 0.2749505341053009, -0.007705118972808123, -0.2358778566122055, -0.08868187665939331, 0.2496299296617508, 0.0787995383143425, 0.019622649997472763, -0.2627437114715576, -0.10118575394153595, 0.02406294457614422, -0.0508984737098217, -0.1820630431175232, -0.06043659895658493, 0.311062753200531, -0.25935661792755127, -0.17240791022777557, 0.3695525527000427, 0.2395278662443161, -0.050819721072912216, -0.225011944770813, 0.07715598493814468, -0.21832160651683807, -0.33995354175567627, -0.08865711838006973, 0.04896886646747589, 0.2670270502567291, -0.18802408874034882, -0.13790006935596466, -0.11922165006399155, 0.15423865616321564, 0.011776558123528957, 0.1251036375761032, 0.2834625840187073, 0.02343691512942314, -0.03676854819059372, -0.07739521563053131, -0.0811719223856926, 0.044309403747320175, -0.23671779036521912, 0.14029379189014435, 0.3245418667793274, 0.43981537222862244, -0.05464132875204086, 0.025553159415721893, -0.07220175862312317, -0.0936407595872879, -0.18075180053710938, 0.08201528340578079, -0.06246689334511757, -0.40781646966934204, -0.09281501173973083, 0.005641702096909285, 0.010269098915159702, 0.26512426137924194, 0.11809815466403961, -0.20313483476638794, -0.11367981135845184, -0.07215861231088638, -0.10969793051481247, -0.08127134293317795, 0.09344644099473953, 0.17032204568386078, 0.058745019137859344, -0.06265692412853241, -0.1124909296631813, 0.2901672124862671, 0.03886685147881508, -0.08104728162288666, -0.2566039264202118, 0.2014172524213791, -0.03180364519357681, 0.18554918467998505, -0.20532019436359406, 0.045869115740060806, 0.27967268228530884, -0.28119024634361267, -0.335677832365036, -0.30862492322921753, 0.1978771835565567, 0.38414645195007324, 0.179216206073761, -0.318988561630249, -0.09805620461702347, -0.4371604323387146, 0.17807669937610626, 0.06489958614110947, -0.06061742454767227, 0.01599707268178463, -0.24305056035518646, 0.054049231112003326, 0.32826095819473267, -0.3710974156856537, 0.0006928587681613863, -0.05475860461592674, -0.03932695463299751, 0.2525802254676819, 0.14735135436058044, -0.24533802270889282, 0.0037768702022731304, -0.07786505669355392, -0.2799360752105713, 0.09685375541448593, 0.0016823129262775183, 0.12660741806030273, -0.11747948825359344, -0.45186176896095276, 0.18032599985599518, -0.03145136684179306, -0.3552742004394531, -0.09011956304311752, -0.016647357493638992, -0.10214198380708694, -0.21512065827846527, 0.19584502279758453, 0.28229647874832153, 0.037572819739580154, -0.14582057297229767, -0.07088729739189148, -0.01987188681960106, 0.231228306889534, 0.1566319614648819, -0.03474856913089752, -0.006500288378447294, 0.0833711177110672, -0.4823249280452728, -0.15494735538959503, 0.01561719086021185, 0.5401586294174194, -0.16037911176681519, 0.1464194655418396, -0.141393780708313, -0.2524614930152893, -0.09586293995380402, 0.22857041656970978, -0.07001442462205887, 0.052917513996362686, -0.10281703621149063, -0.23772098124027252, 0.10143070667982101, -0.22893944382667542, 0.1685737520456314, 0.19375836849212646, -0.25275009870529175, -0.37129566073417664, -0.13912908732891083, -0.2677987813949585, 0.1997288018465042, -0.07919001579284668, -0.41122329235076904, 0.134354829788208, 0.09446839243173599, 0.03171867877244949, 0.019271815195679665, 0.041186414659023285, 0.08588423579931259, 0.04877162724733353, 0.012100561521947384, -0.25156545639038086, 0.2272176742553711, 0.029465919360518456, -0.59295654296875, -0.21069283783435822, -0.13518573343753815, 0.2082662135362625, -0.4445490539073944, -0.04208226501941681, 0.2502981126308441, 0.5686632394790649, 0.13310904800891876, 0.032093729823827744, 0.1466248482465744, -0.25707584619522095, -0.18405939638614655, -0.11230672895908356, 0.5052188634872437, 0.1823263019323349, -0.3630400002002716, -0.11743322759866714, 0.2410658597946167, -0.04475293308496475, 0.572924017906189, -0.19487032294273376, 0.3491966426372528, -0.02187556028366089, -0.17973405122756958, -0.04868875443935394, -0.4635363817214966, 0.1546546071767807, 0.17473071813583374, -0.5746535062789917, 0.056147750467061996, -0.13607116043567657, -0.173859640955925, 0.16780775785446167, 0.2762899398803711, -0.16588743031024933, -0.2717415392398834, -0.05249621719121933, -0.14469224214553833, 0.22260507941246033, -0.09661798924207687, 0.30837497115135193, -0.3412688076496124, 0.291023850440979, -0.24421393871307373, -0.06870559602975845, 0.43389925360679626, -0.610198974609375, -0.02248014509677887, -0.16126404702663422, 0.06696473807096481, 0.2613845467567444, 0.10310164839029312, -0.16415783762931824, -0.17466917634010315, 0.0012546612415462732, 0.22580492496490479, 0.17816340923309326, -0.1273796707391739, -0.1340494453907013, 0.1330103874206543, 0.03215303644537926, 0.02827172353863716, -0.1576954424381256, -0.4543309211730957, 0.13611015677452087, -0.14334383606910706, 0.16620463132858276, 0.28532958030700684, -0.2522180378437042, -0.06440478563308716, -0.28373923897743225, -0.0872330442070961, 0.036690544337034225, -0.34282588958740234, -0.13654612004756927, -0.25543951988220215, -0.31909680366516113, 0.12458939850330353, -0.11459521949291229, -0.04742761328816414, -0.4991423785686493, -0.13570190966129303, -0.07702084630727768, -0.0009752020123414695, -0.3332911431789398, 0.47741344571113586, -0.10858157277107239, -0.057771261781454086, 0.13659635186195374, -0.12808065116405487, -0.21685297787189484, -0.06204552203416824, 0.12075407058000565, -0.38720703125, -0.08047997206449509, -0.007247109431773424, 0.23050066828727722, -0.07749466598033905, -0.1442345827817917, -0.0358392708003521, -0.014203982427716255, 0.10214442014694214, 0.04009247198700905, 0.011260423809289932, 0.10552933812141418, 0.18755671381950378, 0.16026441752910614, 0.059366945177316666, -0.06519202142953873, -0.020501501858234406, 0.14803597331047058, 0.11234147846698761, -0.03391972556710243, 0.3738401532173157, -0.00995991937816143, -0.23422816395759583, 0.03805803135037422, 0.2537691593170166, 0.08998016268014908, -0.2680269181728363, 0.18868789076805115, 0.2920151352882385, -0.11653876304626465, -0.044041167944669724, 0.3580530285835266, -0.11588466912508011, -0.26497122645378113, 0.09361615777015686, 0.031106969341635704, 0.12168479710817337, 0.05161122605204582, 0.0237564779818058, -0.11747118085622787, 0.03253770247101784, 0.11761095374822617, 0.1447330266237259, -0.176179900765419, 0.11713897436857224, 0.1172104999423027, -0.12589256465435028, -0.20114247500896454, 0.017500456422567368, 0.3161848485469818, -0.21261200308799744, -0.029271069914102554, -0.15332357585430145, 0.025456909090280533, 0.2066984921693802, 0.009902267716825008, -0.10053727775812149, -0.14086517691612244, -0.1669001579284668, 0.22019703686237335, 0.079432412981987, -0.0011139815906062722, 0.19926461577415466, -0.24785277247428894, -0.048773206770420074, -0.053662143647670746, 0.040995802730321884, 0.054920028895139694, -0.10554592311382294, -0.12101460248231888, 0.029563289135694504, 0.024300266057252884, -0.07334557920694351, 0.11679564416408539, 0.2502681016921997, 0.005991353187710047, -0.09539002180099487, -0.18114598095417023, -0.25036337971687317, -0.1137179583311081, -0.10644692927598953, 0.10766759514808655, -0.06360996514558792, -0.29047611355781555, -0.11448059231042862, -0.11690612137317657, -0.04164152219891548, 0.054277822375297546, -0.15469327569007874, -0.09728242456912994, 0.08362643420696259, 0.08969537168741226, -0.016404734924435616, -0.32004597783088684, -0.17177221179008484, 0.25951313972473145, -0.21220947802066803, -0.30270081758499146, 0.16257140040397644, -0.07108740508556366, -0.1093607023358345, -0.27569830417633057, -0.17164792120456696, -0.25783947110176086, 0.22075222432613373, 0.24945659935474396, 0.11575871706008911, -0.2377234548330307, -0.08095286041498184, -0.08311518281698227, 0.06841690838336945, 0.2313345968723297, 0.12212818115949631, -0.07794883102178574, 0.12389881908893585, 0.07481208443641663, 0.1201334223151207, 0.15388265252113342, -0.025243254378437996, 0.03170733526349068, -0.08740919828414917, 0.10564249008893967, -0.10525626689195633, 0.0010085736867040396, -0.11698693782091141, -0.001533941482193768, -0.14234475791454315, -0.04239105433225632, -0.005427540745586157, -0.23674944043159485, 0.10053195059299469, 0.11345850676298141, 0.06422720849514008, 0.20216992497444153, 0.036247432231903076, -0.024456780403852463, 0.05395536869764328, 0.15769708156585693, -0.010524054989218712, 0.0731576606631279, 0.000913204625248909, 0.2102123349905014, 0.21265549957752228, -0.044042859226465225, -0.06759127974510193, 0.20682093501091003, -0.18302412331104279, 0.252838134765625, -0.0162636861205101, 0.1992683857679367, -0.02214813604950905, -0.26907429099082947, -0.016421908512711525, 0.16326433420181274, 0.07446679472923279, -0.1109851598739624, 0.16543066501617432, -0.032657790929079056, -0.20853973925113678, -0.18854568898677826, -0.08900313079357147, 0.24955441057682037, -0.12076027691364288, 0.014371161349117756, 0.2446589320898056, 0.04669971019029617, -0.044889144599437714, -0.10007752478122711, 0.11289703100919724, -0.11725413054227829, -0.1544305384159088, 0.023143615573644638, 0.03118949942290783, 0.022289859130978584, -0.07079963386058807, 0.09211878478527069, -0.04884925112128258, -0.12439567595720291, -0.009143633767962456, 0.28216657042503357, 0.08113217353820801, 0.015599100850522518, -0.14390800893306732, -0.16384023427963257, 0.15001556277275085, 0.19667647778987885, 0.06836473196744919, 0.1272737979888916, 0.05800927057862282, 0.09120723605155945, 0.23153510689735413, -0.15397608280181885, -0.052011266350746155, 0.060129500925540924, -0.04817674309015274, -0.09994033724069595, -0.21781621873378754, 0.056936610490083694, 0.13461855053901672, -0.07267934828996658, 0.2828854024410248, -0.14279338717460632, -0.03834928572177887, -0.18664996325969696, 0.10166292637586594, 0.23321712017059326, 0.10973981022834778, -0.16020946204662323, -0.33223018050193787, -0.09077111631631851, 0.1953037828207016, -0.16388025879859924, -0.3868144750595093, -0.14038021862506866, -0.04835949465632439, 0.12094723433256149, -0.23999300599098206, 0.08187369257211685, 0.07892759144306183, -0.11135391891002655, 0.11105325073003769, 0.1485944241285324, 0.13022883236408234, 0.11243284493684769, -0.1554979681968689, 0.24413104355335236, -0.12311198562383652, 0.06725038588047028, 0.06433338671922684, 0.29324012994766235, -0.04628118500113487, 0.030767880380153656, 0.0778854563832283, -0.46675097942352295, -0.08662678301334381, 0.12229401618242264, 0.21836815774440765, -0.05084520950913429, 0.09462743252515793, -0.29050442576408386, 0.1740746796131134, 0.22028416395187378, -0.24310877919197083, 0.06324420869350433, -0.23296721279621124, -0.0005160187720321119, -0.10878541320562363, -0.3402498960494995, 0.2860603928565979, -0.046938132494688034, 0.08768558502197266, -0.17760270833969116, -0.05361305549740791, 0.17867614328861237, 0.08424825966358185, -0.1196780800819397, -0.15995001792907715, 0.11723122000694275, -0.1478671431541443, 0.24347078800201416, -0.11869866400957108, 0.321318119764328, 0.05181003361940384, -0.3889865577220917, 0.1505785584449768, -0.11290770024061203, 0.08417870849370956, -0.05429057404398918, 0.23258665204048157, 0.208135724067688, -0.11731377243995667, 0.04655331373214722, 0.04665856063365936, -0.3379223942756653, 0.07360190898180008, 0.1282121241092682, -0.037722378969192505, -0.07587779313325882, -0.117559514939785, -0.13828660547733307, 0.33129242062568665, 0.10756176710128784, 0.15177224576473236, 0.23543785512447357, -0.33610066771507263, -0.001998820574954152, 0.32576707005500793, -0.22005070745944977, 0.08793327957391739, 0.15815705060958862, -0.0927063450217247, -0.2246086150407791, -0.3263273537158966, 0.3363569974899292, 0.04190978407859802, -0.007288540713489056, -0.017544899135828018, 0.01635228656232357, 0.15960954129695892, -0.15278507769107819, -0.35105031728744507, -0.14587019383907318, -0.05484417825937271, 0.03994670882821083, 0.03199263662099838, -0.07094357907772064, -0.1474955976009369, -0.04874681681394577, 0.14472728967666626, 0.030114566907286644, -0.07616803050041199, -0.4748566746711731, 1.019459843635559, 0.5776533484458923, -0.717124342918396, 0.44732484221458435, -0.4112688899040222, 0.47093549370765686, 0.8521868586540222, -1.0440287590026855, 1.0311967134475708, 0.7320043444633484, 0.048874396830797195, -0.44097262620925903, 0.363967627286911, -0.7559231519699097, 0.4037219285964966, -0.05686844885349274, -0.03242203965783119, -0.2852269411087036, 0.022880248725414276, 0.3185743987560272, 0.12821707129478455, 0.1173233687877655, -0.0916115865111351, 0.00964432768523693, 0.3354332745075226, 0.24862872064113617, -0.09774591773748398, 0.07575083523988724, 0.01348061766475439, 0.071274034678936, 0.31406453251838684, -0.08713832497596741, 0.017506953328847885, 0.20388104021549225, 0.2790244519710541, 0.28327441215515137, -0.08316987007856369, -0.1305360645055771, -0.42346006631851196, 0.1389351338148117, 0.22430996596813202, -0.007818895392119884, 0.09054769575595856, 0.1439734548330307, 0.21274888515472412, -0.26387572288513184, -0.1854795217514038, -0.037636540830135345, 0.07655342668294907, -0.05115073174238205, 0.18696805834770203, -0.3081798851490021, 0.42607200145721436, -0.3094351291656494, 0.04289691522717476, -0.15673302114009857, -0.04430869594216347, 0.11577153205871582, -0.23631004989147186, -0.2761484980583191, 0.008629553951323032, 0.33825987577438354, 0.44349443912506104, 0.08121757209300995, 0.05349065363407135, -0.2351628839969635, 0.03752313181757927, 0.09377813339233398, -0.31966111063957214, 0.22811385989189148, 0.17310459911823273, 0.2121582329273224, 0.04288439825177193, 0.5269261598587036, -0.12890726327896118, 0.05243127420544624, -0.1561250537633896, 0.03993389010429382, 0.0947224348783493, -0.5290132761001587, 0.2597702741622925, -0.5296655297279358, 0.20021291077136993, 0.1778625100851059, 0.025655509904026985, -0.016185037791728973, 0.3023616671562195, -0.17902925610542297, -0.3102963864803314, 0.4199379086494446, -0.32843834161758423, -0.26852577924728394, -0.06141253933310509, -0.3419627249240875, -0.10399413853883743, 0.31049758195877075, 0.18681912124156952, -0.2605404257774353, -0.6347320675849915, -0.19812938570976257, 0.08781411498785019, 0.6343799829483032, 0.081073097884655, -0.18526050448417664, 0.2829715311527252, 0.1207827478647232, -0.18337400257587433, 0.33775198459625244, 0.3553287982940674, 0.3314783275127411, 0.16086144745349884, 0.2556345760822296, -0.07659489661455154, 0.018444877117872238, 0.0869416669011116, -0.10181549936532974, 0.0543287955224514, 0.12372282147407532, -0.25040867924690247, 0.2305673509836197, 0.21949245035648346, -0.17835694551467896, -0.14637748897075653, 0.24096845090389252, 0.08018111437559128, 0.11773187667131424, 0.17171719670295715, 0.5702239871025085, 0.07455726712942123, 0.1480294167995453, -0.054283928126096725, -0.1617860645055771, 0.09629738330841064, 0.04812135547399521, 0.3775305151939392, 0.18756923079490662, -0.06987162679433823, -0.17334137856960297, 0.5715845227241516, 0.25807517766952515, 0.3191562592983246, 0.16953708231449127, -0.0986909344792366, 0.33808085322380066, -0.20924361050128937, 0.18990829586982727, 0.37723296880722046, 0.02043592929840088, -0.1707049161195755, -0.025334585458040237, -0.12377283722162247, 0.1643454134464264, -0.25449442863464355, 0.288246214389801, -0.24722746014595032, -0.008561103604733944, -0.02111712470650673, 0.21857719123363495, 0.2572115361690521, 0.06921319663524628, -0.1797499656677246, 0.15847140550613403, 0.22221651673316956, 0.16254158318042755, -0.06526979058980942, -0.09413136541843414, -0.16470998525619507, 0.2757889926433563, -0.04680244252085686, 0.07533099502325058, -0.12125016003847122, -0.22424806654453278, 0.1912611722946167, 0.038587987422943115, 0.3354402482509613, -0.2912249267101288, -0.15524359047412872, -0.14240024983882904, 0.28591495752334595, -0.020197737962007523, 0.18502116203308105, 0.029669268056750298, -0.09049329906702042, 0.11226436495780945, -0.2304813265800476, 0.024693666025996208, 0.3736187517642975, -0.30988290905952454, -0.11234653741121292, 0.07166220992803574, 0.139280766248703, -0.0731685683131218, -0.019017286598682404, -0.11550584435462952, -0.03605568781495094, 0.1089332327246666, 0.2535249888896942, 0.17030292749404907, -0.2689487934112549, -0.19105137884616852, -0.09759387373924255, 0.3373061418533325, -0.2519685924053192, -0.4477606415748596, -0.16072078049182892, -0.03599770739674568, 0.04072483256459236, 0.09995636343955994, -0.2562851905822754, -0.2609659731388092, 0.5416029691696167, 0.07436215877532959, 0.08245310932397842, -0.018321514129638672, -0.46991801261901855, 0.18245142698287964, -0.2563842236995697, 0.1748119741678238, -0.13960152864456177, -0.03217210993170738, -0.3008044362068176, -0.00523981312289834, -0.30069848895072937, -0.024292225018143654, 0.04985087364912033, 0.08450637757778168, -0.13277971744537354, -0.133195698261261, 0.20966945588588715, -0.07722970843315125, 0.2595118582248688, -0.25572699308395386, 0.1781022697687149, -0.23859547078609467, 0.0038820013869553804, 0.2224002480506897, -0.049603838473558426, -0.03132760524749756, -0.030829643830657005, -0.01627538539469242, -0.25788021087646484, -0.2716538906097412, -0.1036095917224884, 0.0798196941614151, 0.32561373710632324, -0.3821203410625458, 0.18563972413539886, 0.13695880770683289, -0.009885316714644432, 0.2597310543060303, -0.02993120811879635, -0.07332458347082138, -0.10354635864496231, -0.38877618312835693, -0.2547205686569214, -0.3251807689666748, 0.003862363286316395, -0.4794609844684601, -0.10061531513929367, -0.31301236152648926, -0.17478708922863007, -0.2540873885154724, 0.07597047835588455, 0.22894422709941864, 0.11431313306093216, 0.3756512999534607, -0.5417450070381165, -0.10459014028310776, -0.356915146112442, 0.274332195520401, 0.26059690117836, -0.18181933462619781, 0.12449429929256439, 0.07114824652671814, 0.1722855120897293, 0.28436094522476196, 0.0732264295220375, 0.007453449536114931, -0.2577592432498932, -0.06569163501262665, 0.03185521438717842, 0.1817363053560257, 0.2548251152038574, -0.12700432538986206, 0.07877753674983978, 0.0967981293797493, -0.1098702922463417, -0.1498211920261383, 0.2455575168132782, 0.11337295174598694, -0.19634567201137543, 0.03420700505375862, 0.17283721268177032, 0.012576104141771793, 0.19361476600170135, -0.11963721364736557, -0.01944425143301487, 0.2104046642780304, 0.027652153745293617, -0.2681921124458313, -0.10911345481872559, -0.05776987224817276, 0.2576982378959656, -0.0632394403219223, 0.14883273839950562, -0.009767630137503147, -0.11890789866447449, -0.05584746226668358, 0.407115638256073, -0.18675535917282104, 0.27925682067871094, -0.11439863592386246, -0.023897292092442513, 0.09518402069807053, 0.005143867805600166, 0.23580367863178253, 0.08785935491323471, -0.29527875781059265, 0.19719527661800385, -0.03226642310619354, -0.31955036520957947, 0.09969060868024826, -0.14253480732440948, -0.4023592472076416, 0.10657388716936111, 0.1200372502207756, -0.019574390724301338, -0.28803935647010803, 0.04877284914255142, -0.32026365399360657, -0.02043120749294758, -0.22903116047382355, -0.13128691911697388, 0.15571580827236176, -0.082784004509449, 0.11198681592941284, -0.13576655089855194, 0.052015092223882675, 0.0073138996958732605, -0.10543902963399887, 0.01909364014863968, 0.2990158200263977, 0.09001590311527252, -0.1649673581123352, -0.15921932458877563, 0.021921873092651367, 0.03663176670670509, 0.11029162257909775, 0.16570447385311127, 0.1990664303302765, -0.7810312509536743, -0.015084627084434032, -0.18398217856884003, 0.1015327051281929, -0.018818650394678116, -0.05825521796941757, -0.33401429653167725, -0.17731495201587677, 0.049094490706920624, 0.36777234077453613, -0.04662846028804779, -0.07853502035140991, 0.06397084146738052, 0.08926678448915482, -0.1619747281074524, 0.4394860565662384, 0.10800502449274063, 0.028649840503931046, 0.06706414371728897, -0.19058889150619507, -0.09064298123121262, 0.15854808688163757, 0.17019657790660858, -0.13260021805763245, 0.21936364471912384, -0.12709544599056244, 0.12627924978733063, 0.5489156246185303, 0.1614062488079071, -0.03765164315700531, 0.13816675543785095, -0.15047317743301392, -0.2866741418838501, -0.1661750227212906, 0.26063480973243713, 0.34489205479621887, 0.1912975311279297, -0.31526800990104675, -0.053371917456388474, 0.039671801030635834, 0.02441531792283058, -0.022686667740345, 0.009759909473359585, 0.053570978343486786, 0.007930891588330269, -0.1450415998697281, -0.08956752717494965, -0.24886076152324677, -0.18987837433815002, 0.02362070046365261, 0.17131151258945465, 0.08847407251596451, -0.25772717595100403, 0.03198975324630737, -0.17636430263519287, 0.7096694111824036, 0.02125454507768154, 0.013291869312524796, -0.21463462710380554, -0.014156517572700977, 0.014385423623025417, 0.2616683542728424, 0.014328164979815483, 0.02437460608780384, -0.3056439757347107, -0.1801214963197708, -0.03172134608030319, 0.032771021127700806, -0.10048973560333252, -0.021552443504333496, -0.4836542308330536, 0.08539463579654694, 0.1127459779381752, -0.20866604149341583, 0.15477518737316132, -0.11630798876285553, -0.24991190433502197, -0.2077387422323227, -0.0319211445748806, 0.11390029639005661, -0.02491758204996586, 0.209636852145195, 0.24021100997924805, 0.0008985205786302686, -0.061768557876348495, 0.0023654939141124487, 0.1839614361524582, 0.11226584017276764, -0.06581810116767883, -0.09998943656682968, -0.043863728642463684, 0.06613169610500336, -0.052097469568252563, -0.05404533073306084, -0.06757098436355591, 0.14519920945167542, -0.126668319106102, -0.021707674488425255, 0.2368575632572174, -0.009086046367883682, -0.055412761867046356, -0.04794248566031456, 0.18202359974384308, 0.24873921275138855, 0.1943022608757019, -0.2243708223104477, -0.2012244611978531, -0.26751017570495605, -0.043279461562633514, 0.1499747633934021, 0.08869340270757675, 0.12143398076295853, 0.1395592987537384, -0.17346040904521942, 0.09721945226192474, 0.2879510819911957, -0.10806794464588165, 0.18766002357006073, 0.022971708327531815, 0.29771512746810913, 0.11204276233911514, -0.21103957295417786, 0.04300918057560921, -0.02732214331626892, 0.03830256685614586, -0.13934646546840668, 0.09563562273979187, -0.0426517017185688, 0.2551092207431793, -0.1446770429611206, -0.026049667969346046, 0.04325162619352341, 0.04421074315905571, 0.06848271191120148, -0.16954298317432404, 0.33913642168045044, 0.14081749320030212, 0.2626420259475708, -0.13713528215885162, -0.09262409806251526, 0.2697749733924866, -0.026939772069454193, 0.029176734387874603, -0.019612422212958336, -0.05896938964724541, 0.25645875930786133, -0.1454678475856781, -0.1197526603937149, 0.21610921621322632, 0.27321964502334595, 0.3054944574832916, -0.00029957573860883713, -0.3069142997264862, 0.21056583523750305, -0.14195352792739868, 0.013167198747396469, -0.10657387226819992, 0.03685978427529335, 0.06302053481340408, 0.31197917461395264, -0.05589716508984566, -0.01345593947917223, -0.15124839544296265, -0.12778091430664062, -0.10672519356012344, -0.024650001898407936, 0.04415646195411682, -0.2523542642593384, 0.056973572820425034, -0.05345365032553673, -0.06427024304866791, 0.030880628153681755, 0.13840796053409576, 0.1426096260547638, -0.08906251192092896, 0.1533203274011612, -0.06488026678562164, -0.07543111592531204, -0.008364123292267323, 0.11102733016014099, 0.1262870579957962, -0.0899711474776268, -0.04632791876792908, 0.2468426674604416, -0.37594130635261536, -0.09105197340250015, -0.11091618984937668, 0.09206382930278778, 0.09921560436487198, -0.0914941057562828, -0.16898120939731598, -0.49553120136260986, -0.5053840279579163, 0.48304057121276855, -0.04648400470614433, 0.04391638562083244, -0.00804151687771082, 0.06710454821586609, -0.1635013222694397, -0.10920321196317673, 0.04975823685526848, 0.13544997572898865, -0.24033115804195404, 0.1737794280052185, -0.018284035846590996, -0.026237763464450836, -0.05294182151556015, -0.09894094616174698, -0.4483530819416046, 0.13902272284030914, 0.01623525843024254, 0.08177635073661804, -0.06275733560323715, -0.2612764835357666, -0.22177477180957794, -0.04253367707133293, 0.024142615497112274, -0.2020329236984253, 0.09648465365171432, 0.07747969031333923, -0.4489389657974243, -0.13391360640525818, 0.1713545173406601, -0.031487852334976196, 0.08689018338918686, 0.3665454089641571, -0.1104898676276207, -0.2316179722547531, 0.016560422256588936, 0.09087814390659332, 0.016907524317502975, 0.33398160338401794, 0.18664765357971191, -0.5427419543266296, -0.3870687484741211, -0.46136048436164856, -0.06838396191596985, 0.012066096998751163, -0.18102523684501648, 0.13568612933158875, -0.014443602412939072, 0.11992032825946808, -0.019285816699266434, 0.11155245453119278, 0.020500080659985542, 0.26819944381713867, -0.08993301540613174, 0.18631163239479065, -0.3385395109653473, -0.04501824080944061, 0.06756343692541122, -0.2606968879699707, 0.1378602236509323, 0.008033235557377338, 0.00913926400244236, 0.23124709725379944, 0.24976205825805664, -0.09936036914587021, -0.013223068788647652, -0.15500782430171967, 0.3537679612636566, 0.2880406379699707, 0.1748063564300537, 0.11291302740573883, -0.0008397246710956097, -0.032186392694711685, -0.009799451567232609, 0.2457391619682312, 0.21800360083580017, 0.07463078945875168, -0.08875329047441483, -0.28727462887763977, -0.052760541439056396, -0.007296587340533733, -0.0900794193148613, 0.1366526335477829, -0.3217241168022156, 0.23137569427490234, -0.03406745567917824, -0.16266195476055145, 0.09711607545614243, -0.18689194321632385, 0.29986894130706787, 0.03794655576348305, -0.07882897555828094, 0.3066898584365845, -0.0038588042370975018, -0.17678050696849823, -0.021145222708582878, -0.20080602169036865, 0.05318779870867729, -0.302198201417923, 0.06181591749191284, -0.15568482875823975, 0.43900877237319946, 0.1974007934331894, 0.2427753359079361, -0.12878550589084625, -0.1274753212928772, 0.015791453421115875, -0.14055921137332916, -0.03242058679461479, -0.0138212526217103, -0.4254424273967743, -0.10728568583726883, -0.12462971359491348, -0.08122686296701431, 0.04068071022629738, -0.08554825186729431, -0.30199578404426575, -0.05467754974961281, 0.12511593103408813, -0.13184280693531036, 0.07157692313194275, -0.035164590924978256, -0.12543940544128418, -0.036589931696653366, -0.14702194929122925, 0.13655492663383484, -0.13372379541397095, 0.06209864839911461, -0.06668981909751892, 0.06465672701597214, 0.04290346801280975, 0.28265154361724854, 0.03267727047204971, -0.023600656539201736, 0.13091325759887695, -0.0033834250643849373, -0.030171573162078857, -0.08089234679937363, 0.05181237682700157, -0.0989459678530693, -0.16341285407543182, 0.02807687595486641, -0.09983223676681519, -0.02534995600581169, 0.21066084504127502, -0.14715665578842163, 0.08408300578594208, -0.03355131670832634, 0.1546730250120163, 0.1433619260787964, 0.19200825691223145, -0.10862298309803009, 0.05353931710124016, -0.12197363376617432, 0.16077858209609985, -0.040285199880599976, -0.05118364095687866, -0.13075821101665497, 0.08968082070350647, -0.12575805187225342, 0.2954382002353668, -0.06141585484147072, -0.08801215887069702, -0.043254267424345016, 0.1477178931236267, 0.10110972076654434, -0.21095678210258484, 0.3345542550086975, -0.07808900624513626, 0.06972527503967285, 0.18912626802921295, -0.06860218197107315, 0.0017004454275593162, -0.2630966901779175, 0.16904380917549133, -0.1217997744679451, 0.2222212553024292, 0.21913084387779236, 0.08460754156112671, -0.18415570259094238, -0.009816761128604412, 0.17737987637519836, 0.1640000343322754, -0.09475009888410568, 0.020179003477096558, -0.11165982484817505, 0.10582632571458817, 0.019842414185404778, -0.0338776670396328, -0.02372274361550808, 0.052627116441726685, 0.03426537290215492, -0.08162719011306763, 0.13214699923992157, -0.07379057258367538, 0.014652339741587639, -0.0006616518367081881, 0.01904953643679619, -0.015823587775230408, 0.16281622648239136, 0.0412771999835968, 0.09740254282951355, -0.34925171732902527, 0.03679251670837402, 0.03690262883901596, 0.06512339413166046, 0.21232108771800995, 0.09250984340906143, -0.4436892569065094, -0.0790645182132721, 0.06035017967224121, 0.051099590957164764, 0.03437012434005737, -0.007081866264343262, 0.13077384233474731, 0.028414880856871605, -0.20144949853420258, 0.29987016320228577, 0.12558519840240479, -0.16613683104515076, 0.1991165578365326, 0.02374497428536415, 0.03631060570478439, -0.0007793422555550933, 0.0022136687766760588, 0.054277047514915466, -0.066949762403965, -0.05712272226810455, 0.07593358308076859, -0.06381037086248398, 0.040153879672288895, 0.039589062333106995, 0.10862340778112411, 0.09269069135189056, -0.2352350801229477, 0.06062861904501915, -0.1199965700507164, -0.121835857629776, 0.2426859736442566, 0.0007562579121440649, 0.040466129779815674, 0.12742669880390167, 0.1233929991722107, -0.11564728617668152, -0.23639971017837524, -0.317659467458725, 0.31054842472076416, 0.24155700206756592, -0.09281313419342041, 0.053201306611299515, -0.2805309593677521, 0.16372832655906677, 0.05174997076392174, 0.06577116996049881, -0.02873830497264862, 0.08901455998420715, -0.2969461977481842, 0.18101121485233307, -0.10010727494955063, 0.0433787927031517, 0.18996775150299072, 0.06223789602518082, 0.2449503242969513, -0.16759240627288818, 0.11878880858421326, 0.08559553325176239, 0.028871754184365273, 0.053683821111917496, 0.20347948372364044, 0.1486136019229889, -0.050905752927064896, -0.15808351337909698, -0.026590295135974884, 0.08722267299890518, 0.24007074534893036, 0.20604977011680603, -0.4467831254005432, -0.04226187244057655, -0.19307011365890503, 0.11734690517187119, -0.04638819023966789, 0.11648266762495041, -0.09136603027582169, -0.1444428414106369, -0.13398738205432892, 0.22085212171077728, -0.09757817536592484, 0.09657848626375198, -0.029300851747393608, 0.06702394783496857, 0.03134968876838684, -0.4506468176841736, 0.12050683051347733, -0.21161556243896484, 0.08511704206466675, 0.03276168182492256, -0.2150862216949463, -0.1106502115726471, 0.014590015634894371, 0.1413983255624771, 0.0355210117995739, 0.15071359276771545, -0.21207520365715027, -0.1886064112186432, 0.07610787451267242, -0.1607765406370163, 0.14618517458438873, -0.03672173619270325, -0.02727513201534748, -0.5531870722770691, 0.2040194571018219, 0.04657251760363579, 0.15356703102588654, -0.02338310144841671, -0.2568192780017853, -0.16160279512405396, -0.12294928729534149, -0.2947036325931549, 0.1904984414577484, 0.07600229233503342, 0.04178792983293533, 0.029149658977985382, 0.05658436939120293, -0.18946853280067444, -0.11530226469039917, 0.09382010996341705, 0.009912075474858284, -0.13406629860401154, 0.0167654138058424, -0.012834111228585243, 0.014132753014564514, 0.11934755742549896, 0.11752044409513474, -0.17634756863117218, 0.1195344626903534, 0.12914308905601501, -0.13156484067440033, 0.10904300957918167, 0.03598853573203087, -0.1399969756603241, -0.19586731493473053, -0.06425714492797852, 0.03296283632516861, 0.10239974409341812, 0.1439182311296463, -0.11766958236694336, -0.22624491155147552, -0.20828375220298767, -0.005052018910646439, 0.056153539568185806, -0.20248281955718994, -0.05690838769078255, -0.4279998540878296, -0.09712419658899307, 0.13810543715953827, -0.14935165643692017, 0.01902718096971512, -0.24098823964595795, 0.15171648561954498, 0.013601020909845829, 0.10687436908483505, 0.05714741721749306, -0.051823537796735764, -0.03604286164045334, 0.04692303389310837, -0.007058338727802038, -0.02663203701376915, 0.07873885333538055, -0.05465929955244064, 0.035413168370723724, -0.04678589105606079, -0.028770413249731064, -0.009273011237382889, -0.2333734780550003, -0.05871237441897392, 0.2894698977470398, 0.08058663457632065, 0.10537438094615936, -0.15308406949043274, 0.25575125217437744, 0.2383192777633667, 0.19468286633491516, 0.22414202988147736, 0.32798048853874207, 0.09926338493824005, -0.3123581111431122, -0.09931229799985886, 0.2381587028503418, -0.2326110601425171, -0.0017348718829452991, -0.1020817682147026, -0.19827641546726227, -0.08600626140832901, 0.07590103894472122, -0.010195737704634666, -0.020725933834910393, 0.01928095705807209, 0.014693108387291431, -0.1538078486919403, 0.2863255739212036, 0.09839659929275513, -0.10849196463823318, -0.15964770317077637, 0.016757454723119736, -0.08764411509037018, 0.04886912181973457, -0.08914683759212494, -0.10288102179765701, 0.19165974855422974, -0.21101276576519012, -0.1564941555261612, 0.12831294536590576, 0.12545429170131683, 0.15100884437561035, 0.03083208203315735, 0.14155201613903046, 0.2212560921907425, -0.09771883487701416, -0.3281666040420532, -0.21909433603286743, 0.4459843337535858, -0.019851168617606163, 0.10931889712810516, -0.12099237740039825, -0.041677530854940414, -0.00888773798942566, 0.044810641556978226, -0.014325320720672607, 0.10843698680400848, -0.4543711543083191, 0.17381387948989868, -0.4216647744178772, -0.20465444028377533, 0.027891630306839943, -0.1825331449508667, 0.29171523451805115, -0.03299342468380928, 0.21444830298423767, -0.19124190509319305, -0.1131163239479065, 0.012093707919120789, 0.3590625822544098, -0.05690949410200119, 0.14800973236560822, 0.03743568807840347, -0.03804517164826393, -0.17886744439601898, 0.15042869746685028, 0.1429324895143509, 0.016464637592434883, -0.18400059640407562, 0.049447424709796906, -0.18244169652462006, 0.11052553355693817, -0.10598202794790268, 0.051107317209243774, 0.07692031562328339, -0.12616507709026337, -0.01069037988781929, -0.08023194968700409, 0.29468634724617004, 0.3174893260002136, -0.30493807792663574, 0.11383570730686188, -0.040315207093954086, 0.00144352694042027, -0.3323487639427185, 0.3457033932209015, -0.25120770931243896, 0.36520445346832275, -0.22314254939556122, -0.02991727739572525, 0.20420105755329132, 0.26681214570999146, -0.08290335536003113, 0.0246379766613245, -0.4409646987915039, -0.019084129482507706, -0.6914294958114624, 0.028642674908041954, 0.13609807193279266, -0.0786547064781189, 0.23808158934116364, -0.0008939427207224071, 0.1176837831735611, 0.05441735312342644, -0.04732600599527359, 0.09009392559528351, 0.45449379086494446, -0.024893730878829956, 0.004507566336542368, 0.1117204874753952, 0.05538196116685867, 0.07552318274974823, 0.05131412297487259, -0.1490861028432846, 0.3217836022377014, -0.18203452229499817, -0.17454351484775543, 0.19709047675132751, 0.44381263852119446, 0.11658551543951035, -0.3617233633995056, -0.10151652246713638, 0.11984384059906006, 0.2846224904060364, -0.2672659754753113, -0.04185956344008446, 0.22096239030361176, -0.3247227966785431, -0.012860340066254139, 0.052185941487550735, -0.11844661086797714, 0.05563965439796448, -0.029143886640667915, 0.07576388865709305, 0.07820665091276169, 0.10485537350177765, -0.037334490567445755, 0.0667865201830864, -0.061340682208538055, 0.03478359803557396, -0.048113323748111725, -0.03068338893353939, 0.075831837952137, -0.005827392917126417, 0.027703115716576576, 0.5682966113090515, 0.1563018411397934, 0.7117412686347961, -1.0050345659255981, -0.5011394619941711, 0.38852939009666443, 0.322397381067276, 0.030834000557661057, 0.17287439107894897, 0.15907801687717438, -0.6112391352653503, 0.47879329323768616, -0.04107142239809036, -0.9828075170516968, 0.10748592019081116, -0.4204968810081482, -0.12776769697666168, -0.17806604504585266, 0.1902097761631012, -0.6109378933906555, 0.02992478385567665, 0.21851006150245667, 0.14480279386043549, -0.14593642950057983, 0.005773601122200489, -0.18932396173477173, -0.24168170988559723, -0.2604871690273285, -0.08042401820421219, -0.3933791220188141, 0.19495823979377747, 0.19270873069763184, -0.19793568551540375, -0.12485329061746597, -0.17505593597888947, -0.4002123475074768, 0.056681323796510696, 0.06355494260787964, -0.04250319302082062, -0.11530379205942154, -0.3426341116428375, -0.1711144596338272, -0.3741878569126129, 0.2907825708389282, -0.24468804895877838, 0.31816619634628296, 0.07894310355186462, 0.1206243485212326, -0.3830539286136627, 0.0004069239948876202, -0.32114535570144653, 0.06271875649690628, 0.015338635072112083, -0.053323253989219666, -0.2033177763223648, 0.10873536765575409, 0.4826217293739319, -0.3260457217693329, -0.0693354681134224, -0.11531737446784973, 0.019508730620145798, -0.03317458927631378, -0.035810839384794235, 0.1511038839817047, -0.2795562148094177, -0.063588447868824, -0.22530752420425415, 0.15618319809436798, 0.005248546600341797, 0.17081817984580994, 0.3478538691997528, 0.24639064073562622, -0.4487254321575165, -0.17652536928653717, 0.28617826104164124, -0.21702730655670166, 0.21478134393692017, 0.11695834994316101, 0.5793195366859436, -0.18818385899066925, -0.044471465051174164, -0.3127625584602356, 0.09135925024747849, 0.6319736838340759, 0.09296858310699463, -0.1560341864824295, -0.10556787252426147, -0.1619851440191269, 0.045158445835113525, 0.6090279817581177, 0.5458675622940063, 0.30006879568099976, 0.10424955934286118, -0.22532334923744202, -0.08482025563716888, -0.10692957043647766, -0.1411053091287613, 0.40441057085990906, 0.16980846226215363, 0.16437096893787384, -0.06824558228254318, 0.3837927579879761, -0.059672221541404724, -0.08596818149089813, 0.36124488711357117, 0.09742884337902069, -0.18411727249622345, 0.009120507165789604, -0.07575445622205734, -0.04276693984866142, 0.0008735607261769474, -0.05359233543276787, -0.43269872665405273, -0.20140337944030762, -0.07903686910867691, 0.1946602165699005, -0.15495850145816803, -0.2527250349521637, 0.081638403236866, -0.01959683746099472, -0.3768971562385559, 0.30158090591430664, -0.029328444972634315, 0.05097843334078789, -0.08828871697187424, -0.11511469632387161, 0.4589141011238098, 0.05166954547166824, -0.2300654649734497, 0.18668177723884583, -0.20434103906154633, 0.129424586892128, 0.18784549832344055, -0.2596305012702942, -0.05352583900094032, 0.06025504693388939, -0.1965549886226654, 0.1686404049396515, 0.13572914898395538, 0.07282476127147675, -0.11668992787599564, -0.06041858345270157, 0.578454852104187, 0.09066261351108551, -0.43939241766929626, -0.0602172315120697, -0.02973414771258831, -0.479340136051178, 0.31267115473747253, 0.053548380732536316, -0.12691755592823029, -0.35537636280059814, 0.21225161850452423, -0.7309445142745972, -0.29866036772727966, -0.24873201549053192, -0.4158076047897339, 0.15025512874126434, 0.11772249639034271, 0.04922998324036598, 0.15786655247211456, 0.09635408222675323, 0.11338521540164948, 0.5499482154846191, -0.4992946684360504, 0.21772219240665436, -0.17431285977363586, 0.5724595189094543, -0.33461570739746094, 0.3618320822715759, 0.1546039879322052, 0.08117232471704483, 0.24227412045001984, -0.35790184140205383, 0.0354049876332283, -0.29843541979789734, 0.05959272012114525, 0.1088956966996193, -0.19225828349590302, -0.505707859992981, -0.13595730066299438, -0.09285610914230347, 0.1719377487897873, -0.39505863189697266, 0.2224092334508896, -0.08396408706903458, -0.21629253029823303, 0.03158804774284363, -0.44868940114974976, 0.057934246957302094, 0.015707243233919144, -0.06304857134819031, 0.06688512861728668, 0.09697695076465607, -0.15980994701385498, -0.1554272472858429, -0.14957699179649353, -0.3907126188278198, -0.051653001457452774, 0.04036086052656174, -0.3343451917171478, 0.298292875289917, 0.3940865397453308, 0.3964834213256836, -0.05775170028209686, 0.2756618559360504, -0.18091650307178497, -0.08455976098775864, 0.07454894483089447, 0.12683239579200745, 0.16615848243236542, 0.6747782230377197, -0.10776866972446442, 0.06514660269021988, -0.205469012260437, 0.14387547969818115, 0.08716098219156265, 0.24195152521133423, -0.08513794094324112, 0.11952467262744904, -0.10148818045854568, 0.08035844564437866, -0.03155070170760155, -0.24001726508140564, -0.08757845312356949, 0.09702306240797043, -0.07549424469470978, 0.06549528241157532, 0.03508661687374115, 0.1843770146369934, 0.005313752219080925, -0.2446228563785553, 0.04104258865118027, 0.20163314044475555, -0.031012963503599167, -0.3283490538597107, -0.24076558649539948, -0.23423242568969727, 0.14009259641170502, 0.06157282367348671, 0.2016402781009674, -0.3502473831176758, 0.033981237560510635, 0.30447137355804443, -0.17153264582157135, -0.29934483766555786, 0.012277595698833466, 0.31808778643608093, -0.26592108607292175, -0.008962414227426052, -0.2118326872587204, 0.029495924711227417, 0.03780793026089668, 0.04154035449028015, 0.0494065061211586, 0.0677744522690773, -0.09752272814512253, -0.08760591596364975, -0.1847183257341385, -0.27421748638153076, -0.3914213478565216, -0.15131354331970215, 0.15367421507835388, 0.029068347066640854, -0.36869195103645325, -0.0074346852488815784, 0.0850393995642662, 0.38307633996009827, 0.2614530324935913, 0.022354410961270332, 0.03871754929423332, 0.02033882774412632, -0.12214341759681702, 0.03465196490287781, 0.012331592850387096, -0.033762127161026, 0.05094033107161522, 0.027019819244742393, 0.06742309033870697, 0.06953538209199905, -0.07931689918041229, 0.14234043657779694, -0.012188739143311977, 0.11476236581802368, 0.023510802537202835, -0.10862631350755692, -0.029190760105848312, 0.08190879970788956, -0.22231848537921906, -0.3209008276462555, 0.2598467469215393, -0.1054932251572609, 0.230144664645195, -0.05908772349357605, -0.04957073926925659, 0.14417144656181335, -0.14559192955493927, 0.0697474405169487, -0.09281646460294724, 0.21239040791988373, 0.28226596117019653, -0.055057283490896225, -0.03458619490265846, 0.03885595127940178, 0.04427548497915268, 0.11596335470676422, 0.41354140639305115, 0.36938655376434326, 0.027083326131105423, 0.24043382704257965, 0.294567346572876, -0.06798668950796127, -0.16815274953842163, 0.036650437861680984, 0.04622986167669296, 0.08786078542470932, 0.05494564771652222, 0.17734357714653015, -0.2535090446472168, 0.09263817965984344, -0.10035251826047897, 0.24283401668071747, -0.04522017017006874, -0.07299582660198212, -0.37519094347953796, 0.17831699550151825, 0.44913846254348755, -0.0471075065433979, 0.1865033358335495, -0.004451645538210869, 0.09924068301916122, -0.01499965600669384, 0.24397288262844086, 0.17021366953849792, -0.23396196961402893, -0.1468813717365265, -0.1494867354631424, 0.280474990606308, 0.15091367065906525, -0.1832784116268158, -0.16180652379989624, 0.19117820262908936, 0.05449725687503815, -0.07957816869020462, 0.057223498821258545, -0.13728295266628265, 0.25430357456207275, 0.012078460305929184, -0.1121833398938179, 0.019707629457116127, -0.06376165896654129, 0.0477491058409214, 0.11356109380722046, -0.07383988797664642, -0.04914761334657669, -0.0390530526638031, -0.022152438759803772, 0.04126662388443947, -0.05009016394615173, -0.07777062058448792, 0.12810038030147552, -0.03607967495918274, 0.37199321389198303, -0.10594944655895233, 0.07390270382165909, -0.25024932622909546, 0.18995222449302673, -0.2410573661327362, 0.19796590507030487, -0.1363230049610138, 0.11707934737205505, -0.1438913494348526, 0.2358921766281128, -0.19156555831432343, -0.678534746170044, 0.024595482274889946, -0.2216767966747284, 0.1278749257326126, 0.11539356410503387, -0.05045042932033539, -0.3102719783782959, -0.1548130363225937, 0.2441740781068802, -0.052631303668022156, -0.07827775180339813, -0.21150203049182892, 0.49435827136039734, 0.24628864228725433, -0.04318508878350258, -0.06210111454129219, -0.154754176735878, -0.09852267801761627, 0.06745976954698563, -0.032274965196847916, -0.016687097027897835, 0.09224166721105576, -0.1272406280040741, -0.17974252998828888, 0.1421021819114685, 0.02885224111378193, -0.11868264526128769, 0.004510445520281792, -0.04972805455327034, 0.03543112054467201, -0.17821668088436127, -0.009232310578227043, 0.021878330036997795, 0.31028738617897034, 0.12981222569942474, -0.09120389074087143, 0.03819959610700607, 0.17963524162769318, -0.2419700175523758, -0.014415856450796127, 0.21721585094928741, 0.1910850554704666, 0.21620264649391174, -0.16776172816753387, -0.01666167750954628, 0.16685855388641357, -0.06738866120576859, 0.011758587323129177, 0.12335092574357986, 0.32640939950942993, 0.14787548780441284, -0.1144232228398323, -0.02513844333589077, -0.01860731467604637, -0.03631114959716797, 0.16604873538017273, -0.23839335143566132, 0.022063719108700752, 0.12524884939193726, -0.20435360074043274, -0.06586117297410965, 0.0742500051856041, 0.0004919671337120235, -0.16019025444984436, -0.12170160561800003, 0.07478541135787964, -0.025430478155612946, 0.22086234390735626, -0.13528119027614594, 0.1913997232913971, 0.09295133501291275, -0.013270318508148193, 0.27432581782341003, -0.10564612597227097, -0.07800887525081635, 0.058756664395332336, -0.14593791961669922, 0.16499429941177368, 0.1483825147151947, 0.3488117456436157, 0.06650998443365097, 0.03333621844649315, -0.040281519293785095, -0.05932442098855972, 0.1502830535173416, 0.08021366596221924, -0.25239649415016174, -0.06251898407936096, -0.13440650701522827, 0.05627777799963951, 0.01788473129272461, 0.14074920117855072, -0.050008367747068405, 0.13517846167087555, -0.17841550707817078, -0.20649656653404236, 0.01202358677983284, -0.19630159437656403, 0.28197789192199707, -0.040683820843696594, -0.14099471271038055, -0.15993598103523254, 0.03323957324028015, 0.20728343725204468, 0.06292718648910522, -0.10097720474004745, -0.14251741766929626, 0.15915445983409882, 0.20820912718772888, 0.1084563285112381, 0.05032752826809883, 0.06350402534008026, 0.007022394798696041, 0.13284814357757568, 0.14719264209270477, -0.39633551239967346, -0.2004244476556778, -0.0377669557929039, -0.0911291241645813, 0.14545786380767822, -0.12162148207426071, 0.17800964415073395, 0.05243554711341858, -0.17267124354839325, 0.12923693656921387, -0.006237989291548729, -0.12925998866558075, 0.012865145690739155, -0.1521686464548111, -0.349021315574646, -0.00617716321721673, 0.02410452999174595, -0.0700836256146431, 0.052138764411211014, -0.044330209493637085, 0.22001832723617554, 0.1134231761097908, 0.040153827518224716, -0.2726353108882904, -0.05017188563942909, -0.24081529676914215, -0.1132737547159195, 0.004205700010061264, 0.10900578647851944, 0.10797519981861115, 0.012695732526481152, -0.0004554081824608147, -0.20638716220855713, 0.09610042721033096, -0.10459652543067932, 0.12057193368673325, -0.16140256822109222, -0.10182389616966248, 0.022774435579776764, -0.20609991252422333, 0.10734836757183075, -0.1699475198984146, 0.13872747123241425, -0.21142837405204773, 0.08807162195444107, 0.2767930328845978, -0.1155417263507843, -0.048062268644571304, -0.3223271071910858, -0.04948442429304123, 0.06697861105203629, -0.32547900080680847, 0.0009950598469004035, -0.08931469917297363, -0.0454728938639164, -0.009555929340422153, 0.10288485139608383, 0.15351572632789612, -0.13974802196025848, -0.022323746234178543, -0.13971374928951263, -0.13984286785125732, 0.16080711781978607, 0.15707679092884064, -0.3826802670955658, -0.01680823042988777, -0.14300912618637085, 0.3470132350921631, -0.055064328014850616, 0.20534789562225342, -0.17303068935871124, 0.04314589127898216, -0.34514084458351135, 0.3206591308116913, -0.011069830507040024, 0.05651360750198364, 0.13923223316669464, 0.06215913966298103, 0.011468262411653996, -0.3011299967765808, -0.04470168426632881, 0.018417200073599815, 0.17058216035366058, -0.0664488896727562, -0.15550515055656433, 0.37278348207473755, -0.06866783648729324, -0.21188737452030182, 0.023605110123753548, 0.02025747112929821, -0.15682198107242584, -0.06296286731958389, 0.02010604739189148, -0.2234816998243332, -0.16576837003231049, 0.04892875626683235, -0.06610455363988876, -0.08530239760875702, 0.23291191458702087, 0.2228551059961319, 0.21882043778896332, -0.26277628540992737, 0.01551972609013319, 0.09639713913202286, -0.08917009830474854, 0.05200517922639847, -0.011536823585629463, 0.01644543744623661, -0.12191633135080338, -0.19802717864513397, -0.03946181386709213, -0.1150989755988121, -0.1708306074142456, 0.20073983073234558, 0.0010227105813100934, 